#include "net_nn.h"

/* Adam Gawlik ~ University of Science and Technology in Krakow */
/* automatically printed weights */
/* weights printed on day of simulation: 61, sat */

float first_weights_ref[NUM_OF_FIRST][NUM_OF_INPUTS] = {{0.213416531682014, 0.148126497864723, 0.14840841293335, 0.0469221360981464, 0.00263453787192702, -0.031390905380249, -0.0786359459161758, -0.0563902743160725, -0.0185497310012579,
0.0314682871103287, 0.112153239548206, 0.134310126304626, 0.0843382179737091, 0.0313173308968544, 0.0218051318079233, 0.00821166206151247, -0.0120695475488901, 0.00405683740973473,
0.0330969914793968, 0.0010530058061704, -0.0195541847497225, -0.0257875025272369, 0.00613275449723005, 0.0623370483517647, 0.246107831597328, 0.207428112626076, 0.195645824074745,
0.202926591038704, 0.270540684461594, 0.140157073736191, 0.143583759665489, 0.108565643429756, 0.131028771400452, 0.0940656736493111, 0.0357034355401993, -0.0403905175626278,
-0.0179560668766499, 0.109986424446106, 0.0919390916824341, 0.164462551474571, 0.0961249172687531, 0.0846603214740753, 0.0966094434261322, 0.148196578025818, 0.0808611884713173,
0.0385490283370018, 0.0784565061330795, 0.0290139112621546, 0.227157190442085, 0.202086806297302, 0.12275467813015, 0.0887054726481438, -0.00511917006224394, -0.0142696052789688,
-0.0401709750294685, -0.00468322867527604, -0.0234968401491642, 0.0443580485880375, 0.0616713725030422, 0.106896117329597, 0.0252676233649254, 0.0721401274204254, -0.0150419836863875,
0.000804615905508399, 0.0333534069359303, 0.0386295951902866, -0.0200388077646494, 0.0346147976815701, 0.029784856364131, -0.0296843405812979, 0.0233671516180038, -0.00926910154521465,
0.227101191878319, 0.203995421528816, 0.179738864302635, 0.270348519086838, 0.210316210985184, 0.191656962037086, 0.154547721147537, 0.116752348840237, 0.0944144129753113,
0.083011731505394, 0.0244464352726936, -0.000950941524934024, 0.0172489415854216, 0.0425969809293747, 0.0938394740223885, 0.147099494934082, 0.104006879031658, 0.147555112838745,
0.0763556584715843, 0.0665958747267723, 0.11331745237112, 0.0469931736588478, 0.0615177750587463, 0.0470148287713528, -0.0737592130899429, -0.0308187510818243, 0.0207894425839186,
-0.0268197897821665, -0.0168430116027594, 0.0164179261773825, -0.0437329709529877, -0.0315328314900398, 0.203208908438683, -0.301870226860046, 0.0768947750329971, -0.0222490653395653,
0.205616071820259, 0.23065559566021, 0.221143648028374, 0.121761336922646, -0.121717244386673, -0.469884812831879, -0.229268237948418, -0.0222437046468258, 0.0105922631919384,
-0.037077933549881, -0.00337368156760931 }, {-0.410314440727234, -0.150534451007843, 0.101713627576828, 0.179100453853607, 0.0558270178735256, 0.119561672210693, 0.0388843640685081,
-0.021408686414361, -0.0466103851795197, -0.026841726154089, 0.0264175143092871, 0.14865505695343, 0.223957717418671, 0.261210024356842, 0.177079126238823, 0.114329032599926,
0.112018823623657, 0.172689855098724, 0.124201446771622, 0.141064554452896, 0.171041339635849, 0.110815934836864, 0.161211743950844, 0.187751844525337, -1.45028209686279,
-1.33272981643677, -1.03697407245636, -0.582255959510803, -0.184840351343155, -0.0322596468031406, -0.0202172715216875, 0.0716926977038383, 0.105252183973789, 0.00134671223349869,
-0.0682424381375313, -0.0953670591115952, -0.164638072252274, -0.141989693045616, -0.0473907515406609, 0.0764090269804001, -0.00745033007115126, -0.134926661849022, -0.112844616174698,
-0.00889619346708059, -0.105790607631207, 0.0213671736419201, -0.0499591492116451, -0.0507261529564857, -0.494469344615936, -0.209580630064011, 0.0583938620984554, 0.0994337424635887,
0.0534957870841026, 0.0637559071183205, -0.0236699301749468, 0.0144450785592198, -0.055505845695734, -0.0419956669211388, -0.0246762540191412, 0.17396205663681, 0.212126582860947,
0.215672850608826, 0.244875490665436, 0.092431329190731, 0.0657965540885925, 0.180251941084862, 0.199697047472, 0.24133463203907, 0.178871870040894, 0.101507365703583,
0.227604061365128, 0.178444787859917, -1.41522896289825, -1.36797881126404, -1.00249755382538, -0.575978696346283, -0.239787623286247, -0.0720387101173401, 0.0524614490568638,
0.0764189586043358, 0.137754335999489, 0.032816618680954, -0.0554945543408394, -0.0393344573676586, -0.0992919579148293, -0.166272073984146, -0.0201943069696426, 0.13870370388031,
-0.0310779120773077, -0.206040382385254, -0.255589365959167, -0.0203591305762529, -0.0606992319226265, -0.0601227469742298, -0.0993701815605164, -0.0202017594128847, 0.256094872951508,
0.127864301204681, 0.245877310633659, 0.198920398950577, 0.156694620847702, 0.201710850000381, 0.214542955160141, 1.42513525485992, 0.427102565765381, -0.932130992412567,
-0.661701023578644, -0.610194504261017, -0.140654951334, 0.0763359665870667, 0.175539761781693, 0.36072838306427, 0.458407878875732, 0.719226181507111, 1.6414133310318,
0.370999038219452, 0.303970336914063, 0.369464635848999, 0.291163980960846 }, {0.85407555103302, 0.47870808839798, 0.097376637160778, 0.0479573495686054, -0.105691500008106,
-0.146662399172783, -0.202596262097359, -0.124995149672031, -0.0464041605591774, -0.0963559076189995, -0.036867655813694, -0.0299848038703203, -0.127196475863457, -0.12196646630764,
-0.121983118355274, -0.0975800305604935, -0.291546732187271, -0.211504682898521, -0.274639219045639, -0.283156365156174, -0.250696152448654, -0.231472820043564, -0.20608951151371,
-0.278208076953888, 1.46612226963043, 1.31398940086365, 0.970551729202271, 0.611645579338074, 0.427931576967239, 0.324734479188919, 0.241445183753967, 0.147328585386276,
0.101997189223766, 0.091478705406189, 0.104526653885841, -0.0157268233597279, -0.0719594359397888, 0.0562637820839882, 0.0567204207181931, 0.00827841274440289, 0.247183710336685,
0.0639533773064613, 0.0627830699086189, 0.0414820052683353, 0.0363582670688629, 0.0549285486340523, 0.032184224575758, -0.00412971340119839, 0.919459819793701, 0.507173180580139,
0.124700337648392, 0.00812439806759357, 0.0110497856512666, -0.0933949202299118, -0.117464356124401, -0.0693126767873764, -0.114810436964035, -0.0312040708959103, -0.0786000713706017,
-0.0919534489512444, -0.176410689949989, -0.130706250667572, -0.163342386484146, -0.108360379934311, -0.325774192810059, -0.203987136483192, -0.280494958162308, -0.335251867771149,
-0.205249488353729, -0.198526158928871, -0.269058734178543, -0.275621920824051, 1.43063592910767, 1.30024123191833, 0.907606244087219, 0.692257881164551, 0.377566546201706,
0.356316119432449, 0.19100022315979, 0.0885233283042908, 0.0248736850917339, 0.0935206934809685, -0.00164213101379573, -0.0784995332360268, -0.0319166928529739, 0.0464789234101772,
0.0332502834498882, -0.00596745265647769, 0.224919959902763, 0.130545079708099, 0.160433307290077, 0.0502452962100506, 0.0772286206483841, 0.0800228789448738, 0.0583754852414131,
0.0295679271221161, -0.553962767124176, -0.199919447302818, -0.284694671630859, -0.225910231471062, -0.278169184923172, -0.0708714202046394, -0.253528833389282, -1.65270900726318,
-0.11532062292099, 0.616242349147797, 1.31267070770264, 0.770801961421967, 0.397720813751221, 0.028934059664607, -0.203593447804451, -0.399962484836578, -0.73793488740921,
-1.79780602455139, -2.06168746948242, -0.401813328266144, -0.393333733081818, -0.398378491401672, -0.352576196193695 }, {-0.0163705479353666, 0.0805013179779053, 0.168625935912132,
0.196766123175621, 0.0953453853726387, 0.0152543187141418, -0.00119568244554102, -0.0234202183783054, -0.0823094099760056, -0.0463744439184666, 0.0638807341456413, 0.169955477118492,
0.293966889381409, 0.271004170179367, 0.189320102334023, 0.166948050260544, 0.00748908612877131, 0.174904346466064, 0.0830781236290932, 0.155020982027054, 0.161446109414101,
0.0840943604707718, 0.152050390839577, 0.165150314569473, -0.9091637134552, -0.921659767627716, -0.718390941619873, -0.385700732469559, -0.115501537919044, 0.0496278330683708,
0.037107527256012, 0.109915919601917, 0.0613245218992233, 0.012217472307384, -0.00325648114085197, -0.108665816485882, -0.182456955313683, -0.163204446434975, -0.0651162415742874,
0.124182112514973, 0.0602711662650108, -0.118798837065697, -0.126483008265495, -0.0281008966267109, -0.11937652528286, 0.0237191095948219, -0.0635238364338875, -0.0831243470311165,
-0.0469447486102581, 0.0727594718337059, 0.203221455216408, 0.169891521334648, 0.126044407486916, -0.00144333729986101, -0.0191754344850779, -0.010985697619617, -0.084129810333252,
-0.0880132839083672, 0.0953798517584801, 0.144196316599846, 0.267495423555374, 0.296645492315292, 0.225010439753532, 0.15332593023777, 0.0847794488072395, 0.170813158154488,
0.135249003767967, 0.133963957428932, 0.122359924018383, 0.0931305661797523, 0.103140756487846, 0.0914831310510635, -0.890834212303162, -0.901786863803864, -0.779702365398407,
-0.442603319883347, -0.0785942822694778, 0.0107071548700333, 0.0217087138444185, 0.103415824472904, 0.0334908291697502, 0.0228172335773706, -0.0120257455855608, -0.0643744692206383,
-0.15159098803997, -0.153177484869957, -0.0284652523696423, 0.135753706097603, 0.0937421694397926, -0.114635482430458, -0.149253576993942, -0.0708032250404358, -0.107571080327034,
-0.011610203422606, -0.044389370828867, -0.0604270100593567, 0.169644773006439, 0.143420517444611, 0.222244769334793, 0.119078457355499, 0.0922552421689034, 0.153033971786499,
0.166674166917801, 1.0664119720459, 0.471978366374969, -0.544071137905121, -0.270257651805878, -0.331867396831512, 0.0433632247149944, 0.106974519789219, 0.149393498897552,
0.202132701873779, 0.143427819013596, 0.0108922254294157, 1.12394452095032, 0.218373775482178, 0.177984416484833, 0.20819827914238, 0.163912206888199 }, {-0.736233115196228,
-0.444129079580307, -0.194792449474335, -0.0202193167060614, 0.0110586509108543, 0.200163930654526, 0.216774731874466, 0.203830152750015, 0.199786022305489, 0.0906189158558846,
-0.0291642285883427, -0.0625410601496696, 0.012925791554153, 0.0139908036217093, 0.0961558297276497, 0.0986328199505806, 0.211996376514435, 0.130239889025688, 0.15683376789093,
0.200377151370049, 0.203584417700768, 0.153817534446716, 0.1978709846735, 0.146477118134499, -0.810114681720734, -0.655628561973572, -0.580656051635742, -0.544229865074158,
-0.388144463300705, -0.389311343431473, -0.355619877576828, -0.270733565092087, -0.179559111595154, -0.164588436484337, -0.113879047334194, -0.000833295751363039, 0.0658185482025146,
-0.06556086987257, -0.124547034502029, -0.15337972342968, -0.303381234407425, -0.0606039017438889, -0.0202669911086559, -0.0442596711218357, -0.07557113468647, -0.145351618528366,
-0.0982553362846375, -0.0467042848467827, -0.812209367752075, -0.541455924510956, -0.213145986199379, -0.0360291190445423, 0.0258089620620012, 0.16292878985405, 0.182079941034317,
0.189047932624817, 0.175564408302307, 0.069331556558609, -0.0349433906376362, -0.0623688697814941, -0.0573291629552841, 0.0196332652121782, 0.0568142496049404, 0.118720270693302,
0.223928868770599, 0.0861620157957077, 0.161717146635056, 0.17947606742382, 0.188706442713737, 0.219071075320244, 0.220140233635902, 0.193650588393211, -0.803542673587799,
-0.716111361980438, -0.561366081237793, -0.548093020915985, -0.381425559520721, -0.394370019435883, -0.319947183132172, -0.20017546415329, -0.178684309124947, -0.16464364528656,
-0.0877048596739769, 0.0113755641505122, 0.038033913820982, -0.111051142215729, -0.171817973256111, -0.206962049007416, -0.327497929334641, -0.0829148665070534, -0.124173745512962,
-0.0992989391088486, -0.140964061021805, -0.0791670382022858, -0.0375580228865147, -0.0493744015693665, 0.272854954004288, 0.179106652736664, 0.278214961290359, 0.221418827772141,
0.215464979410172, 0.203640222549438, 0.195761352777481, 1.302778840065, 0.398621767759323, -0.518594443798065, -1.07367026805878, -0.86261385679245, -0.432726711034775,
-0.101883575320244, 0.0101119792088866, 0.278096705675125, 0.696212112903595, 1.60803663730621, 1.55061066150665, 0.40736910700798, 0.251449257135391, 0.363332957029343,
0.286035984754562 }, {0.893778026103973, 0.562175631523132, 0.210722491145134, 0.0334577076137066, -0.15184697508812, -0.213112905621529, -0.266887128353119, -0.273315995931625,
-0.220018416643143, -0.111438505351543, 0.0974615439772606, 0.135175183415413, 0.0524663329124451, -0.0330068841576576, -0.012926965020597, -0.113152556121349, -0.268735647201538,
-0.175303399562836, -0.195815607905388, -0.206700637936592, -0.190328016877174, -0.166847616434097, -0.1816486120224, -0.200558125972748, 1.07452595233917, 0.806707859039307,
0.67665308713913, 0.618247985839844, 0.495972841978073, 0.387981235980988, 0.23753060400486, 0.194704979658127, 0.133020237088203, 0.0502799563109875, -0.0107460897415876,
-0.109172746539116, -0.107573859393597, -0.0247572027146816, 0.0621543377637863, 0.125730469822884, 0.30370244383812, 0.0748767852783203, 0.05982631072402, 0.05888606980443,
0.1180429905653, 0.0908671021461487, 0.118183091282845, 0.0606298856437206, 0.837598919868469, 0.564889550209045, 0.133020147681236, -0.0121044488623738, -0.113437242805958,
-0.167056545615196, -0.263675540685654, -0.210280403494835, -0.203008562326431, -0.0428509712219238, 0.0158671289682388, 0.129341468214989, -0.0260528828948736, -0.0522399917244911,
-0.0582078248262405, -0.0655546113848686, -0.222188949584961, -0.111755259335041, -0.191650673747063, -0.265858590602875, -0.157805025577545, -0.138951361179352, -0.202202573418617,
-0.18981246650219, 1.04701137542725, 0.768174767494202, 0.590695440769196, 0.615675687789917, 0.453952074050903, 0.335832357406616, 0.242337793111801, 0.161002352833748,
0.134186208248138, 0.0991888120770454, -0.0351223535835743, -0.171474903821945, -0.122511304914951, 0.0632646158337593, 0.133172482252121, 0.163965716958046, 0.258572041988373,
0.112630754709244, 0.174215823411942, 0.180786773562431, 0.0942279025912285, 0.140959590673447, 0.145781427621841, 0.0639903023838997, -0.345872670412064, -0.161254376173019,
-0.246868640184402, -0.195838898420334, -0.214308887720108, -0.139822214841843, -0.146484285593033, -1.06076073646545, -0.0870532616972923, -0.143119990825653, 0.774550199508667,
0.582815408706665, 0.62133002281189, 0.322014659643173, 0.1862912774086, -0.216545775532722, -0.671793222427368, -1.80085420608521, -1.42855501174927, -0.3819520175457,
-0.283779174089432, -0.387888640165329, -0.333273380994797 }, {-0.868028223514557, -0.455481946468353, -0.131821885704994, -0.0518958307802677, 0.00274213426746428, 0.214313894510269,
0.286117941141129, 0.203222960233688, 0.139940500259399, 0.094401590526104, 0.0933302789926529, 0.0144776618108153, 0.0299823675304651, 0.0479439496994019, 0.100806675851345,
0.0184763222932816, 0.2279322296381, 0.198137983679771, 0.168363124132156, 0.250121414661407, 0.179593116044998, 0.211622759699821, 0.227137476205826, 0.250847786664963,
-1.06709659099579, -0.941570401191711, -0.724030196666718, -0.61841231584549, -0.383633345365524, -0.36704283952713, -0.391650915145874, -0.188308969140053, -0.193017527461052,
-0.213880717754364, -0.130867809057236, -0.0262544136494398, 0.0573250539600849, -0.0736670568585396, -0.0626511722803116, -0.156983435153961, -0.3175910115242, -0.0231439247727394,
-0.0574985966086388, -0.0190381575375795, -0.0770010650157928, -0.101122573018074, -0.0941459611058235, -0.0308234710246325, -0.866097629070282, -0.505395233631134, -0.115329548716545,
-0.135557591915131, -0.0283342208713293, 0.1210578083992, 0.224307358264923, 0.20362950861454, 0.135405674576759, 0.0723014175891876, 0.058945719152689, -0.0548363327980042,
-0.0141085525974631, 0.0117334108799696, 0.0629811808466911, 0.109924376010895, 0.273481726646423, 0.189297154545784, 0.178278014063835, 0.239042326807976, 0.19397845864296,
0.20003841817379, 0.175226911902428, 0.230607107281685, -1.08188104629517, -0.861784338951111, -0.690678477287292, -0.593895971775055, -0.42476761341095, -0.396513730287552,
-0.375812262296677, -0.186389774084091, -0.212490901350975, -0.129545629024506, -0.040561031550169, 0.051005344837904, 0.0307790655642748, -0.0179674420505762, -0.143303170800209,
-0.165634751319885, -0.295771062374115, -0.0863722264766693, -0.136037811636925, -0.0558075830340385, -0.116840817034245, -0.138776406645775, -0.00721388310194016, -0.0651182010769844,
0.394895195960999, 0.249688699841499, 0.289496302604675, 0.236504822969437, 0.240984469652176, 0.237722173333168, 0.221684128046036, 1.51638221740723, 0.433588206768036,
-0.763973116874695, -1.18045663833618, -0.883870601654053, -0.427068829536438, -0.027618857100606, 0.0737981051206589, 0.417735278606415, 0.752026796340942, 1.8650336265564,
1.8850462436676, 0.421434879302979, 0.268778383731842, 0.379875361919403, 0.303040504455566 }, {-0.380843639373779, -0.09404256939888, 0.174257382750511, 0.170034602284431,
0.151365682482719, 0.0505556501448154, 0.0679503157734871, -0.0123664196580648, -0.164241880178452, -0.0881477445363998, 0.00951381959021091, 0.146401450037956, 0.363481432199478,
0.330909907817841, 0.241320386528969, 0.110650904476643, 0.0862158015370369, 0.223569646477699, 0.146525248885155, 0.144180342555046, 0.220621839165688, 0.179535016417503,
0.18336845934391, 0.204815447330475, -1.57118964195251, -1.47720861434937, -1.13594627380371, -0.627008497714996, -0.187719896435738, 0.0275379773229361, 0.104275815188885,
0.0958478301763535, 0.160962909460068, 0.054221298545599, -0.0169708020985126, -0.108855433762074, -0.182231545448303, -0.171272575855255, -0.00681314384564757, 0.160412222146988,
0.0825729221105576, -0.120375961065292, -0.183271065354347, -0.00815374124795198, -0.0634148046374321, -0.015013437718153, -0.0976615622639656, 0.00727335503324866, -0.377741783857346,
-0.103125728666782, 0.153347685933113, 0.149557322263718, 0.0679585784673691, 0.0823165476322174, -0.0296985618770123, -0.0395237952470779, -0.0850506275892258, -0.107694856822491,
0.0498718954622746, 0.198655158281326, 0.323098421096802, 0.32960033416748, 0.22014057636261, 0.194519802927971, 0.108251862227917, 0.170546129345894, 0.211153835058212,
0.22535640001297, 0.192480400204659, 0.19564625620842, 0.139068722724915, 0.125521183013916, -1.50230002403259, -1.49981236457825, -1.09736883640289, -0.620595812797546,
-0.124665923416615, 0.0404273271560669, 0.0981937870383263, 0.198692128062248, 0.126062795519829, 0.0882528498768806, -0.0219749957323074, -0.0807134658098221, -0.164034366607666,
-0.175674945116043, -0.0489127486944199, 0.175111398100853, 0.0863460376858711, -0.159295171499252, -0.218302518129349, -0.0531848482787609, -0.101752325892448, -0.0767133682966232,
-0.0894288644194603, -0.0131876477971673, 0.299190431833267, 0.174168571829796, 0.231961652636528, 0.142670974135399, 0.171838417649269, 0.255438715219498, 0.215856716036797,
1.39262044429779, 0.371666580438614, -0.923900604248047, -0.611124753952026, -0.574376463890076, -0.093025915324688, 0.0305816940963268, 0.186428174376488, 0.290494054555893,
0.392215222120285, 0.598785638809204, 1.65976655483246, 0.271890610456467, 0.242838323116302, 0.329518765211105, 0.233242347836494 }, {0.0706889182329178, -0.0316115319728851,
-0.182855680584908, -0.19657801091671, -0.248655140399933, -0.104931898415089, -0.0102726295590401, 0.0214495752006769, 0.0125270504504442, 0.0507799722254276, 0.0349044539034367,
-0.194546297192574, -0.313981354236603, -0.313430666923523, -0.261128157377243, -0.218141123652458, -0.0859764665365219, -0.170595899224281, -0.166737601161003, -0.162270322442055,
-0.208984196186066, -0.106748469173908, -0.105064816772938, -0.122592486441135, 1.08372151851654, 1.08692443370819, 0.834797561168671, 0.467717379331589, 0.122119776904583,
-0.0543875023722649, -0.126081272959709, -0.127708062529564, -0.196407094597816, -0.0987154915928841, -0.0801317393779755, 0.0139138922095299, 0.11666838824749, 0.154913768172264,
0.0443813838064671, -0.144542366266251, -0.0886242091655731, 0.13361220061779, 0.1619992852211, 0.0236505381762981, 0.0960119664669037, -0.0110414465889335, 0.0762680470943451,
0.104389980435371, 0.110493868589401, -0.0438655279576778, -0.174243241548538, -0.277079194784164, -0.195130318403244, -0.14202818274498, -0.0322201624512672, 0.0526098012924194,
0.0951865613460541, 0.0943548455834389, -0.0399041250348091, -0.105468027293682, -0.306678712368011, -0.25491127371788, -0.205326825380325, -0.142642810940742, -0.0285357534885406,
-0.170971468091011, -0.129477500915527, -0.144449844956398, -0.131958901882172, -0.0903608575463295, -0.12476684898138, -0.131966561079025, 1.11871302127838, 1.08391571044922,
0.773259341716766, 0.466950744390488, 0.130654260516167, -0.103339172899723, -0.115815460681915, -0.198299378156662, -0.219723612070084, -0.17419196665287, -0.085890606045723,
-0.0627202242612839, 0.0888342559337616, 0.130715623497963, 0.012799521908164, -0.177233278751373, -0.0824473276734352, 0.18609182536602, 0.179944708943367, 0.0438223332166672,
0.0545014515519142, 0.037384420633316, 0.0490040332078934, 0.0843402370810509, -0.20505191385746, -0.152755200862885, -0.178430870175362, -0.0976970791816711, -0.170791432261467,
-0.142898544669151, -0.165722995996475, -0.775837898254395, -0.0677638947963715, 0.0278655271977186, -0.14128677546978, 0.0039264801889658, 0.114132806658745, 0.148595049977303,
0.0154197355732322, -0.062654435634613, -0.109205037355423, -0.131243646144867, -0.9595627784729, -0.172886997461319, -0.193060621619225, -0.26661416888237, -0.251266747713089,
}, {-0.613903522491455, -0.26391676068306, -0.0876010060310364, 0.0212461370974779, 0.0901351273059845, 0.124972879886627, 0.147538676857948, 0.100094623863697, 0.00741835776716471,
-0.0108670350164175, 0.0527667626738548, 0.0718366578221321, 0.0748382732272148, 0.149834170937538, 0.147558301687241, 0.0949811488389969, 0.169630140066147, 0.175519287586212,
0.137151643633842, 0.176946803927422, 0.20195896923542, 0.174639478325844, 0.141353979706764, 0.136092409491539, -1.00190711021423, -0.92070060968399, -0.713006913661957,
-0.50630921125412, -0.291315197944641, -0.25535523891449, -0.26015892624855, -0.159441083669662, -0.14252083003521, -0.0872590020298958, -0.0985512062907219, -0.0253396928310394,
-0.0771789401769638, -0.109595842659473, -0.0567671842873096, -0.103025309741497, -0.190166801214218, -0.086144745349884, -0.128789320588112, -0.0587553046643734, -0.0909672453999519,
-0.0517382174730301, -0.0585272833704948, -0.011562068015337, -0.649126410484314, -0.33888241648674, -0.0602621287107468, 0.0296843107789755, 0.0227178707718849, 0.0966625213623047,
0.100299201905727, 0.14468115568161, 0.00436252821236849, 0.0415662303566933, 0.00178511661943048, 0.027258675545454, 0.124342978000641, 0.14414969086647, 0.107668288052082,
0.0925020650029182, 0.176630631089211, 0.149122267961502, 0.200692668557167, 0.139528006315231, 0.204155966639519, 0.120357908308506, 0.178762510418892, 0.111978150904179,
-0.965546429157257, -0.915716707706451, -0.673616170883179, -0.501206517219543, -0.350887507200241, -0.212574243545532, -0.222513243556023, -0.0900798663496971, -0.0627549290657043,
-0.134339392185211, -0.0364165306091309, -0.0194230321794748, -0.0604114793241024, -0.111170694231987, -0.137513399124146, -0.0846599787473679, -0.213985562324524, -0.114097155630589,
-0.191720232367516, -0.0618430525064468, -0.0967656522989273, -0.145312890410423, -0.125810891389847, -0.0435069389641285, 0.295295894145966, 0.185955956578255, 0.273451030254364,
0.199979439377785, 0.160680294036865, 0.182172879576683, 0.169351324439049, 1.27956986427307, 0.470921158790588, -0.597057223320007, -0.85173225402832, -0.725668668746948,
-0.260958433151245, -0.033218041062355, 0.0356688722968102, 0.292434215545654, 0.475888580083847, 1.14088702201843, 1.53567886352539, 0.336947500705719, 0.288663327693939,
0.305748701095581, 0.292321085929871 }, {-0.565508604049683, -0.272397637367249, 0.0450018793344498, 0.0990085601806641, 0.0405529737472534, 0.125416159629822, 0.157089993357658,
0.107833035290241, 0.0497642159461975, -0.0121429767459631, -0.0269582942128181, 0.0420411229133606, 0.131457030773163, 0.158660769462585, 0.162052154541016, 0.0804145410656929,
0.168233886361122, 0.103729665279388, 0.14787782728672, 0.189279139041901, 0.169126749038696, 0.188782408833504, 0.191835641860962, 0.156983926892281, -1.16329073905945,
-1.02992236614227, -0.827235460281372, -0.593886494636536, -0.26469612121582, -0.187353819608688, -0.157680615782738, -0.0933369398117065, -0.0449452623724937, -0.0867112949490547,
-0.017565218731761, -0.0156205873936415, -0.0287175104022026, -0.119598604738712, -0.0868268609046936, -0.0479884035885334, -0.0917418524622917, -0.131022408604622, -0.122132435441017,
-0.0969082713127136, -0.104391947388649, -0.110263153910637, -0.0279164761304855, -0.0685657635331154, -0.571065843105316, -0.29475137591362, 0.0156318750232458, 0.0190170425921679,
0.058232769370079, 0.0576434805989265, 0.0581319145858288, 0.0130591969937086, 0.0272032767534256, -0.0625717267394066, -0.0298744793981314, 0.0896336585283279, 0.180882662534714,
0.180708691477776, 0.122312150895596, 0.098488949239254, 0.1470757573843, 0.107893899083138, 0.124837458133698, 0.191518023610115, 0.135655552148819, 0.137281060218811,
0.163340508937836, 0.161861553788185, -1.14879429340363, -1.04706692695618, -0.753584802150726, -0.51851487159729, -0.308353036642075, -0.129951521754265, -0.166871070861816,
-0.0188015531748533, -0.0141081186011434, -0.0366046652197838, -0.0827936455607414, 0.00152427807915956, -0.0321609079837799, -0.172823116183281, -0.128441229462624, 0.0362479165196419,
-0.0851484015583992, -0.14003524184227, -0.15185272693634, -0.0585841424763203, -0.0716125592589378, -0.0371767841279507, -0.055300809442997, -0.0604210048913956, 0.277118802070618,
0.128093913197517, 0.201718494296074, 0.14692522585392, 0.172800615429878, 0.23849581182003, 0.214238569140434, 1.32259106636047, 0.479361534118652, -0.705901503562927,
-0.764464616775513, -0.690880298614502, -0.246385231614113, 0.0279159992933273, 0.0759444385766983, 0.313751518726349, 0.47873455286026, 0.978898167610168, 1.52172136306763,
0.329887092113495, 0.219110026955605, 0.320998668670654, 0.265540540218353 }, {-0.791915237903595, -0.436740756034851, -0.119963146746159, -0.0724802315235138, -0.00396451260894537,
0.182050511240959, 0.167024120688438, 0.171085953712463, 0.0341407954692841, 0.0867368504405022, 0.0845825374126434, 0.0558237880468369, 0.0868794322013855, 0.163017973303795,
0.169624701142311, 0.123317554593086, 0.215386986732483, 0.250229477882385, 0.226703703403473, 0.279548496007919, 0.243696644902229, 0.249970063567162, 0.243495896458626,
0.207954451441765, -1.19856095314026, -1.1003965139389, -0.836761057376862, -0.592747151851654, -0.420764565467834, -0.359173983335495, -0.342172980308533, -0.172933414578438,
-0.137160554528236, -0.182124495506287, -0.12274868786335, 0.0245296861976385, 0.0323017500340939, -0.109148666262627, -0.0969213843345642, -0.0893808677792549, -0.230579003691673,
0.0105200326070189, -0.0143536934629083, -0.047675184905529, -0.00672440929338336, 0.016963941976428, -0.0308969542384148, -0.0140238022431731, -0.862486302852631, -0.494679301977158,
-0.0681997984647751, -0.120507456362247, 0.0228532981127501, 0.0581674873828888, 0.12139043211937, 0.0586055889725685, 0.0292244702577591, -0.0028684267308563, 0.0924471020698547,
0.0340576171875, 0.119851768016815, 0.128346711397171, 0.0961383581161499, 0.125756829977036, 0.211042195558548, 0.122970812022686, 0.279091745615005, 0.282652765512466,
0.237842008471489, 0.220768645405769, 0.256524443626404, 0.204467669129372, -1.27682673931122, -1.18431425094604, -0.8752161860466, -0.600606083869934, -0.423151969909668,
-0.37491962313652, -0.288514256477356, -0.208523467183113, -0.153728947043419, -0.133326351642609, -0.0485944636166096, -0.00345873273909092, 0.0319308005273342, -0.0350929200649261,
-0.116746194660664, -0.054368432611227, -0.191979810595512, -0.103209175169468, -0.108064733445644, -0.0176619999110699, -0.0633653625845909, -0.0780053064227104, -0.0591435544192791,
-0.0426473915576935, 0.416433036327362, 0.181431382894516, 0.312828958034515, 0.266522467136383, 0.271860092878342, 0.176733702421188, 0.304396986961365, 1.7946629524231,
0.335504710674286, -1.08966767787933, -1.29689955711365, -1.00163972377777, -0.390336751937866, 0.0262419171631336, 0.205996364355087, 0.451478540897369, 0.737084209918976,
1.84012603759766, 2.20324373245239, 0.481922566890717, 0.375744998455048, 0.392622590065002, 0.370961785316467 }, {-0.44226947426796, -0.345635533332825, -0.130955740809441,
-0.0769021958112717, 0.018190436065197, 0.15855784714222, 0.154463022947311, 0.216486558318138, 0.103824496269226, 0.0622221566736698, 0.0219849515706301, -0.0917535498738289,
-0.069831483066082, -0.0117024034261703, 0.0553994178771973, 0.0584847442805767, 0.12731109559536, 0.0427442006766796, 0.0981955155730247, 0.0675986707210541, 0.110908031463623,
0.149026393890381, 0.135097324848175, 0.101018525660038, -0.289823174476624, -0.237440586090088, -0.319420605897903, -0.428321123123169, -0.357265949249268, -0.435184448957443,
-0.316176921129227, -0.254417538642883, -0.208998918533325, -0.158643662929535, -0.0843671783804893, 0.0077593894675374, -0.048461802303791, -0.0591573938727379, -0.227301061153412,
-0.243555337190628, -0.277122765779495, -0.0772126317024231, -0.0921357721090317, -0.126906380057335, -0.0773352086544037, -0.0652018934488297, -0.0648438185453415, -0.053696982562542,
-0.496648609638214, -0.326138108968735, -0.160632595419884, -0.0930631756782532, 0.0802050456404686, 0.152630433440208, 0.186272546648979, 0.165968656539917, 0.132444232702255,
0.0858515277504921, -0.0024736188352108, -0.128319159150124, -0.0899080261588097, -0.0532331466674805, 0.0660892277956009, 0.0486858300864697, 0.133225917816162, 0.103027187287807,
0.126751005649567, 0.123068884015083, 0.102641180157661, 0.0700158923864365, 0.110909029841423, 0.0624994374811649, -0.304421633481979, -0.300520271062851, -0.284551382064819,
-0.395360201597214, -0.406343728303909, -0.43341076374054, -0.368577837944031, -0.315991252660751, -0.216792643070221, -0.226558297872543, -0.13531020283699, -0.0606791041791439,
-0.0611666925251484, -0.0779886692762375, -0.191955372691154, -0.230974718928337, -0.272908687591553, -0.129110738635063, -0.0394667908549309, -0.147789925336838, -0.123201407492161,
-0.0966809615492821, -0.0820860490202904, -0.0795203447341919, 0.106154270470142, 0.142811164259911, 0.15196119248867, 0.131437435746193, 0.0911030992865562, 0.160210058093071,
0.119510091841221, 0.838480532169342, 0.444428563117981, -0.298226714134216, -0.643809497356415, -0.577529847621918, -0.282067805528641, -0.106172569096088, -0.0534478910267353,
0.184480205178261, 0.381691038608551, 0.988793075084686, 1.01827573776245, 0.218114897608757, 0.134949669241905, 0.226807966828346, 0.180086001753807 }, {0.227495580911636,
0.133262500166893, -0.0136814210563898, -0.100620076060295, -0.149258151650429, -0.102774582803249, -0.0480640307068825, 0.0064362152479589, -0.00532997353002429, 0.017103573307395,
0.0810923278331757, 0.0405527092516422, -0.108862422406673, -0.114644810557365, -0.122297577559948, -0.104369327425957, -0.0183519944548607, -0.100479632616043, -0.0575932376086712,
-0.11602808535099, -0.0810000523924828, -0.0935616120696068, -0.0937061756849289, -0.0932811424136162, 0.738569140434265, 0.656340956687927, 0.56556624174118, 0.412068963050842,
0.209370911121368, 0.146009743213654, 0.0597222894430161, -0.0149608012288809, -0.0137989027425647, -0.0713778659701347, -0.0620312578976154, -0.0585239306092262, 0.0173200834542513,
0.161191448569298, 0.0888577997684479, -0.00906297471374273, 0.050689198076725, 0.132689654827118, 0.13857389986515, 0.135782271623611, 0.13024015724659, 0.0454521328210831,
0.087833434343338, 0.0466800108551979, 0.19456872344017, 0.124662131071091, 0.00578408362343907, -0.139913454651833, -0.0643145516514778, -0.130083575844765, -0.0602175667881966,
-0.0755403339862823, -0.030603252351284, 0.0312896929681301, 0.0259698964655399, -0.0463159792125225, -0.0898481830954552, -0.166878536343575, -0.111130714416504, -0.0456858016550541,
-0.0578951425850391, -0.0617854595184326, -0.0994317755103111, -0.0668400377035141, -0.0427528545260429, -0.0199790541082621, -0.112777665257454, -0.0337954387068748, 0.675453960895538,
0.634146571159363, 0.576525092124939, 0.422488391399384, 0.170389086008072, 0.0628300309181213, 0.037792194634676, 0.00292031257413328, -0.0817612931132317, 0.00691011920571327,
-0.0919963046908379, 0.0107088759541512, 0.00781587231904268, 0.125413805246353, 0.0764325708150864, 0.00657091522589326, 0.0431011840701103, 0.0983336195349693, 0.13975864648819,
0.069351002573967, 0.128191366791725, 0.046302430331707, 0.119623310863972, 0.0376742295920849, -0.167242869734764, -0.089146614074707, -0.10330505669117, -0.0356603935360909,
-0.0490331053733826, -0.10073222219944, -0.0985154509544373, -0.52522748708725, 0.0075369137339294, -0.076639324426651, 0.0359794311225414, 0.0360596291720867, 0.169537261128426,
0.177178576588631, 0.152278497815132, 0.0340104326605797, -0.126946911215782, -0.444793879985809, -0.753336489200592, -0.152075663208961, -0.147045627236366, -0.106611527502537,
-0.134253904223442 }, {0.00846053846180439, -0.0714574158191681, -0.241812244057655, -0.201363027095795, -0.168351635336876, -0.129193380475044, 0.00400630291551352, 0.0357235856354237,
0.0532009415328503, 0.047136090695858, 0.00528240250423551, -0.138289853930473, -0.229639381170273, -0.313687443733215, -0.181325137615204, -0.107915922999382, -0.0195733979344368,
-0.134836509823799, -0.0696528777480125, -0.154364541172981, -0.157345324754715, -0.124312043190002, -0.146299198269844, -0.108495719730854, 0.940499722957611, 0.888454735279083,
0.672776281833649, 0.401447117328644, 0.041782408952713, -0.129159778356552, -0.127680361270905, -0.221485868096352, -0.215030297636986, -0.184422522783279, -0.123661331832409,
0.0323997102677822, 0.0376115888357162, 0.0947775691747665, -0.0151484524831176, -0.142169132828712, -0.1643306016922, 0.0483863651752472, 0.151653915643692, 0.0348029732704163,
0.0249161534011364, -0.0337738916277885, 0.0922779366374016, 0.0723454356193542, 0.00341984839178622, -0.108875177800655, -0.168327763676643, -0.201506495475769, -0.186055108904839,
-0.0419672504067421, 0.0397477671504021, 0.0250243302434683, 0.075767420232296, 0.0372679755091667, -0.0207595657557249, -0.159336909651756, -0.29036471247673, -0.236255645751953,
-0.202647611498833, -0.1745934933424, 0.00537613080814481, -0.0862450003623962, -0.146088570356369, -0.180833905935287, -0.164593979716301, -0.0935618132352829, -0.130616918206215,
-0.144959017634392, 0.925286889076233, 0.871737003326416, 0.704026758670807, 0.310341656208038, 0.0142918191850185, -0.115276135504246, -0.210683479905128, -0.204252138733864,
-0.161974132061005, -0.194050669670105, -0.0962502881884575, 0.0240273028612137, 0.0880725011229515, 0.0444911681115627, -0.0534718036651611, -0.211803272366524, -0.149532988667488,
0.153331995010376, 0.180199921131134, 0.0302507635205984, 0.00633226986974478, -0.0198646765202284, 0.0943835824728012, 0.0717514976859093, -0.18501952290535, -0.117025934159756,
-0.165190786123276, -0.0618978813290596, -0.136956572532654, -0.0483346283435822, -0.132481038570404, -0.661964595317841, -0.0810154601931572, -0.0689372569322586, -0.167576968669891,
-0.141683638095856, 0.0676370188593864, 0.0504299625754356, 0.0415620431303978, -0.00386344431899488, -0.0106207635253668, 0.0681109130382538, -0.702987968921661, -0.154918879270554,
-0.176395505666733, -0.139937788248062, -0.195795446634293 }, {-0.0324577577412128, -0.0304323229938745, -0.0692538395524025, -0.0461884438991547, -0.0473335944116116, -0.0641950219869614,
-0.059092678129673, -0.0659119039773941, -0.00134563364554197, -0.00598558504134417, 0.0168953891843557, -0.0167519841343164, -0.045830637216568, -0.0543493404984474, -0.0332236960530281,
-0.0557273924350739, -0.00338757177814841, -0.0410056933760643, -0.0722785368561745, -0.0109963472932577, -0.0299420040100813, -0.0668120235204697, -0.0623201280832291, -0.0823145285248756,
0.099149078130722, 0.0683819726109505, -0.00592999299988151, -0.00774513091892004, -0.0946972146630287, -0.135411709547043, -0.12612783908844, -0.129118755459785, -0.117750771343708,
-0.106726184487343, -0.159357160329819, -0.170628413558006, -0.0709712207317352, -0.109612956643105, -0.0528501458466053, -0.0938023403286934, -0.0853143036365509, -0.00533090159296989,
-0.0583841353654861, -0.0796483755111694, -0.0661394745111465, -0.0407980531454086, -0.0245329588651657, 0.00303088221698999, -0.0348172001540661, -0.0356820002198219, -0.0723748728632927,
-0.088581919670105, -0.0915322154760361, -0.0744393914937973, -0.0448766723275185, -0.0277742594480515, -0.00529760681092739, -0.0092801284044981, 0.0182728432118893, -0.0283495672047138,
-0.0898051559925079, -0.0528681538999081, -0.0585455968976021, -0.0702947005629539, -0.01055574323982, -0.0668311044573784, -0.0498439893126488, -0.0788507163524628, -0.0174020752310753,
-0.0161882191896439, -0.0576932020485401, -0.0641809701919556, 0.0552623867988586, 0.03422911465168, -0.07053342461586, -0.0809739902615547, -0.027013698592782, -0.150638610124588,
-0.097080409526825, -0.105448164045811, -0.179496020078659, -0.172420173883438, -0.135239318013191, -0.12643851339817, -0.141681268811226, -0.108943998813629, -0.117376066744328,
-0.125904634594917, -0.0508782006800175, -0.00982116814702749, -0.0784378051757813, -0.0171751733869314, -0.0425836630165577, -0.09217269718647, -0.0266221910715103, -0.00678798789158463,
-0.126182690262794, -0.0747504010796547, 0.00193521368782967, -0.0611501447856426, -0.0274654403328896, -0.0109882354736328, -0.0284913964569569, 0.157192870974541, 0.221766129136086,
-0.403897434473038, -0.228063717484474, -0.234311684966087, -0.000522320449817926, 0.129909470677376, 0.123588889837265, 0.0117556266486645, -0.0214042849838734, -0.186577007174492,
0.0562835559248924, -0.00752929784357548, -0.0123062040656805, -0.0345690883696079, -0.047842163592577 }, {0.39094090461731, 0.183567643165588, -0.0575977005064487, -0.0967628285288811,
-0.218329802155495, -0.160529881715775, -0.0840860158205032, -0.085515059530735, 0.0397730022668839, 0.0294117890298367, 0.0512201078236103, 0.0141285303980112, -0.218896135687828,
-0.18766425549984, -0.133985444903374, -0.125547364354134, -0.0611260607838631, -0.152607500553131, -0.145553559064865, -0.128467917442322, -0.182563424110413, -0.116216845810413,
-0.18806280195713, -0.156370118260384, 1.1892466545105, 1.13200318813324, 0.859325885772705, 0.643498778343201, 0.308944910764694, 0.15420113503933, 0.0691480785608292,
-0.077212929725647, -0.0403985120356083, -0.0487874858081341, -0.0357015766203403, -0.0243117734789848, 0.0698825269937515, 0.105793349444866, 0.113923639059067, 0.0109152523800731,
0.0406085550785065, 0.142220050096512, 0.163762226700783, 0.119415320456028, 0.0536935590207577, 0.0265819747000933, 0.0591616369783878, 0.0677297115325928, 0.485689640045166,
0.241596415638924, -0.062523752450943, -0.12957239151001, -0.10706452280283, -0.124465957283974, -0.113316006958485, -0.0152240796014667, -0.0237108133733273, 0.128862917423248,
0.08247971534729, 0.0198967009782791, -0.174124032258987, -0.226173043251038, -0.137457206845284, -0.130030810832977, -0.130583837628365, -0.146022662520409, -0.13679076731205,
-0.156057313084602, -0.163211673498154, -0.0720461830496788, -0.185594350099564, -0.102311067283154, 1.11900508403778, 1.03150737285614, 0.79966127872467, 0.591358065605164,
0.25922155380249, 0.0798125937581062, -0.0248073507100344, -0.112784124910831, -0.0617325454950333, -0.118231706321239, -0.0798233821988106, -0.101485125720501, 0.0730396881699562,
0.103680461645126, 0.101433396339417, -0.0821922570466995, 0.0467506796121597, 0.164606794714928, 0.140673488378525, 0.13338577747345, 0.142736479640007, 0.042392123490572,
0.0861973986029625, 0.0906262546777725, -0.264582842588425, -0.137901276350021, -0.174713432788849, -0.128614187240601, -0.130245491862297, -0.154038399457932, -0.150546073913574,
-0.862699866294861, -0.0529656074941158, 0.0171966031193733, 0.170662879943848, 0.215095698833466, 0.295475333929062, 0.251855492591858, 0.127810075879097, -0.118058785796165,
-0.305880337953568, -0.786440849304199, -1.11334359645844, -0.233391776680946, -0.181068241596222, -0.213260173797607, -0.174697190523148 }, {-0.0716898515820503, -0.0659198462963104,
-0.0660281702876091, -0.0543795265257359, -0.0860745087265968, -0.0841861814260483, 0.00984237994998693, -0.00964744202792645, -0.0573823340237141, -0.0344399623572826, -0.0349198020994663,
-0.0167539920657873, -0.0967401042580605, -0.0526892766356468, -0.0324428454041481, -0.0138317085802555, -0.0183110143989325, -0.0975416675209999, -0.103006966412067, -0.0340652465820313,
-0.031257476657629, -0.0913541913032532, -0.0261902678757906, -0.0317600481212139, 0.202424466609955, 0.124331779778004, 0.0639346092939377, 0.0544725842773914, -0.040806483477354,
-0.102635152637959, -0.125568598508835, -0.190583914518356, -0.179334118962288, -0.134558498859406, -0.116872198879719, -0.0510454215109348, -0.0230725929141045, -0.0934557020664215,
-0.0336842611432076, -0.141846612095833, -0.107366114854813, -0.026547122746706, -0.0568149089813232, 0.0029546997975558, -0.0272774770855904, -0.0182254035025835, -0.0595722980797291,
-0.0521399341523647, -0.000209786783671007, -0.0141020407900214, -0.0282133854925632, -0.120748415589333, -0.129901558160782, -0.0148246018216014, -0.0298526771366596, -0.00238758279010653,
-0.012885264120996, 0.0374001152813435, 0.0016016032313928, -0.0438767895102501, -0.0650777891278267, -0.0592526905238628, -0.0918694958090782, -0.0653412640094757, 0.00295592844486237,
-0.0548909120261669, -0.0184819735586643, -0.0803949311375618, -0.0225650407373905, -0.0680052936077118, -0.0989673957228661, -0.0452730506658554, 0.213546976447105, 0.194420844316483,
0.115894302725792, 0.0100036505609751, -0.029325108975172, -0.0816785171627998, -0.197011262178421, -0.125528857111931, -0.172198832035065, -0.154144451022148, -0.158647060394287,
-0.0985029935836792, -0.0646222084760666, -0.0417668521404266, -0.0326362028717995, -0.103913486003876, -0.138839960098267, 0.0252563543617725, 0.0276861134916544, -0.0734916999936104,
-0.0689271688461304, -0.098123699426651, -0.0390386469662189, -0.0114432713016868, -0.119535721838474, -0.0199692137539387, -0.0415397249162197, -0.0608287006616592, 0.0038567881565541,
-0.0186898186802864, -0.0608072876930237, 0.0319021157920361, 0.137512862682343, -0.282394081354141, -0.238361299037933, -0.20599889755249, -0.0323644243180752, 0.0232296660542488,
0.0371339656412601, -0.0153252594172955, -0.062715508043766, -0.0183890424668789, -0.0969463661313057, -0.0230235084891319, -0.0923362895846367, -0.0231378301978111, -0.0737867504358292,
}, {0.0801050066947937, 0.0658567622303963, 0.032195832580328, -0.0100981602445245, -0.000941227015573531, -0.0360033176839352, -0.00155158271081746, 0.00432728044688702, -0.00868612062186003,
0.0354292839765549, 0.07880749553442, 0.0739413499832153, -0.0115126222372055, -0.0122855938971043, -0.0144083304330707, -0.0352328754961491, 0.0428358763456345, 0.0267875492572784,
0.00475273001939058, -0.0278366208076477, -0.00115852686576545, -0.0256874170154333, -0.026413831859827, 0.00152655295096338, 0.311483711004257, 0.305854052305222, 0.255657434463501,
0.105864688754082, 0.0393044762313366, 0.0697332695126534, 0.00381352263502777, 0.00506114214658737, 0.00497488211840391, -0.0281554348766804, -0.0821945890784264, 0.00747678289189935,
0.0169192161411047, 0.0256686769425869, 0.0145663460716605, 0.0184623952955008, -0.00943588651716709, 0.0549825541675091, 0.0106956651434302, 0.0424774661660194, 0.0531564019620419,
0.0123863779008389, 0.0159785002470016, 0.0398301146924496, 0.104570657014847, 0.100209571421146, -0.00413781357929111, 0.0226736441254616, 0.00550904124975204, -0.00822555273771286,
0.0199792478233576, -0.0128090055659413, 0.0361300446093082, 0.0609217546880245, 0.0919870361685753, 0.0435098707675934, 0.0268812347203493, -0.0396904684603214, -0.0486980490386486,
0.00244678952731192, -0.000315535929985344, 0.030219204723835, -0.0356410704553127, -0.0212458688765764, 0.0243599154055119, -0.0119442595168948, -0.0402162708342075, -0.0146259935572743,
0.268149614334106, 0.24978318810463, 0.223646923899651, 0.119453653693199, 0.0208585821092129, -0.0477812960743904, -0.061758928000927, -0.0429530777037144, -0.035845909267664,
-0.0297381058335304, -0.00656536035239697, -0.0875919312238693, -0.0716829374432564, -0.00967396888881922, -0.018268158659339, 0.0330553092062473, 0.00868469476699829, 0.0434046983718872,
0.0710409283638, 0.0694071426987648, 0.011824594810605, 0.0204815771430731, 0.064731702208519, 0.0152270728722215, -0.0491739511489868, 0.0233487747609615, 0.0274849347770214,
-0.00858467444777489, 0.0304606035351753, 0.0781502649188042, -0.0524567142128944, -0.0666692927479744, 0.252754718065262, -0.293928623199463, -0.052769273519516, -0.159974485635757,
0.133798614144325, 0.162571787834167, 0.185380876064301, 0.12431251257658, 0.0360966101288795, -0.103427208960056, -0.126784101128578, -0.059014230966568, 0.0129147851839662,
-0.0559138767421246, 0.00651950109750032 }, {-0.043023556470871, -0.0358193889260292, -0.100020967423916, -0.0754246860742569, -0.0995941907167435, -0.0405490659177303, 0.0158699434250593,
-0.0110454736277461, -0.0103769199922681, -0.027188029140234, 0.0382077321410179, -0.0635791569948196, -0.0281084962189198, -0.0689011365175247, -0.0517460368573666, -0.0186468288302422,
-0.0311685539782047, -0.0253466758877039, -0.0580441951751709, -0.0757177323102951, -0.0551048330962658, -0.0605240203440189, -0.0233301669359207, -0.0536876395344734, 0.111411310732365,
0.0749065056443214, -0.0038524738047272, -0.0244518369436264, -0.114846989512444, -0.0822956711053848, -0.14999483525753, -0.168429061770439, -0.116403967142105, -0.134672403335571,
-0.147509068250656, -0.0734466835856438, -0.128634989261627, -0.130066618323326, -0.0656145960092545, -0.152968496084213, -0.0679826065897942, -0.0323157422244549, -0.0671710520982742,
-0.0839799270033836, -0.0863147526979446, -0.0627220049500465, -0.0518556386232376, -0.0670879483222961, -0.0747429355978966, -0.0419553630053997, -0.0957551151514053, -0.0625888183712959,
-0.102771431207657, -0.0251408349722624, -0.0786029696464539, -0.0514784343540668, -0.0317386016249657, -0.0596411563456059, -0.0385965295135975, -0.0179264098405838, -0.101959928870201,
-0.0611081793904305, -0.0921189114451408, -0.0687099397182465, -0.0540747903287411, -0.0690419003367424, -0.0545910559594631, -0.0511634461581707, 0.00573175493627787, -0.0140642989426851,
-0.0649226307868958, -0.023677758872509, 0.0180646125227213, -0.00181399914436042, -0.0686614960432053, -0.105016380548477, -0.0874941349029541, -0.139051154255867, -0.126270145177841,
-0.183782398700714, -0.187579154968262, -0.111343748867512, -0.154175817966461, -0.176234155893326, -0.163598507642746, -0.0724639967083931, -0.147505879402161, -0.0748200491070747,
-0.111633971333504, -0.0543536767363548, -0.0350134149193764, -0.0888465866446495, -0.0965351089835167, -0.0500971376895905, 0.00383444898761809, -0.0929514393210411, -0.0734443962574005,
0.014074963517487, -0.0220721364021301, 0.025252066552639, 0.0150730609893799, 0.0637882798910141, -0.0459756441414356, 0.237454876303673, 0.229146689176559, -0.390536457300186,
-0.271164804697037, -0.249831527471542, -0.0642873719334602, 0.0372494794428349, 0.0871029198169708, 0.052973847836256, 0.0323098711669445, -0.0300243254750967, 0.123892851173878,
-0.00939982198178768, -0.03029546700418, 0.0242223646491766, 0.0100811757147312 }, {0.302870869636536, 0.16326043009758, 0.111057102680206, 0.0355321876704693, -0.0200781691819429,
-0.0120171783491969, -0.108316712081432, -0.094540610909462, -0.0584807768464088, 0.0216541923582554, 0.145981937646866, 0.140099361538887, 0.0317527651786804, 0.0333379134535789,
-0.0286685079336166, -0.0282500777393579, -0.00367030710913241, -0.0507721193134785, 0.0212502479553223, -0.0780550688505173, 0.0245752800256014, 0.00681988894939423, -0.0556467212736607,
0.0165740009397268, 0.388674348592758, 0.24031563103199, 0.314944416284561, 0.265298336744308, 0.238795161247253, 0.167952984571457, 0.10945700854063, 0.0690784081816673,
0.0995271652936935, 0.0267093293368816, 0.0167667828500271, -0.0599756725132465, -0.0227894894778728, 0.0837730914354324, 0.156334891915321, 0.153778046369553, 0.173282384872437,
0.123639412224293, 0.0703048780560493, 0.141512393951416, 0.0634372383356094, 0.126206830143929, 0.123907707631588, 0.0458350516855717, 0.246972262859344, 0.253809928894043,
0.0761091560125351, 0.0237506870180368, -0.0668292567133904, -0.0816356167197227, -0.0202973708510399, -0.0476736016571522, 0.00306671625003219, 0.0143581936135888, 0.100372515618801,
0.0792934894561768, 0.0377892032265663, 0.0137231769040227, -0.0359897501766682, -0.0480767004191875, 0.0229867063462734, -0.0331823453307152, 0.038620363920927, -0.0492595545947552,
-0.0383672714233398, 0.0126202329993248, -0.0494279153645039, 0.013199987821281, 0.288297325372696, 0.231822952628136, 0.279571056365967, 0.271638453006744, 0.256291091442108,
0.231473416090012, 0.157419577240944, 0.12898351252079, 0.0506206788122654, 0.00594322523102164, -0.012712980620563, -0.0615164153277874, 0.0375748053193092, 0.0693066120147705,
0.0965568870306015, 0.194217577576637, 0.0690958350896835, 0.164144948124886, 0.0958738327026367, 0.0918948352336884, 0.10097012668848, 0.0735558718442917, 0.124113880097866,
0.119990810751915, -0.0244584959000349, -0.0378514640033245, -0.0583202466368675, -0.0151031501591206, -0.040615189820528, -0.0661264955997467, -0.0465935654938221, -0.269772499799728,
0.136766850948334, -0.203603029251099, 0.143392622470856, 0.104170218110085, 0.263660162687302, 0.245885938405991, 0.23969030380249, 0.0817413926124573, -0.104072719812393,
-0.628361701965332, -0.427124589681625, -0.106371715664864, -0.0523085854947567, -0.0696936994791031, -0.026697464287281 }, {-0.175694152712822, -0.0423978045582771, 0.0598603822290897,
0.108514547348022, 0.0290538091212511, 0.0372342132031918, 0.0220579784363508, -0.00133990624453872, 0.0262488499283791, 0.019898684695363, -0.0125223100185394, 0.113718874752522,
0.0879605486989021, 0.11607014387846, 0.0817370936274529, 0.0626333132386208, 0.0188113916665316, 0.10650821775198, 0.0607538819313049, 0.116978839039803, 0.101994223892689,
0.0575717091560364, 0.126516982913017, 0.0747596025466919, -0.566279172897339, -0.609246015548706, -0.478904843330383, -0.316989690065384, -0.166595101356506, -0.118109934031963,
-0.134838700294495, -0.0543669760227203, -0.0702232345938683, -0.0156786702573299, -0.0393964014947414, -0.13241009414196, -0.132764935493469, -0.142912715673447, -0.112514100968838,
-0.0742459893226624, 0.00150684546679258, -0.13223160803318, -0.146128579974174, -0.0892555415630341, -0.0613928362727165, -0.0833374634385109, -0.0892833769321442, -0.10438596457243,
-0.208353728055954, -0.0659147277474403, 0.075984463095665, 0.107512123882771, 0.0535242147743702, 0.0144254257902503, 0.0289938822388649, 0.0418978743255138, -0.0411064252257347,
-0.0527747459709644, 0.0306174419820309, 0.0286902990192175, 0.108859099447727, 0.11893343180418, 0.153364613652229, 0.112386308610439, 0.0044034356251359, 0.0479536354541779,
0.0414581969380379, 0.0740389004349709, 0.064703457057476, 0.0707051455974579, 0.0790378004312515, 0.111536875367165, -0.576218664646149, -0.615728735923767, -0.518948137760162,
-0.382908582687378, -0.169158861041069, -0.0944741517305374, -0.0621032565832138, -0.065167061984539, -0.0549724064767361, -0.0131725119426847, -0.0852223560214043, -0.13944111764431,
-0.0832094922661781, -0.104444347321987, -0.0788039937615395, -0.0123454369604588, -0.0455172955989838, -0.149941176176071, -0.156689569354057, -0.0950215831398964, -0.0915637761354446,
-0.110466405749321, -0.0933700129389763, -0.092739038169384, 0.10579489171505, 0.0626582503318787, 0.112797930836678, 0.072040393948555, 0.082295149564743, 0.146913856267929,
0.128173768520355, 0.833212614059448, 0.440839439630508, -0.38838854432106, -0.37323585152626, -0.30318346619606, -0.0844817906618118, 0.0456392094492912, 0.0920482277870178,
0.0879105776548386, 0.206114500761032, 0.251686781644821, 0.902487874031067, 0.128381311893463, 0.0946331322193146, 0.160773187875748, 0.114628955721855 }, {-0.699954330921173,
-0.309496939182281, -0.0497324950993061, 0.0266627706587315, 0.0583987310528755, 0.151061713695526, 0.17577950656414, 0.0834871977567673, 0.0481447242200375, 0.0435231514275074,
0.0639539510011673, 0.110682599246502, 0.111405804753304, 0.137028023600578, 0.185201272368431, 0.116186164319515, 0.251605987548828, 0.174311488866806, 0.13947682082653,
0.169904679059982, 0.247704565525055, 0.214577779173851, 0.19483146071434, 0.21361817419529, -1.25018310546875, -1.19339621067047, -0.851247072219849, -0.60962849855423,
-0.355433911085129, -0.200576364994049, -0.207918435335159, -0.0716235116124153, -0.113780751824379, -0.0999650582671165, -0.088663250207901, -0.0253949742764235, -0.0586277507245541,
-0.121344164013863, -0.0466105975210667, -0.0573030449450016, -0.200516402721405, -0.102933533489704, -0.0457980632781982, -0.0479536429047585, -0.0785064622759819, -0.0410398505628109,
-0.0256883483380079, 0.0151847703382373, -0.685102760791779, -0.41481626033783, -0.0578836798667908, 0.0226848814636469, 0.0172663684934378, 0.110939770936966, 0.0796501189470291,
0.0991450846195221, 0.0127641875296831, 0.0296813566237688, -0.0182655807584524, 0.0172192137688398, 0.155852437019348, 0.0964127779006958, 0.114084467291832, 0.0643347725272179,
0.206608802080154, 0.117003902792931, 0.25026348233223, 0.204314947128296, 0.170100003480911, 0.184842154383659, 0.204779341816902, 0.164085611701012, -1.30302846431732,
-1.15945780277252, -0.838064849376678, -0.546008765697479, -0.318515777587891, -0.252410650253296, -0.153955146670341, -0.130697727203369, -0.0232442393898964, -0.105093248188496,
-0.0164704415947199, -0.01841707713902, -0.00889637600630522, -0.0798469856381416, -0.100340835750103, -0.0189715176820755, -0.154440760612488, -0.133452877402306, -0.132352486252785,
-0.0263312254101038, -0.0459110774099827, -0.120440579950809, -0.0731329247355461, -0.0745714902877808, 0.325230836868286, 0.174297049641609, 0.24623791873455, 0.17212150990963,
0.17651803791523, 0.238458350300789, 0.235485523939133, 1.48775219917297, 0.391382157802582, -0.929074823856354, -0.928564965724945, -0.749721229076385, -0.296650350093842,
0.0140665424987674, 0.192149206995964, 0.401372730731964, 0.623948752880096, 1.36474347114563, 1.8143937587738, 0.358316242694855, 0.28038090467453, 0.389688730239868,
0.269405245780945 }, {-0.273963540792465, -0.0579022318124771, 0.102182812988758, 0.127535223960876, 0.0665200427174568, 0.0758988559246063, 0.0423079915344715, -0.0167921092361212,
-0.0475604273378849, -0.0768046602606773, 0.0594193339347839, 0.0927320420742035, 0.226973757147789, 0.162591442465782, 0.189309641718864, 0.139971166849136, 0.095408521592617,
0.141688272356987, 0.16082127392292, 0.132965788245201, 0.167745023965836, 0.093473844230175, 0.182689934968948, 0.116373926401138, -0.943804979324341, -0.98583859205246,
-0.815389692783356, -0.471491128206253, -0.202195897698402, -0.0556828416883945, -0.0626547485589981, 0.0186982732266188, -0.000630617665592581, 0.0167547389864922, -0.0583608858287334,
-0.109312303364277, -0.175820559263229, -0.132418811321259, -0.0238808859139681, -0.000480282615171745, 0.0097974669188261, -0.129481852054596, -0.12579220533371, -0.043067142367363,
-0.128309011459351, -0.07997115701437, -0.113870181143284, -0.098795548081398, -0.258883208036423, -0.123784311115742, 0.142395406961441, 0.157331675291061, 0.104057729244232,
0.088583767414093, 0.0719051733613014, -0.0467151440680027, -0.0945050641894341, -0.0522936284542084, 0.00109359284397215, 0.104954391717911, 0.20960396528244, 0.224465683102608,
0.186681047081947, 0.109582930803299, 0.123508282005787, 0.110776849091053, 0.134779900312424, 0.148687064647675, 0.139157801866531, 0.130187064409256, 0.127506837248802,
0.131031796336174, -1.01721286773682, -0.953377187252045, -0.787420570850372, -0.45384356379509, -0.168677344918251, -0.0682149678468704, -0.0915042832493782, 0.0127567332237959,
0.0137843135744333, 0.0271825939416885, -0.0673729404807091, -0.0410491861402988, -0.15146803855896, -0.182032078504562, -0.106189176440239, 0.090398907661438, -0.0415301658213139,
-0.111373573541641, -0.132029384374619, -0.0645843893289566, -0.101961173117161, -0.093450702726841, -0.0620282590389252, -0.0758790671825409, 0.211399435997009, 0.124699763953686,
0.198094338178635, 0.100508525967598, 0.131451532244682, 0.200139433145523, 0.125189185142517, 1.16759026050568, 0.443303465843201, -0.540785849094391, -0.506955325603485,
-0.418297529220581, -0.0909033864736557, -0.0175204146653414, 0.154620379209518, 0.186717748641968, 0.238859117031097, 0.420588254928589, 1.26084673404694, 0.281874895095825,
0.228021427989006, 0.256346762180328, 0.213752508163452 }, {-0.670463621616364, -0.290269404649734, -0.059910487383604, 0.00275296601466835, 0.0504986606538296, 0.103426605463028,
0.20703336596489, 0.147786736488342, 0.0892454609274864, 0.0545204766094685, 0.0395100899040699, 0.0831999182701111, 0.0647776052355766, 0.105604834854603, 0.0936973765492439,
0.071254588663578, 0.210152462124825, 0.174511760473251, 0.119009986519814, 0.170374020934105, 0.155183345079422, 0.151448056101799, 0.217228680849075, 0.140143573284149,
-1.09222650527954, -1.05461192131042, -0.743983387947083, -0.592131674289703, -0.298106908798218, -0.291345626115799, -0.249451726675034, -0.0648533180356026, -0.0969290882349014,
-0.0695270001888275, -0.0736606121063232, 0.0165892001241446, -0.0186247210949659, -0.06619543582201, -0.112041741609573, -0.0286573451012373, -0.190707355737686, -0.111485324800014,
-0.125615850090981, -0.0111053045839071, -0.0655108839273453, -0.116283401846886, -0.108627565205097, -0.02870755456388, -0.659657776355743, -0.323014974594116, -0.0167458467185497,
0.0181135758757591, 0.030413756147027, 0.122413001954556, 0.136867716908455, 0.05849963799119, 0.036565937101841, -0.0545250475406647, 0.0140435574576259, 0.0818688496947289,
0.069542184472084, 0.13841225206852, 0.144171744585037, 0.100346840918064, 0.216158732771873, 0.145930558443069, 0.159665688872337, 0.192044839262962, 0.193466812372208,
0.156738236546516, 0.177830636501312, 0.159587055444717, -1.1424822807312, -1.01373088359833, -0.754017651081085, -0.535991609096527, -0.286440014839172, -0.282081931829453,
-0.191445633769035, -0.10911551117897, -0.0509134121239185, -0.0818610712885857, -0.0514771230518818, -0.023906197398901, -0.0400578305125237, -0.0580872818827629, -0.131882175803185,
-0.0234269332140684, -0.211804330348969, -0.153090626001358, -0.120523527264595, -0.135359033942223, -0.117716945707798, -0.110131405293941, -0.0755654871463776, -0.0222359746694565,
0.311059206724167, 0.143359407782555, 0.220074772834778, 0.147602543234825, 0.195805236697197, 0.227865263819695, 0.216691315174103, 1.38201034069061, 0.476676970720291,
-0.749337017536163, -0.819022476673126, -0.720934331417084, -0.282397538423538, 0.0273956935852766, 0.114597924053669, 0.287451058626175, 0.57314258813858, 1.21446883678436,
1.64895737171173, 0.383844584226608, 0.279968470335007, 0.348653763532639, 0.236584290862083 }, {-0.0733751878142357, -0.0461024008691311, -0.103090286254883, -0.0746996402740479,
-0.0725382342934608, -0.0561365745961666, -0.0870435312390327, -0.0688577890396118, -0.0894051790237427, -0.0853535979986191, -0.0142320264130831, -0.00693872477859259, -0.0380889438092709,
-0.089346706867218, -0.0826604813337326, -0.0983745008707047, -0.067663885653019, -0.0234716478735209, -0.00898878928273916, -0.0332872159779072, -0.100273758172989, -0.0520420260727406,
-0.0418423861265182, -0.0953624993562698, 0.021310368552804, -0.0178882889449596, -0.0369953960180283, -0.00179208419285715, -0.0475462153553963, -0.0466784201562405, -0.147333770990372,
-0.0915536880493164, -0.0814901664853096, -0.155099794268608, -0.130644291639328, -0.079523116350174, -0.102285087108612, -0.0502044185996056, -0.0767727345228195, -0.106729745864868,
-0.121666982769966, -0.0113634821027517, -0.0861975029110909, -0.0502367578446865, -0.0277996901422739, -0.0757521912455559, -0.04504319652915, -0.0715830698609352, 0.0223874505609274,
-0.0330218635499477, -0.0471277125179768, -0.107509516179562, -0.0541810467839241, -0.0300011839717627, -0.0644972398877144, -0.0972804129123688, -0.0379874370992184, -0.0696172118186951,
-0.0528037175536156, -0.00235921586863697, -0.0997198224067688, -0.0914304926991463, -0.0559762082993984, -0.104922294616699, -0.0472333543002605, -0.0798120871186256, -0.0153578575700521,
-0.103792697191238, -0.10895474255085, -0.0741563439369202, -0.0413703583180904, -0.0471675843000412, 0.0370977744460106, -0.0224714055657387, -0.0104973083361983, -0.0190997924655676,
-0.0908023044466972, -0.143940106034279, -0.157402172684669, -0.151662111282349, -0.085017167031765, -0.109398044645786, -0.0933416485786438, -0.179074421525002, -0.0962131768465042,
-0.104315109550953, -0.10515820235014, -0.0915163084864616, -0.116710424423218, -0.0361402109265327, -0.0136910518631339, -0.0532490201294422, -0.0845702812075615, -0.038807388395071,
-0.0476375110447407, -0.0922594666481018, -0.0682640001177788, -0.0736844316124916, -0.082907147705555, -0.014397588558495, -0.0112936338409781, -0.00193322298582643, -0.0545552223920822,
0.174312770366669, 0.178461253643036, -0.354975134134293, -0.212550014257431, -0.287770837545395, -0.0141708245500922, 0.0537026897072792, 0.0570933222770691, -0.0286950301378965,
-0.0407923385500908, -0.163498401641846, 0.0308100245893002, -0.00251713581383228, -0.0320816822350025, -0.0366007462143898, -0.0987394526600838 }, {0.249360576272011, 0.136117205023766,
-0.064746305346489, -0.202430903911591, -0.138390302658081, -0.0935225710272789, -0.0921943932771683, -0.0215750671923161, 0.02741439640522, 0.0580743663012981, 0.0392063111066818,
-0.0326298996806145, -0.151814684271812, -0.238696858286858, -0.190788373351097, -0.118225008249283, -0.0282054431736469, -0.11548513174057, -0.135960683226585, -0.128841012716293,
-0.164343163371086, -0.130575776100159, -0.134532868862152, -0.064724937081337, 1.00929486751556, 0.898446977138519, 0.787674486637115, 0.536912381649017, 0.294637739658356,
0.117647044360638, -0.00559253757819533, -0.0363822281360626, -0.035085640847683, -0.0546600259840488, -0.0615872666239738, 0.0119185335934162, 0.044639814645052, 0.161145374178886,
0.0982804819941521, 0.0288197249174118, -0.00852799322456121, 0.0810450240969658, 0.154827579855919, 0.0699995011091232, 0.084518775343895, 0.0425135381519794, 0.125307738780975,
0.0801353603601456, 0.248543635010719, 0.111823461949825, -0.0298074670135975, -0.140370979905128, -0.144760057330132, -0.13993576169014, -0.0717451870441437, -0.00167830684222281,
0.0332472622394562, 0.0987207591533661, 0.0564549304544926, -0.00357680208981037, -0.212925985455513, -0.228919178247452, -0.126905560493469, -0.133772701025009, -0.0946792960166931,
-0.148242980241776, -0.150313049554825, -0.104018539190292, -0.145132824778557, -0.136083573102951, -0.15206578373909, -0.118070587515831, 0.977393329143524, 0.943331658840179,
0.700519204139709, 0.506106853485107, 0.271718204021454, 0.0110009117051959, 0.0349809527397156, -0.0380964688956738, -0.12586398422718, -0.0783101916313171, -0.104624718427658,
0.0132944202050567, 0.00611711572855711, 0.123704396188259, 0.0982516705989838, -0.00405257986858487, -0.0522458292543888, 0.172978669404984, 0.144686490297318, 0.132644310593605,
0.119896672666073, 0.0817487388849258, 0.0779386460781097, 0.0800654217600822, -0.169459089636803, -0.100511729717255, -0.172943755984306, -0.0851379632949829, -0.089460626244545,
-0.119703732430935, -0.0895852595567703, -0.672340571880341, -0.0364063270390034, -0.0934664309024811, -0.0545613057911396, 0.0786355882883072, 0.207635566592216, 0.251703888177872,
0.126985460519791, -0.0131955165416002, -0.169253334403038, -0.561235249042511, -0.931001722812653, -0.21166829764843, -0.14547373354435, -0.232280924916267, -0.200257614254951,
}, {-0.435468286275864, -0.0566256940364838, 0.203318104147911, 0.129576981067657, 0.152603581547737, 0.072222076356411, 0.0034793671220541, -0.154412999749184, -0.199249982833862,
-0.12250292301178, 0.0720298811793327, 0.233910202980042, 0.352068334817886, 0.34593653678894, 0.251547455787659, 0.132438436150551, 0.107553027570248, 0.235067814588547,
0.159363627433777, 0.229840561747551, 0.236134201288223, 0.16909185051918, 0.222636461257935, 0.214455902576447, -1.78409969806671, -1.7091029882431, -1.22461187839508,
-0.675487220287323, -0.129923462867737, 0.0767426788806915, 0.104613862931728, 0.206762716174126, 0.255153208971024, 0.140230476856232, 0.00594999315217137, -0.0280051864683628,
-0.159671366214752, -0.134499505162239, 0.0164857674390078, 0.23300276696682, 0.0879795923829079, -0.0760426074266434, -0.201894864439964, -0.00360485934652388, -0.0730742961168289,
0.0358763337135315, -0.0155047075822949, -0.0473777502775192, -0.435458153486252, -0.123743318021297, 0.148696660995483, 0.164566189050674, 0.0736506730318069, 0.0284876395016909,
-0.0689191892743111, -0.178345054388046, -0.253424018621445, -0.119428664445877, 0.0404050014913082, 0.194725677371025, 0.332530945539474, 0.366103976964951, 0.231235697865486,
0.140275180339813, 0.0820253193378448, 0.145004987716675, 0.183536887168884, 0.177837029099464, 0.253023684024811, 0.157379105687141, 0.203759893774986, 0.17187488079071,
-1.71055901050568, -1.69909739494324, -1.21529316902161, -0.633257150650024, -0.0500086657702923, 0.0640114396810532, 0.158281832933426, 0.18679367005825, 0.234734684228897,
0.0913993790745735, 0.0264442749321461, -0.0640331655740738, -0.129357516765594, -0.13178163766861, -0.01270517334342, 0.292064547538757, 0.0768993645906448, -0.154403626918793,
-0.264187455177307, -0.00465946365147829, -0.059077613055706, -0.0390345118939877, -0.094733439385891, -0.0268365517258644, 0.307087689638138, 0.148551896214485, 0.291781783103943,
0.21933975815773, 0.19573800265789, 0.216580346226692, 0.224003955721855, 1.61231124401093, 0.458381026983261, -1.11850321292877, -0.717373371124268, -0.656564593315125,
-0.0864066854119301, 0.109035521745682, 0.237112939357758, 0.360238879919052, 0.419056624174118, 0.55217969417572, 1.91169559955597, 0.3708635866642, 0.313681215047836,
0.35436162352562, 0.305199891328812 }, {-0.145629286766052, -0.183038592338562, -0.128645047545433, -0.0962031483650208, -0.0970294997096062, -0.0291551575064659, 0.0421940684318542,
0.123232521116734, 0.141467377543449, 0.0626960024237633, -0.0312044844031334, -0.0610550045967102, -0.172621682286263, -0.150782987475395, -0.0581659153103828, -0.0242889188230038,
0.000205018572160043, -0.0672561377286911, -0.0591132417321205, -0.0576667673885822, -0.0401792638003826, 0.018001751974225, 0.0362749509513378, 0.024359442293644, 0.315643280744553,
0.29018035531044, 0.208898052573204, -0.0425485745072365, -0.141524657607079, -0.23820960521698, -0.271044194698334, -0.252822369337082, -0.212212949991226, -0.240573421120644,
-0.124477587640285, -0.0222516544163227, 0.0397666022181511, -0.0335799753665924, -0.151176959276199, -0.267734825611115, -0.228051126003265, 0.00734898447990417, 0.0240872949361801,
-0.0243533924221992, -0.069964274764061, -0.0743053182959557, -0.0151410410180688, -0.000937741948291659, -0.173193246126175, -0.194050461053848, -0.177678853273392, -0.123508498072624,
-0.0807777270674706, -0.0199064072221518, 0.0391220673918724, 0.109644517302513, 0.085566408932209, 0.0535338893532753, 0.0422100611031055, -0.062458761036396, -0.142055913805962,
-0.166692942380905, -0.110501833260059, -0.0519415438175201, 0.0582650527358055, -0.036310687661171, 0.0200611911714077, -0.0523237809538841, -0.0148942433297634, -0.0455611273646355,
-0.0093635581433773, -0.0164163243025541, 0.320434778928757, 0.273499727249146, 0.187555223703384, -0.00444905227050185, -0.220788314938545, -0.263209789991379, -0.341463357210159,
-0.297912299633026, -0.26102876663208, -0.241814762353897, -0.18800400197506, -0.106771655380726, -0.0265588145703077, -0.0719517916440964, -0.165015533566475, -0.210824191570282,
-0.169804632663727, 0.0295966789126396, -0.00311139621771872, -0.0335822552442551, -0.041998952627182, -0.0681949108839035, -0.0225157272070646, -0.0460393391549587, -0.0943902134895325,
0.0461054518818855, 0.0353038534522057, 0.00837950129061937, -0.0395960807800293, 0.0477999523282051, -0.0355487205088139, 0.242497369647026, 0.210710406303406, -0.203888177871704,
-0.3372503221035, -0.361102789640427, -0.159555107355118, 0.0304138790816069, -0.0747563391923904, -0.00374517706222832, 0.162197768688202, 0.464189320802689, 0.238000392913818,
0.0347519591450691, -0.0156781673431396, -0.0102144032716751, 0.0239109732210636 }, {-0.247041419148445, -0.22319632768631, -0.213818475604057, -0.171503260731697, -0.0797489732503891,
0.0518514700233936, 0.0811306163668633, 0.202662155032158, 0.150027111172676, 0.103761419653893, 0.0271196439862251, -0.107512176036835, -0.160912930965424, -0.160699382424355,
-0.0621091201901436, -0.0641084089875221, 0.0846469178795815, -0.00703202141448855, 0.00152503838762641, -0.0220216643065214, -0.054927796125412, -0.0229844152927399, -0.0382126420736313,
-0.0254520401358604, 0.355329602956772, 0.368184983730316, 0.219851285219193, -0.0119628999382257, -0.288446366786957, -0.317105740308762, -0.334532082080841, -0.379144787788391,
-0.282885611057281, -0.271080046892166, -0.158175617456436, -0.0776635855436325, 0.00867700576782227, -0.0426894910633564, -0.168045297265053, -0.31639102101326, -0.240187972784042,
0.0330957695841789, 0.0383501499891281, -0.0118780080229044, -0.0617263317108154, -0.0613642260432243, -0.0840433612465858, 0.00954838749021292, -0.211821958422661, -0.228820592164993,
-0.176889523863792, -0.108821719884872, -0.0534738712012768, 0.0385636575520039, 0.13215908408165, 0.156211331486702, 0.18125331401825, 0.0628397762775421, -0.016635924577713,
-0.10158483684063, -0.155290603637695, -0.190378308296204, -0.127080768346786, -0.0776886865496635, 0.0456253848969936, -0.0459672547876835, 0.01355105265975, -0.022464357316494,
0.0135516319423914, -0.0113060595467687, 0.0325430557131767, -0.0172129981219769, 0.351424127817154, 0.290356367826462, 0.204695999622345, -0.0938108786940575, -0.295666962862015,
-0.390682995319366, -0.385333865880966, -0.338039427995682, -0.303199201822281, -0.269301623106003, -0.122187606990337, -0.0105089610442519, 0.0484054684638977, -0.0203554295003414,
-0.190802738070488, -0.332071721553802, -0.239190340042114, -0.0515920519828796, -0.0102398470044136, -0.100974336266518, -0.03880325704813, -0.12220760434866, -0.0277595762163401,
-0.0665797218680382, -0.0109039656817913, 0.0494121536612511, 0.0416986793279648, 0.0163511335849762, -0.0309616681188345, 0.0977671295404434, 0.0150759126991034, 0.275280952453613,
0.237980723381042, -0.141932532191277, -0.411683559417725, -0.398552000522614, -0.190928027033806, 0.00714685441926122, -0.0166540406644344, 0.0385097339749336, 0.180982515215874,
0.596337735652924, 0.275596916675568, 0.0827782899141312, -0.012073066085577, 0.0357842370867729, 0.0738222897052765 }, {0.167834937572479, 0.0936620086431503, 0.0812939032912254,
-0.0270619187504053, -0.0947408229112625, -0.0493283048272133, -0.0102689173072577, 0.0137873021885753, 0.0186032950878143, 0.0673309788107872, 0.131074771285057, 0.0740767046809196,
0.0527711324393749, -0.032448086887598, 0.00473417574539781, -0.00974022317677736, -0.0367294773459435, -0.0476952828466892, 0.041115328669548, -0.0807237699627876, -0.030574593693018,
0.00851918291300535, 0.025754926726222, -0.0246332809329033, 0.378480970859528, 0.368947207927704, 0.367952644824982, 0.257912397384644, 0.184587717056274, 0.150169909000397,
0.15465572476387, 0.0674931332468987, 0.0268589034676552, 0.0769985839724541, -0.0400504879653454, 0.00732572609558702, -0.0130055891349912, 0.0633486434817314, 0.0853703767061234,
0.0964544713497162, 0.0195431020110846, 0.113189123570919, 0.0987937673926353, 0.123255908489227, 0.0598478652536869, 0.0782395228743553, 0.131278693675995, 0.095385268330574,
0.25576463341713, 0.183290779590607, 0.0221642255783081, 0.0424924120306969, -0.00763552496209741, -0.0667200833559036, 0.000436368834925815, -0.0664462223649025, -0.0402087867259979,
0.0227222759276628, 0.124750271439552, 0.0764464661478996, 0.0391524471342564, -0.0445629805326462, 0.000192245774087496, -0.0261589474976063, 0.00112685759086162, -0.0181994624435902,
-0.0178272128105164, -0.0167130138725042, 9.74637951003388e-05, -0.0385033264756203, -0.00728307198733091, 0.0249569825828075, 0.39543604850769, 0.342278838157654, 0.295016139745712,
0.339817672967911, 0.239085972309113, 0.0981957092881203, 0.11540999263525, 0.0866604819893837, 0.0739958733320236, 0.0706999227404594, -0.00332844280637801, -0.0184202156960964,
-0.0111066112294793, 0.0445517860352993, 0.0959409698843956, 0.104443579912186, 0.0623913779854774, 0.128725156188011, 0.0593039765954018, 0.0572841614484787, 0.0671586692333221,
0.0500245057046413, 0.123370185494423, 0.11170506477356, -0.110599957406521, 0.00338313868269324, -0.0220677983015776, -0.00950808916240931, -0.0420005619525909, -0.0486999228596687,
-0.0614191330969334, -0.228780925273895, 0.136884987354279, -0.139443218708038, 0.0968526676297188, 0.0542153343558311, 0.229640275239944, 0.247605443000793, 0.141734927892685,
0.0884986147284508, -0.057598315179348, -0.441862642765045, -0.423767149448395, -0.0795995071530342, -0.0493851378560066, -0.0818426683545113, -0.0603185445070267 }, {0.867471873760223,
0.502820253372192, 0.147275403141975, -0.0429691672325134, -0.145666971802711, -0.208270058035851, -0.244245395064354, -0.246256113052368, -0.135078728199005, -0.0382245220243931,
-0.000444611068814993, 0.00881516933441162, -0.0841269418597221, -0.0236975122243166, -0.127736240625381, -0.0326072089374065, -0.217676058411598, -0.132593810558319, -0.19442880153656,
-0.173269778490067, -0.162811234593391, -0.183750167489052, -0.170285120606422, -0.155839875340462, 1.22139370441437, 1.03302693367004, 0.723688066005707, 0.640117764472961,
0.452034115791321, 0.372071444988251, 0.275771290063858, 0.169064879417419, 0.129602774977684, 0.0547990277409554, -0.00849616900086403, -0.0727604478597641, -0.128799200057983,
-0.0280236564576626, 0.0575242415070534, 0.125634804368019, 0.242749139666557, 0.063221350312233, 0.104293547570705, 0.0355762578547001, 0.035173837095499, 0.111533887684345,
0.133212700486183, 0.0492941662669182, 0.85676234960556, 0.559638857841492, 0.147567868232727, 0.0588780120015144, -0.1479811668396, -0.199269562959671, -0.224824965000153,
-0.21577912569046, -0.18406654894352, 0.00489531876519322, -0.0124467387795448, 0.0306108947843313, -0.000490670267026871, -0.119384847581387, -0.117873713374138, -0.106544591486454,
-0.231348007917404, -0.10076117515564, -0.251673221588135, -0.243240118026733, -0.203683704137802, -0.169473454356194, -0.221611335873604, -0.205422431230545, 1.18903481960297,
1.02840352058411, 0.734918057918549, 0.545921742916107, 0.415369123220444, 0.324073612689972, 0.243525668978691, 0.141319289803505, 0.0661868304014206, 0.098474308848381,
-0.0548167340457439, -0.154809758067131, -0.134339913725853, -0.0275048203766346, 0.0865785777568817, 0.0934327021241188, 0.255548715591431, 0.175903841853142, 0.134158939123154,
0.0852564796805382, 0.152997359633446, 0.12467584758997, 0.0821208879351616, 0.118542775511742, -0.433599412441254, -0.240655332803726, -0.216428682208061, -0.219492435455322,
-0.215119808912277, -0.0900313183665276, -0.159944385290146, -1.23817980289459, -0.112815745174885, -0.12882125377655, 0.817308604717255, 0.653429567813873, 0.579080522060394,
0.219310104846954, 0.0609299093484879, -0.240424409508705, -0.606238901615143, -1.76408421993256, -1.58876001834869, -0.295919120311737, -0.310496747493744, -0.336026549339294,
-0.312321066856384 }, {0.632901191711426, 0.356855452060699, 0.0941873788833618, -0.0656289234757423, -0.169797539710999, -0.222433283925056, -0.159777045249939, -0.164618164300919,
-0.0787989944219589, 0.00968252681195736, 0.0578459240496159, 0.0509032122790813, -0.108460232615471, -0.116017669439316, -0.0923001319169998, -0.0393944643437862, -0.187099695205688,
-0.142105489969254, -0.087159126996994, -0.171109899878502, -0.171662956476212, -0.106407850980759, -0.112651102244854, -0.155206561088562, 1.09130573272705, 0.884487271308899,
0.715054571628571, 0.608113050460815, 0.357407778501511, 0.214106500148773, 0.139363795518875, 0.0852826833724976, -0.00961905904114246, -0.0387332029640675, -0.0580851323902607,
-0.0728031992912292, -0.0415960922837257, 0.0356004498898983, 0.102841340005398, 0.0491390712559223, 0.191370651125908, 0.135878786444664, 0.0796444192528725, 0.0983508303761482,
0.124795280396938, 0.132229834794998, 0.122650466859341, 0.118440508842468, 0.595925390720367, 0.320680171251297, 0.0238504633307457, -0.0799050182104111, -0.170025438070297,
-0.112295240163803, -0.131549656391144, -0.139110803604126, -0.0100002456456423, 0.0873137339949608, 0.135282576084137, 0.0217047054320574, -0.0642970129847527, -0.124064989387989,
-0.0949864089488983, -0.101765662431717, -0.106670998036861, -0.104330383241177, -0.0853602886199951, -0.191071227192879, -0.0914207100868225, -0.0903123691678047, -0.168257892131805,
-0.135700687766075, 1.07795071601868, 0.927808701992035, 0.652669787406921, 0.518593609333038, 0.374893218278885, 0.194274261593819, 0.0986061990261078, 0.0596811361610889,
0.0394442789256573, -0.0167798958718777, -0.0630700513720512, -0.137720629572868, -0.0552241988480091, 0.0484181977808475, 0.0772856995463371, 0.0381317734718323, 0.130603760480881,
0.184915229678154, 0.189741626381874, 0.168118506669998, 0.173686191439629, 0.143597781658173, 0.176812320947647, 0.0659301653504372, -0.269477009773254, -0.131243914365768,
-0.151122152805328, -0.110547579824924, -0.182319730520248, -0.134256541728973, -0.181530356407166, -0.859979033470154, -0.0671789422631264, -0.154705196619034, 0.346685767173767,
0.267483532428741, 0.452285766601563, 0.301332592964172, 0.2158083319664, -0.0745565667748451, -0.477756977081299, -1.205357670784, -1.19015538692474, -0.284700512886047,
-0.235495567321777, -0.249018833041191, -0.196961045265198 }, {-0.193050429224968, -0.107345297932625, -0.0248792823404074, 0.0373225919902325, 0.0193465910851955, 0.0444615297019482,
0.00513250147923827, 0.0539941564202309, -0.0334390923380852, -0.0543281212449074, -0.0170263182371855, 0.02415013872087, -0.0258588567376137, 0.0770032852888107, 0.0143732577562332,
0.0578912794589996, 0.0362449698150158, 0.0485985800623894, 0.0473843328654766, -0.0148014975711703, 0.0425389185547829, 0.027781343087554, 0.0517554581165314, 0.0563634857535362,
-0.300630360841751, -0.3810133934021, -0.321176052093506, -0.282299816608429, -0.242889389395714, -0.144598498940468, -0.199990808963776, -0.10336584597826, -0.136553734540939,
-0.150570198893547, -0.151233598589897, -0.148170366883278, -0.091983936727047, -0.109570503234863, -0.101804867386818, -0.0789621844887733, -0.12297684699297, -0.126524969935417,
-0.0586640797555447, -0.0413239113986492, -0.118695639073849, -0.0709212422370911, -0.0429976172745228, -0.0622078850865364, -0.188013762235641, -0.0720979124307632, -0.00838831532746553,
-0.00351971643976867, 0.0424448773264885, 0.0187624469399452, 0.0450048297643661, 0.00667757960036397, -0.00953815318644047, -0.00852815341204405, -0.0382783710956573, 0.046939879655838,
0.0209910310804844, -0.0122877629473805, 0.0302555989474058, 0.0095397187396884, 0.00797772966325283, 0.0668689757585526, -0.00285312812775373, 0.0512106381356716, 0.0117118861526251,
0.0605314485728741, 0.0534156188368797, -0.0165812633931637, -0.310216009616852, -0.376351088285446, -0.280069082975388, -0.292581111192703, -0.168686330318451, -0.164070785045624,
-0.129024803638458, -0.174455270171165, -0.167857155203819, -0.101603344082832, -0.111171811819077, -0.142446741461754, -0.159709960222244, -0.160900369286537, -0.134592428803444,
-0.151755139231682, -0.0989971533417702, -0.0969311818480492, -0.105021312832832, -0.133895397186279, -0.0766166150569916, -0.08722023665905, -0.0996957793831825, -0.0989487245678902,
0.0371540598571301, 0.0861297473311424, 0.0307054556906223, 0.0256424471735954, 0.0395023860037327, 0.116013638675213, 0.0807550475001335, 0.618594229221344, 0.312502980232239,
-0.32446551322937, -0.361570477485657, -0.392176330089569, -0.0767373219132423, -0.0430825687944889, 0.0523261018097401, 0.0596521086990833, 0.110542826354504, 0.259606540203094,
0.620976984500885, 0.10945900529623, 0.0351735763251781, 0.143461421132088, 0.031226821243763 }, {-0.582901835441589, -0.312905728816986, 0.0537288337945938, 0.0436405204236507,
0.0263473186641932, 0.122427552938461, 0.0667661130428314, -0.0146984308958054, -0.0761225149035454, -0.0532289929687977, -0.00950674898922443, 0.0810130462050438, 0.192942380905151,
0.214644819498062, 0.169737666845322, 0.123376481235027, 0.146343261003494, 0.174834415316582, 0.167590856552124, 0.180986478924751, 0.221450164914131, 0.194652676582336,
0.196751192212105, 0.189425766468048, -1.49501872062683, -1.41392660140991, -1.01847755908966, -0.574929356575012, -0.232227578759193, -0.106028497219086, -0.0308259315788746,
0.0698554739356041, 0.0321275368332863, -0.0497344471514225, -0.0104352841153741, -0.00211846805177629, -0.08549764752388, -0.153698861598969, -0.0476288497447968, 0.0465908572077751,
-0.123797416687012, -0.100392751395702, -0.152962237596512, -0.0637183859944344, -0.0225149970501661, -0.0631821230053902, -0.0183321665972471, -0.0518561862409115, -0.662133276462555,
-0.318951278924942, 0.00729404715821147, 0.0682171359658241, 0.0613572970032692, 0.0781954377889633, 0.0750183239579201, 0.0317701175808907, -0.0321479775011539, -0.12254311144352,
-0.0269902180880308, 0.0599221102893353, 0.229947224259377, 0.210837066173553, 0.15630616247654, 0.140881970524788, 0.117336250841618, 0.177835628390312, 0.198028847575188,
0.195363894104958, 0.171250745654106, 0.166159063577652, 0.232966214418411, 0.196731105446815, -1.5032103061676, -1.40740549564362, -0.976057767868042, -0.602346658706665,
-0.17692893743515, -0.0814196243882179, -0.0135078392922878, 0.0472179986536503, 0.0693463683128357, 0.0428977571427822, 0.028709014877677, -0.0335035137832165, -0.0482410155236721,
-0.114508830010891, 0.0101185357198119, 0.116891123354435, -0.0981346145272255, -0.126349434256554, -0.151752501726151, -0.0247957222163677, -0.0991400480270386, -0.0639605820178986,
-0.046463880687952, -0.0423417054116726, 0.328324407339096, 0.165108561515808, 0.280341118574142, 0.181391596794128, 0.156189933419228, 0.234128475189209, 0.197192460298538,
1.52938914299011, 0.418636113405228, -0.984456419944763, -0.936996638774872, -0.843143284320831, -0.28813773393631, 0.0186257977038622, 0.226847842335701, 0.429588586091995,
0.582539856433868, 1.13204288482666, 1.80673170089722, 0.326984912157059, 0.284777969121933, 0.403309017419815, 0.274912923574448 }, {0.669057190418243, 0.402314782142639,
0.120856307446957, -0.0274874530732632, -0.172865808010101, -0.212861984968185, -0.240107372403145, -0.222520664334297, -0.11091373860836, -0.0143753262236714, 0.146401092410088,
0.086811438202858, -0.0146371768787503, -0.102967441082001, -0.0638236999511719, -0.0684098452329636, -0.171837419271469, -0.09507667273283, -0.136246398091316, -0.205640494823456,
-0.11261872202158, -0.174262583255768, -0.180745735764503, -0.0913054347038269, 0.977306663990021, 0.818368315696716, 0.703292727470398, 0.607830584049225, 0.398438453674316,
0.312662541866302, 0.182990208268166, 0.148236975073814, 0.0647767931222916, 0.033017635345459, -0.0881815701723099, -0.090848833322525, -0.0701839700341225, 0.0698714852333069,
0.155534863471985, 0.186872616410255, 0.267559498548508, 0.109550222754478, 0.0769747421145439, 0.123489394783974, 0.0548539534211159, 0.0914777517318726, 0.167953476309776,
0.0851735770702362, 0.642631888389587, 0.445449501276016, 0.135045394301414, -0.0880739912390709, -0.130964651703835, -0.217472523450851, -0.236569195985794, -0.177529096603394,
-0.142066925764084, 0.0478800125420094, 0.0581842735409737, 0.0436979830265045, -0.0427955538034439, -0.0917936787009239, -0.0446436554193497, -0.144764423370361, -0.218641459941864,
-0.142061650753021, -0.112388283014297, -0.182026997208595, -0.0885826349258423, -0.111973114311695, -0.105960160493851, -0.098436027765274, 0.981336176395416, 0.820761322975159,
0.632728338241577, 0.546660900115967, 0.407103061676025, 0.215672060847282, 0.178267434239388, 0.0471341982483864, 0.0547470077872276, 0.0427756495773792, -0.113088712096214,
-0.110021568834782, -0.0626499950885773, 0.0717307105660439, 0.088782824575901, 0.130862578749657, 0.207362234592438, 0.137398138642311, 0.202436968684196, 0.157652646303177,
0.179408133029938, 0.184844642877579, 0.145014271140099, 0.0643079802393913, -0.299420654773712, -0.114016801118851, -0.210461050271988, -0.198448687791824, -0.147919893264771,
-0.0959011167287827, -0.104980528354645, -0.822901844978333, -0.0575139559805393, -0.207358628511429, 0.345899522304535, 0.294183790683746, 0.532895445823669, 0.360149681568146,
0.207375586032867, -0.175781905651093, -0.507602453231812, -1.38462626934052, -1.17813837528229, -0.27044665813446, -0.216891050338745, -0.2666015625, -0.208712220191956,
}, {-0.208439201116562, -0.0448487401008606, 0.0137126622721553, -0.0205001421272755, 0.0692136734724045, 0.0195305440574884, 0.0210174322128296, 0.0496235452592373, 0.000750366598367691,
-0.0296491328626871, -0.05653091147542, 0.000524149683769792, 0.0127311078831553, 0.0454753823578358, 0.097751758992672, 0.0107519654557109, 0.00577790755778551, 0.00408539595082402,
0.0779304206371307, 0.0722319111227989, 0.0675010681152344, 0.0328929536044598, 0.000913834490347654, 0.0771828293800354, -0.332763761281967, -0.40146017074585, -0.344839572906494,
-0.30572435259819, -0.192367061972618, -0.177077531814575, -0.142565965652466, -0.140663400292397, -0.0922166481614113, -0.0948595404624939, -0.0940515920519829, -0.0789565294981003,
-0.0972620695829391, -0.114959292113781, -0.119906723499298, -0.0921840369701385, -0.0997037962079048, -0.135708421468735, -0.109375320374966, -0.130203902721405, -0.0691455602645874,
-0.0781419426202774, -0.0273771733045578, -0.0464494377374649, -0.233316540718079, -0.117173671722412, 0.00712884962558746, -0.0054764267988503, -0.00696120224893093, -0.0233592167496681,
0.0447626262903214, -0.025329664349556, 0.0266546364873648, -0.0252686757594347, -0.0147894266992807, 0.0494516789913177, -0.00203649373725057, 0.0432249456644058, 0.052783127874136,
0.0566604696214199, 0.036122377961874, 0.00239663990214467, 0.000850978540256619, 0.0922411009669304, 0.00502885691821575, 0.0359784811735153, 0.0669832900166512, 0.01600725017488,
-0.414347350597382, -0.429103821516037, -0.393372148275375, -0.260491549968719, -0.179020524024963, -0.21332111954689, -0.190671488642693, -0.0938241705298424, -0.134604692459106,
-0.150294944643974, -0.108235456049442, -0.0820764675736427, -0.108768612146378, -0.104848586022854, -0.104854136705399, -0.13921169936657, -0.113076709210873, -0.0948835387825966,
-0.147249385714531, -0.128067493438721, -0.14902862906456, -0.0612771585583687, -0.044003501534462, -0.0251230485737324, 0.00304677919484675, 0.0218113511800766, 0.0836954191327095,
0.0929354354739189, 0.0829996839165688, 0.100038565695286, 0.0618058554828167, 0.650907397270203, 0.344953328371048, -0.37192776799202, -0.435957342386246, -0.436281234025955,
-0.11261934787035, -0.0149311320856214, 0.00215085782110691, 0.0417428910732269, 0.108498848974705, 0.320372730493546, 0.654855012893677, 0.1072161719203, 0.058959174901247,
0.137802720069885, 0.138713449239731 }, {0.122124366462231, 0.119525648653507, 0.0337109267711639, 0.0412362366914749, -0.0427080206573009, 0.00837819464504719, -0.0309026576578617,
-0.0174285285174847, 0.0377634540200233, 0.0515932776033878, 0.0577142462134361, 0.0531523078680038, -0.0336301885545254, 0.0144497193396091, -0.0509552769362926, 0.0394150950014591,
-0.00162358034867793, 0.0442570559680462, -0.0237243659794331, -0.0270392671227455, -0.0499486327171326, -0.00226444890722632, -0.00609779870137572, 0.0445063151419163, 0.394381105899811,
0.307132184505463, 0.277146220207214, 0.260533571243286, 0.202799126505852, 0.148790761828423, 0.0510290898382664, 0.076430507004261, 0.0598992891609669, 0.0182898547500372,
-0.026536175981164, 0.0509874261915684, 0.0478479526937008, 0.122500002384186, 0.114850625395775, 0.0284784249961376, 0.0291464198380709, 0.0719518810510635, 0.026072246953845,
0.112289607524872, 0.0632780119776726, 0.0334394164383411, 0.0905953794717789, 0.0468228496611118, 0.182189166545868, 0.132225215435028, 0.013570811599493, 0.0393089689314365,
-0.0681782886385918, -0.0664780884981155, -0.0317573472857475, 0.0306884255260229, -0.00603710534051061, 0.0214813258498907, 0.0716768056154251, 0.0870702192187309, -0.013204000890255,
-0.0586693696677685, -0.0456131547689438, -0.0438078157603741, 0.0194835904985666, -0.0380230508744717, 0.0296149961650372, -0.0339940562844276, -0.0067678545601666, -0.0268638096749783,
0.0172546189278364, 0.0569272078573704, 0.321798890829086, 0.287671804428101, 0.273614168167114, 0.26101878285408, 0.128204569220543, 0.0523883327841759, 0.0938846617937088,
-0.0123258242383599, -0.00710290903225541, -0.0326690636575222, 0.0258419197052717, -0.0238665845245123, 0.0459247194230556, 0.12196397036314, 0.0890063717961311, 0.0307533051818609,
0.045293677598238, 0.0590073578059673, 0.105905584990978, 0.102426700294018, 0.108408890664577, 0.064005583524704, 0.107381798326969, 0.0203565880656242, -0.0470275916159153,
0.0388172753155231, 0.016006650403142, -0.0457936115562916, -0.0039847819134593, 0.0595308728516102, 0.00329719018191099, -0.13112872838974, 0.134166151285172, -0.194212138652802,
-0.0288563184440136, -0.0847570076584816, 0.163619697093964, 0.129370927810669, 0.207750976085663, 0.124378360807896, -0.01431321259588, -0.201161593198776, -0.275971561670303,
-0.0669670477509499, -0.0175807047635317, -0.0179064255207777, -0.0336126163601875 }, {-0.435617536306381, -0.19175511598587, -0.0286836139857769, 0.0466654039919376, 0.130579099059105,
0.138975918292999, 0.101572141051292, 0.0814068019390106, -0.0018444808665663, -0.014421071857214, -0.02128547988832, 0.0777489766478539, 0.166189461946487, 0.150392785668373,
0.140815928578377, 0.0549932681024075, 0.0996235385537148, 0.174245700240135, 0.154546692967415, 0.128544718027115, 0.105887733399868, 0.16252875328064, 0.157849192619324,
0.158340811729431, -0.968043506145477, -0.875697910785675, -0.743093073368073, -0.49393230676651, -0.299531668424606, -0.214467167854309, -0.123620994389057, -0.0964001566171646,
-0.0763321071863174, -0.0742354914546013, -0.0234700180590153, -0.0613887831568718, -0.0828081592917442, -0.132618263363838, -0.0806837528944016, -0.0877300500869751, -0.0969889983534813,
-0.0640609562397003, -0.124326348304749, -0.0342980585992336, -0.132040470838547, -0.116526201367378, -0.0939599350094795, -0.0711607560515404, -0.460219502449036, -0.238334342837334,
-0.00530613493174314, 0.0754715576767921, 0.0182909090071917, 0.0430204682052135, 0.0408137626945972, 0.0754769667983055, -0.0298243127763271, 0.00309046264737844, -0.0388151332736015,
0.0706594064831734, 0.159980967640877, 0.0830699875950813, 0.101578615605831, 0.11179530620575, 0.132357090711594, 0.0770810917019844, 0.119001396000385, 0.128469869494438,
0.1205700263381, 0.108564637601376, 0.173073247075081, 0.135778903961182, -0.967373311519623, -0.848563730716705, -0.724806427955627, -0.527229845523834, -0.259465575218201,
-0.200934514403343, -0.113138698041439, -0.0717722848057747, -0.0062475330196321, -0.023456709459424, -0.0612567290663719, -0.015729883685708, -0.092386856675148, -0.131360992789268,
-0.0678839907050133, -0.0131118781864643, -0.137871772050858, -0.131690517067909, -0.192626193165779, -0.0912019461393356, -0.0942353382706642, -0.0734898149967194, -0.0858038812875748,
-0.043976467102766, 0.157673686742783, 0.147903472185135, 0.183860421180725, 0.158887416124344, 0.125456765294075, 0.183522939682007, 0.149670302867889, 1.12186002731323,
0.463462322950363, -0.509362637996674, -0.615699529647827, -0.547433853149414, -0.23271369934082, 0.00151529733557254, 0.043436698615551, 0.229829549789429, 0.340104848146439,
0.834095120429993, 1.32445192337036, 0.234738260507584, 0.16174253821373, 0.303394466638565, 0.259939581155777 }, {-0.52880722284317, -0.224538773298264, -0.0211095493286848,
0.0256992243230343, 0.0933144837617874, 0.100074030458927, 0.119725443422794, 0.101600743830204, 0.00269811972975731, -0.0395521521568298, -0.0315067730844021, 0.0460612587630749,
0.127778202295303, 0.167903006076813, 0.131728783249855, 0.0828326344490051, 0.116099417209625, 0.104124635457993, 0.111752860248089, 0.143787309527397, 0.202154338359833,
0.132869407534599, 0.149550333619118, 0.193540990352631, -1.00396299362183, -0.854493796825409, -0.744479894638062, -0.493228256702423, -0.338277518749237, -0.240667179226875,
-0.143427118659019, -0.143878147006035, -0.126194536685944, -0.0473146662116051, -0.021372776478529, 0.00421355478465557, -0.0769857615232468, -0.165878459811211, -0.0698357596993446,
-0.0494445040822029, -0.158362880349159, -0.0679627433419228, -0.135093808174133, -0.0364900082349777, -0.11958222836256, -0.0872126221656799, -0.109289832413197, -0.0432158969342709,
-0.509792387485504, -0.290342658758163, -0.0751655101776123, 0.0384533368051052, 0.0364096611738205, 0.0599369555711746, 0.117428228259087, 0.0461592487990856, 0.0204884652048349,
-0.0148829184472561, 0.0290462542325258, 0.0452857986092567, 0.122194357216358, 0.0780618116259575, 0.111884117126465, 0.0722089409828186, 0.105409823358059, 0.124681502580643,
0.137835323810577, 0.134924128651619, 0.17705337703228, 0.1735460460186, 0.181741967797279, 0.0932024195790291, -0.915640294551849, -0.853004992008209, -0.727290034294128,
-0.505364120006561, -0.348119378089905, -0.260474294424057, -0.192432016134262, -0.0828292667865753, -0.0527730397880077, -0.115221939980984, -0.0624735653400421, -0.00949621386826038,
-0.0690557658672333, -0.157126501202583, -0.122584044933319, -0.0190071817487478, -0.105336412787437, -0.167725294828415, -0.125856637954712, -0.110163494944572, -0.147278264164925,
-0.0636800527572632, -0.09957155585289, -0.0749660804867744, 0.272385835647583, 0.194577500224113, 0.199394091963768, 0.197038039565086, 0.19367741048336, 0.225889191031456,
0.158339992165565, 1.21774196624756, 0.455241322517395, -0.614212334156036, -0.757748782634735, -0.640250623226166, -0.282768934965134, -0.00986839458346367, 0.0927562862634659,
0.290226340293884, 0.495726883411407, 1.01853311061859, 1.42003011703491, 0.356972873210907, 0.28048050403595, 0.31794273853302, 0.232853472232819 }, {-0.544938325881958,
-0.28669747710228, -0.107466027140617, -0.0295287687331438, 0.0516394786536694, 0.142493396997452, 0.141868591308594, 0.211462438106537, 0.113552659749985, 0.0317517854273319,
-0.0522019006311893, -0.00515900691971183, -0.0180622953921556, 0.0190289448946714, 0.0205006282776594, 0.0969415381550789, 0.147887200117111, 0.0945964232087135, 0.127762377262115,
0.12509498000145, 0.122489303350449, 0.105970993638039, 0.123641513288021, 0.0995539799332619, -0.575225234031677, -0.521913290023804, -0.447730243206024, -0.435975402593613,
-0.393390417098999, -0.302507162094116, -0.267304062843323, -0.229629009962082, -0.197733506560326, -0.105044536292553, -0.0839635133743286, 0.0160961803048849, -0.0819297283887863,
-0.0999466329813004, -0.190450593829155, -0.181672856211662, -0.195755556225777, -0.101703450083733, -0.0281073395162821, -0.116593345999718, -0.107268504798412, -0.132739439606667,
-0.0709510892629623, -0.0295081492513418, -0.51810747385025, -0.364672541618347, -0.129322648048401, 0.00175593909807503, 0.0683811008930206, 0.0870484709739685, 0.103513956069946,
0.156290024518967, 0.108017414808273, 0.0349815674126148, 0.0159274227917194, 0.00410494487732649, -0.0157189629971981, -0.000731023028492928, 0.0588559731841087, 0.0927346721291542,
0.0971238315105438, 0.128849819302559, 0.0898924246430397, 0.107152678072453, 0.0925265476107597, 0.0786627382040024, 0.137502789497375, 0.114289909601212, -0.574144840240479,
-0.483372360467911, -0.453498393297195, -0.414793759584427, -0.397232532501221, -0.322702884674072, -0.264432013034821, -0.262486279010773, -0.151906028389931, -0.134476974606514,
-0.113765820860863, -0.071656659245491, -0.0443292520940304, -0.128334894776344, -0.156533539295197, -0.200033277273178, -0.248055830597878, -0.0868354439735413, -0.0713998824357986,
-0.0691991448402405, -0.147779241204262, -0.123809911310673, -0.087584063410759, -0.0627898275852203, 0.169266805052757, 0.145182475447655, 0.205750003457069, 0.171286776661873,
0.140295952558517, 0.219955429434776, 0.181227937340736, 1.0405501127243, 0.42471632361412, -0.336671262979507, -0.722647786140442, -0.62760853767395, -0.260841459035873,
-0.109142072498798, -0.0191756691783667, 0.193500176072121, 0.430735737085342, 1.03411209583282, 1.16920530796051, 0.279038339853287, 0.150185450911522, 0.283267587423325,
0.158852890133858 }, {0.162702634930611, 0.157424762845039, 0.0201747473329306, 0.0320779234170914, -0.0194613076746464, -0.0211435854434967, -0.00564047740772367, -0.00777785154059529,
0.0221012681722641, 0.0219532325863838, 0.104647345840931, 0.0907092094421387, 0.0302644390612841, 0.0456252507865429, -0.01489466894418, -0.0357507355511189, 0.0552126504480839,
0.0155174899846315, -0.022794084623456, 0.0308395437896252, 0.0291479267179966, -0.0375824086368084, 0.0331596881151199, 0.0314463190734386, 0.351977437734604, 0.223290428519249,
0.234619364142418, 0.261992037296295, 0.247350379824638, 0.172879457473755, 0.073449470102787, 0.11665565520525, 0.111635595560074, 0.0604557991027832, 0.0519017204642296,
-0.0423307158052921, -0.0050140768289566, 0.0730651691555977, 0.143945142626762, 0.101615518331528, 0.0428314544260502, 0.1243756711483, 0.0851736217737198, 0.0902392119169235,
0.0826147943735123, 0.112749807536602, 0.0441045686602592, 0.0220593549311161, 0.247359663248062, 0.170355916023254, 0.102541096508503, 0.00112066685687751, -0.0547548644244671,
-0.0156107181683183, -0.0225123502314091, 0.0339432694017887, 0.0132034998387098, 0.0321292951703072, 0.106768175959587, 0.0335986204445362, 0.0731833130121231, 0.0409292206168175,
0.0430574975907803, 0.0187454260885715, 0.00339699094183743, -0.0313315279781818, -0.0005303974612616, -0.0218631997704506, -0.0229709763079882, 0.0201460625976324, -0.0240957178175449,
0.0501316487789154, 0.321002095937729, 0.241277292370796, 0.196752443909645, 0.276003479957581, 0.23094268143177, 0.093735009431839, 0.0430595465004444, 0.0225401632487774,
0.0265424326062202, 0.0389458276331425, 0.0415625162422657, 0.0163561087101698, 0.0546768940985203, 0.057424783706665, 0.135982185602188, 0.054187323898077, 0.0109924795106053,
0.103522598743439, 0.110357634723186, 0.115603126585484, 0.128849357366562, 0.119778834283352, 0.0399005971848965, 0.100680932402611, -0.0317248702049255, -0.0459791272878647,
-0.0072807795368135, -0.0616983436048031, -0.00605563772842288, -0.0142238214612007, -0.0372211113572121, -0.158041939139366, 0.160794422030449, -0.22499506175518, 0.0706782415509224,
-0.0397133976221085, 0.137343153357506, 0.171850845217705, 0.222195759415627, 0.0442478135228157, -0.0606114156544209, -0.332617968320847, -0.295802682638168, -0.0260894931852818,
0.00810470432043076, -0.0072376080788672, -0.000896786339581013 }, {0.446277529001236, 0.102404654026031, -0.0805877521634102, -0.183783337473869, -0.213339328765869, -0.184399917721748,
