#include "net_nn.h"

/* Adam Gawlik ~ University of Science and Technology in Krakow */
/* automatically printed weights */
/* weights printed on day of simulation: 61, sat */

float first_weights_ref[NUM_OF_FIRST][NUM_OF_INPUTS] = {{0.450066447257996, 0.230785384774208, 0.0430188290774822, -0.0494323559105396, -0.113597735762596, -0.125405132770538, -0.0738977640867233, -0.082067959010601, -0.00339959585107863,
0.0780363455414772, 0.0633746087551117, 0.0214489921927452, -0.119800508022308, -0.0818535536527634, -0.115942940115929, -0.127208843827248, -0.0659502372145653, -0.134424716234207,
-0.0883787572383881, -0.163220375776291, -0.113362044095993, -0.103025637567043, -0.124260082840919, -0.0345567092299461, 0.941657900810242, 0.914064824581146, 0.696704685688019,
0.57551109790802, 0.300745964050293, 0.217619523406029, 0.107027895748615, -0.0205277372151613, -0.0135352611541748, 0.00451241852715611, -0.0476532690227032, -0.0479161813855171,
0.0680583715438843, 0.143094569444656, 0.147868826985359, 0.105592422187328, 0.106494754552841, 0.11219760030508, 0.198135212063789, 0.191112011671066, 0.0638754665851593,
0.115804634988308, 0.19283963739872, 0.0524560697376728, 0.426027685403824, 0.225945562124252, 0.066764809191227, -0.0498818121850491, -0.116088889539242, -0.168464243412018,
-0.130059540271759, -0.123434491455555, 0.00958406832069159, 0.0986197143793106, 0.136140257120132, -0.0211186092346907, -0.0518392287194729, -0.124012760818005, -0.140918001532555,
-0.0975747406482697, -0.115667477250099, -0.0774989202618599, -0.172473728656769, -0.133367896080017, -0.11925058811903, -0.0649794414639473, -0.0908252000808716, -0.0714055150747299,
0.952334642410278, 0.827800869941711, 0.684144616127014, 0.528051674365997, 0.361362725496292, 0.170383855700493, 0.0783884972333908, 0.037309791892767, 0.0177879352122545,
-0.0146665647625923, -0.0852043703198433, -0.102012000977993, -0.0256165787577629, 0.106206201016903, 0.152448207139969, 0.112840458750725, 0.0334531925618649, 0.156283736228943,
0.212965309619904, 0.138398393988609, 0.152106985449791, 0.0653364881873131, 0.208570495247841, 0.0981254056096077, -0.152430638670921, -0.145374819636345, -0.131903901696205,
-0.136775985360146, -0.173056110739708, -0.201989367604256, -0.153140559792519, -0.665136992931366, -0.0877010896801949, -0.201909467577934, 0.219352379441261, 0.107134111225605,
0.43285670876503, 0.397061914205551, 0.135212942957878, -0.0335614606738091, -0.324484378099442, -1.03121304512024, -1.01818358898163, -0.201168403029442, -0.178008332848549,
-0.22615073621273, -0.147948995232582 }, {-0.112554728984833, -0.0930251851677895, -0.0270203240215778, -0.0609642937779427, -0.0846659764647484, -0.0532532408833504, 0.0311078503727913,
0.00990120973438025, 0.0250999536365271, 0.00296231708489358, -0.00423787580803037, 0.00230993423610926, 0.00570267299190164, -0.0766656249761581, 0.00894070882350206, -0.0568729899823666,
-0.0264558587223291, -0.0160363856703043, -0.0179966203868389, -0.043049979954958, 0.0129670668393373, 0.0183279365301132, -0.0105475643649697, -0.000214828061871231, -0.0545328557491302,
-0.022312743589282, -0.101303435862064, -0.139165326952934, -0.15175424516201, -0.202134594321251, -0.114317886531353, -0.112401217222214, -0.168908298015594, -0.163167700171471,
-0.177065223455429, -0.140588849782944, -0.0779091268777847, -0.0965660586953163, -0.142368748784065, -0.120307937264442, -0.123832531273365, -0.0898358225822449, -0.0087564243003726,
-0.0900014787912369, -0.0544753968715668, -0.0535704679787159, -0.0583525896072388, -0.0355822816491127, -0.029360631480813, -0.0427105724811554, -0.0864231809973717, -0.0137575948610902,
-0.0627670735120773, -0.0260155443102121, 0.0170656200498343, -0.0479775257408619, -0.0296518430113792, -0.0192682705819607, -0.0219125207513571, -0.0142508018761873, -0.0428135059773922,
-0.00142189953476191, -0.0506929755210876, -0.0318609736859798, 0.0333698503673077, -0.0207652859389782, -0.0513835363090038, -0.0561923794448376, 0.0239109303802252, 0.0233674328774214,
-0.013451918028295, 0.025161387398839, 0.0112459044903517, -0.0336842350661755, -0.0268009789288044, -0.123032622039318, -0.159630075097084, -0.17718018591404, -0.138729006052017,
-0.196538209915161, -0.133252874016762, -0.178226932883263, -0.127651810646057, -0.0886748060584068, -0.116137772798538, -0.0728937759995461, -0.0771440118551254, -0.0598699785768986,
-0.0655061155557632, -0.0625896453857422, -0.0488997623324394, -0.0432569198310375, -0.00373289757408202, -0.0933369100093842, 0.00579489395022392, -0.0639989301562309, -0.0066884309053421,
-0.0109135033562779, 0.037654310464859, 0.039910688996315, 0.0589820444583893, 0.0740345120429993, 0.00904644187539816, 0.293198853731155, 0.273074239492416, -0.388792127370834,
-0.397134870290756, -0.355004340410233, -0.0397012121975422, 0.0275285989046097, 0.0694008320569992, 0.0658634155988693, 0.0432084128260612, 0.158294454216957, 0.244331389665604,
0.0785429626703262, -0.0238535515964031, -0.0400596968829632, 0.0149481547996402 }, {-0.608978748321533, -0.255113810300827, 0.0295523796230555, 0.0311624482274055, -0.0269371923059225,
0.0120639726519585, -0.04072105884552, -0.0968044102191925, -0.116946794092655, -0.16150426864624, 0.00770092103630304, 0.18461287021637, 0.295812457799911, 0.241026684641838,
0.155274838209152, 0.117876887321472, 0.0594996176660061, 0.18929623067379, 0.217693075537682, 0.195835322141647, 0.189814269542694, 0.210130825638771, 0.242541864514351,
0.107070237398148, -1.70292770862579, -1.60884368419647, -1.07092046737671, -0.598493158817291, -0.15109583735466, -0.0120234657078981, 0.0215415321290493, 0.152504920959473,
0.134290680289268, 0.0767747387290001, 0.0317904241383076, -0.003717090934515, -0.115006498992443, -0.0956606641411781, -0.0174769572913647, 0.196268424391747, 0.0950310751795769,
-0.146839797496796, -0.227423131465912, -0.0782099291682243, -0.0236839577555656, 0.0327509865164757, -0.0762271508574486, -0.0304167922586203, -0.605737090110779, -0.258199632167816,
0.0659535899758339, 0.0453377589583397, 0.0879505053162575, 0.102254346013069, 0.0571351200342178, -0.0920202285051346, -0.114985406398773, -0.148829936981201, 0.00486208731308579,
0.188695818185806, 0.325654745101929, 0.24394117295742, 0.225854635238647, 0.115894466638565, 0.0860522463917732, 0.22640985250473, 0.238558456301689, 0.185841798782349,
0.196117579936981, 0.189454019069672, 0.186241671442986, 0.133032649755478, -1.7387809753418, -1.62044787406921, -1.12471425533295, -0.581193029880524, -0.219826564192772,
-0.0128207746893167, 0.0480607934296131, 0.0900036618113518, 0.182618826627731, 0.100714527070522, -0.0090683912858367, -0.00220032571814954, -0.0943180173635483, -0.154667228460312,
0.00657151406630874, 0.184028059244156, 0.109043821692467, -0.123566083610058, -0.217697873711586, 0.0157850831747055, -0.066963292658329, -0.0198357310146093, -0.107252582907677,
-0.016545258462429, 0.229910403490067, 0.240978136658669, 0.231487810611725, 0.197440892457962, 0.239329874515533, 0.234825685620308, 0.274711549282074, 1.50305593013763,
0.564727544784546, -1.22348344326019, -0.895962834358215, -0.845601916313171, -0.133802980184555, 0.11945890635252, 0.355813682079315, 0.406431019306183, 0.556073069572449,
0.958746492862701, 1.91837584972382, 0.241886526346207, 0.197825312614441, 0.239599898457527, 0.251343965530396 }, {-0.138979583978653, -0.0393881276249886, 0.0985234454274178,
0.0408945232629776, 0.0119219906628132, 0.0131618585437536, 0.0360430628061295, -0.0232827942818403, 0.0123779308050871, -0.0390268824994564, 0.0711136609315872, 0.0421003550291061,
0.10898856818676, 0.182027161121368, 0.151682838797569, 0.0893453806638718, 0.0669565200805664, 0.127176150679588, 0.121476754546165, 0.0999340265989304, 0.0767620205879211,
0.0833667367696762, 0.0814508348703384, 0.0502458587288857, -0.596548616886139, -0.621367871761322, -0.543164789676666, -0.322062164545059, -0.200584128499031, -0.185344591736794,
-0.106089107692242, -0.0994757860898972, -0.0520293712615967, -0.0321289375424385, -0.0301712155342102, -0.105127409100533, -0.179338157176971, -0.163908317685127, -0.108507193624973,
0.0110911410301924, 0.0326077863574028, -0.042526550590992, -0.167914837598801, -0.0509990118443966, -0.0951681360602379, -0.039274338632822, -0.0504473447799683, -0.0840194672346115,
-0.146533563733101, -0.0264608059078455, 0.120542466640472, 0.131243497133255, 0.0797992199659348, 0.0778721868991852, 0.0636258274316788, 0.00619858130812645, 0.0296835508197546,
0.00241326005198061, 0.0700699463486671, 0.0899685323238373, 0.100612334907055, 0.175928115844727, 0.0895589217543602, 0.131698116660118, 0.074831910431385, 0.0887689515948296,
0.0737625434994698, 0.0595285817980766, 0.1188810095191, 0.0800881311297417, 0.0670302733778954, 0.0787703022360802, -0.566457390785217, -0.619672536849976, -0.545667588710785,
-0.417527049779892, -0.242474317550659, -0.11717002093792, -0.110668450593948, -0.0299430340528488, -0.0640126466751099, -0.0214836392551661, -0.062862440943718, -0.0685556754469872,
-0.170509293675423, -0.163371473550797, -0.0946162417531013, -0.0331717692315578, -0.0478636845946312, -0.125476360321045, -0.118477508425713, -0.0529025532305241, -0.116368003189564,
-0.0875952541828156, -0.128006339073181, -0.102383695542812, 0.13003446161747, 0.0799063444137573, 0.140999630093575, 0.0989362895488739, 0.122718036174774, 0.207191303372383,
0.0999145060777664, 0.867103397846222, 0.418765932321548, -0.527699172496796, -0.41327902674675, -0.402079194784164, -0.0826217830181122, 0.00140696589369327, 0.116812564432621,
0.125914484262466, 0.224381610751152, 0.315927058458328, 0.945057690143585, 0.139903470873833, 0.0916493237018585, 0.140727743506432, 0.107925623655319 }, {0.559341788291931,
0.317265063524246, 0.103397488594055, -0.109391085803509, -0.154794737696648, -0.104050025343895, -0.165665984153748, -0.100535571575165, -0.0333697870373726, 0.0451613031327724,
0.114339575171471, 0.0413456931710243, -0.0339866168797016, -0.0648964866995811, -0.0594087280333042, -0.0975452810525894, -0.0677726492285728, -0.0813124254345894, -0.165170535445213,
-0.22439070045948, -0.0882182270288467, -0.17997932434082, -0.167983889579773, -0.111451394855976, 1.06207001209259, 0.952104568481445, 0.694584131240845, 0.573997616767883,
0.349466472864151, 0.186186447739601, 0.166233971714973, 0.0799767151474953, -0.0349099636077881, 0.0169246960431337, -0.0454154722392559, -0.0798067077994347, 0.012330200523138,
0.100906290113926, 0.179608106613159, 0.0542335025966167, 0.0908035114407539, 0.124969452619553, 0.247619450092316, 0.163702636957169, 0.0792416334152222, 0.077212430536747,
0.195116952061653, 0.0181570760905743, 0.591706573963165, 0.351639837026596, 0.0747631415724754, -0.123266704380512, -0.121140636503696, -0.215091899037361, -0.141455367207527,
-0.0902596339583397, -0.0878943651914597, 0.0163921993225813, 0.13490654528141, 0.0427621379494667, -0.0957646295428276, -0.0759201347827911, -0.113534443080425, -0.0898102447390556,
-0.0927107334136963, -0.0900472924113274, -0.209362357854843, -0.151359334588051, -0.0780809074640274, -0.158020719885826, -0.153508991003036, -0.0413734242320061, 1.05252981185913,
0.943800330162048, 0.729633748531342, 0.59911447763443, 0.377866417169571, 0.232886299490929, 0.13705287873745, -0.0402780026197433, -0.00243247649632394, -0.0125195728614926,
-0.128694236278534, -0.11602184176445, -0.0363403782248497, 0.0530668869614601, 0.135970443487167, 0.0494989193975925, 0.0955799147486687, 0.228975385427475, 0.230575755238533,
0.0978711321949959, 0.114006370306015, 0.12351556122303, 0.193300992250443, 0.113830864429474, -0.193015724420547, -0.196813553571701, -0.128650009632111, -0.184921652078629,
-0.196064978837967, -0.172210693359375, -0.183864623308182, -0.708896279335022, -0.0612960569560528, -0.166562795639038, 0.393024981021881, 0.131581872701645, 0.463442087173462,
0.421096980571747, 0.195559799671173, -0.0768425390124321, -0.414621889591217, -1.20957005023956, -1.08718812465668, -0.23303434252739, -0.177062571048737, -0.30311381816864,
-0.246346592903137 }, {-0.719665050506592, -0.355825901031494, -0.0963113009929657, -0.0962785109877586, -0.034626193344593, 0.0984056890010834, 0.121029146015644, 0.0300888363271952,
0.00740559678524733, 0.0253549013286829, 0.0623854324221611, 0.126985639333725, 0.0991460159420967, 0.10219482332468, 0.0743864998221397, 0.121814481914043, 0.197332233190536,
0.147740021348, 0.171274349093437, 0.280578136444092, 0.144147381186485, 0.191216558218002, 0.244593590497971, 0.148699820041656, -1.21686625480652, -1.10968255996704,
-0.744683444499969, -0.541064620018005, -0.258739620447159, -0.254328846931458, -0.219388172030449, -0.063056081533432, 0.00414950679987669, -0.0149108842015266, -0.0593304336071014,
0.00548754539340734, -0.0284064970910549, -0.0810281932353973, -0.0700212866067886, -0.0220245495438576, -0.0205576736479998, -0.0905940532684326, -0.137387871742249, -0.0989679992198944,
-0.0411875993013382, -0.0141557715833187, -0.0928399786353111, -0.0392992682754993, -0.644301116466522, -0.353182405233383, -0.093525692820549, -0.0465536564588547, 0.00927886739373207,
0.0640710890293121, 0.148286625742912, 0.0629143565893173, 0.0238897055387497, -0.00677028670907021, 0.0341274365782738, 0.0712602660059929, 0.182801470160484, 0.128769248723984,
0.127386450767517, 0.0999369546771049, 0.111441530287266, 0.188510462641716, 0.179782062768936, 0.203881278634071, 0.175288870930672, 0.134923458099365, 0.233082368969917,
0.174011677503586, -1.21869587898254, -1.15640711784363, -0.751923739910126, -0.526810705661774, -0.284682810306549, -0.311354756355286, -0.182067185640335, -0.073550820350647,
-0.0496756173670292, -0.113072521984577, -0.0813801512122154, 0.0150802284479141, -0.0915773585438728, -0.0987810119986534, -0.096789687871933, 0.0414485223591328, -0.12240644544363,
-0.164262041449547, -0.125703364610672, -0.0730522722005844, -0.022223824635148, -0.0997821465134621, -0.0998622179031372, -0.0371726304292679, 0.263993710279465, 0.183232665061951,
0.292105227708817, 0.175192445516586, 0.206757485866547, 0.265161663293839, 0.224450543522835, 1.48899149894714, 0.557042419910431, -0.975466549396515, -0.969146192073822,
-0.845725834369659, -0.313187450170517, -0.000509862031321973, 0.244215101003647, 0.42915478348732, 0.629007995128632, 1.37801289558411, 1.89945507049561, 0.349635452032089,
0.269687920808792, 0.29932376742363, 0.289334505796432 }, {0.0374459326267242, -0.0398881919682026, -0.0911470279097557, -0.0848981887102127, -0.0883000418543816, -0.101536303758621,
-0.0770526379346848, -0.0398909486830235, -0.101160772144794, 0.00545661570504308, -0.0500960052013397, -0.0513367839157581, -0.0594503507018089, -0.0304256360977888, -0.0672983601689339,
-0.116692259907722, -0.108056776225567, -0.0667771548032761, -0.0208449251949787, -0.0568434819579124, -0.0352939702570438, -0.0640392750501633, -0.0944120362401009, -0.0835881531238556,
0.0892190039157867, 0.0733829960227013, 0.0769257172942162, 0.02905597910285, -0.0717575252056122, -0.0770991742610931, -0.0403082817792892, -0.0945421159267426, -0.139857068657875,
-0.0949731022119522, -0.148429423570633, -0.0748484507203102, -0.0359982922673225, -0.104921698570251, -0.0189288537949324, -0.0978208929300308, -0.052586704492569, -0.0285707395523787,
-0.0338932499289513, -0.00192184653133154, -0.0829760357737541, -0.107808716595173, -0.0241745561361313, -0.0351174175739288, -0.0452570766210556, -0.0251675043255091, -0.0497241914272308,
-0.117129229009151, -0.0916029587388039, -0.123033903539181, -0.0894037932157516, -0.0320896282792091, -0.0962123423814774, -0.0407744571566582, -0.0753118842840195, -0.00493864249438047,
-0.0382624119520187, -0.0362964421510696, -0.115381613373756, -0.0451994836330414, -0.0418375693261623, -0.0585970841348171, -0.0505008287727833, -0.098224863409996, -0.026399090886116,
-0.0546476058661938, -0.0480036325752735, -0.106310673058033, 0.13214148581028, 0.104327537119389, 0.0686724036931992, -0.000441471085650846, -0.0157721843570471, -0.0716427937150002,
-0.122864440083504, -0.0790145397186279, -0.0860796570777893, -0.107683055102825, -0.110318526625633, -0.103932276368141, -0.0460347346961498, -0.0323726907372475, -0.0595262199640274,
-0.0954176932573318, -0.0825375914573669, -0.0243610274046659, -0.0100132515653968, -0.0787492096424103, -0.0875559523701668, -0.0245618112385273, -0.0618331544101238, -0.00380246643908322,
-0.0937498211860657, -0.0203343462198973, -0.0383789055049419, -0.0289324913173914, -0.0186433400958776, 0.0407669581472874, -0.096877709031105, 0.0415518246591091, 0.113937959074974,
-0.305239588022232, -0.116288930177689, -0.213314801454544, -0.0452826283872128, 0.0533314533531666, -0.0113451825454831, -0.0199572239071131, -0.0614196136593819, -0.125353127717972,
-0.028717702254653, -0.0520560704171658, -0.106453150510788, -0.0818312913179398, -0.115650147199631 }, {-0.00556755950674415, 0.0513954944908619, 0.00965385138988495, -0.0961141586303711,
-0.0430709347128868, -0.0413694381713867, -0.0390966907143593, -0.0538934655487537, -0.103765249252319, -0.07473424077034, 0.0185589659959078, 0.000807907665148377, -0.00326818460598588,
-0.0518928095698357, -0.0786136984825134, -0.0298628602176905, -0.0151034472510219, -0.0139734083786607, -0.0558151379227638, -0.0332411080598831, -0.076799064874649, -0.0198740493506193,
-0.0434712059795856, -0.0466002523899078, -0.0146371740847826, -0.0336321145296097, -0.0350615829229355, 0.0142686050385237, 0.0237342230975628, -0.0679476037621498, -0.0541659332811832,
-0.0497749224305153, -0.0895295366644859, -0.0544105544686317, -0.115493543446064, -0.150784760713577, -0.0925353914499283, -0.0969157591462135, -0.0698650255799294, -0.0579804517328739,
-0.0148395448923111, -0.0137243177741766, -0.0866506397724152, -0.0740400329232216, -0.0756724923849106, -0.0167934019118547, -0.049043707549572, -0.0264592450112104, 0.0692123994231224,
0.0159025508910418, -0.00381327397190034, -0.0961029380559921, -0.0860238894820213, -0.0821676775813103, -0.121784664690495, -0.0949074625968933, -0.0675052404403687, -0.0557823106646538,
-0.0331644602119923, -0.00896271225064993, -0.0643679052591324, -0.0576277375221252, -0.0516959764063358, -0.0239704698324203, -0.0251691341400146, -0.0783478245139122, -0.0841736644506454,
-0.120741687715054, -0.0419953502714634, -0.0625136345624924, -0.0597711019217968, -0.00913422834128141, 0.0220101475715637, -0.00418358854949474, -0.0317635573446751, -0.0390578620135784,
-0.0458781905472279, -0.00930975377559662, -0.0416025929152966, -0.0842256844043732, -0.134028702974319, -0.0555567368865013, -0.149976640939713, -0.135822609066963, -0.0943102538585663,
-0.117457114160061, -0.0615572966635227, -0.0884735435247421, -0.0315314047038555, -0.0306551996618509, -0.054457638412714, -0.0108707109466195, -0.0164947751909494, 0.00801925361156464,
-0.0158669240772724, 0.0133388638496399, -0.129995882511139, -0.0550229847431183, -0.0817467123270035, -0.0685616582632065, 0.00840782653540373, 0.0747487246990204, -0.0587586313486099,
0.143019437789917, 0.2130988240242, -0.383160769939423, -0.241882681846619, -0.233182221651077, 0.046351931989193, 0.122420206665993, 0.089923158288002, 0.0669242590665817,
-0.0740155279636383, -0.298556804656982, -0.0296958200633526, -0.0613193698227406, -0.0829218178987503, -0.0958116501569748, -0.0947325229644775 }, {-0.316413193941116, -0.140714898705482,
0.00829580333083868, 0.0865288227796555, 0.0943582728505135, 0.020795751363039, 0.00382106215693057, -0.0188093669712543, -0.0170324482023716, -0.0629734620451927, 0.0468050129711628,
0.153585061430931, 0.210209593176842, 0.149552047252655, 0.11267326772213, 0.135223940014839, 0.0429022945463657, 0.14987601339817, 0.125224083662033, 0.156365886330605,
0.123832665383816, 0.17035399377346, 0.0922747179865837, 0.0733998119831085, -0.926755487918854, -0.93324089050293, -0.71833211183548, -0.500171303749084, -0.254435837268829,
-0.121484614908695, -0.035900816321373, 0.0167281571775675, 0.0319513753056526, -0.0208945292979479, -0.0353490673005581, -0.0843972638249397, -0.168474704027176, -0.179766446352005,
-0.138740330934525, 0.020011842250824, 0.0593158975243568, -0.105243481695652, -0.203422278165817, -0.0955358222126961, -0.092470183968544, -0.0338207446038723, -0.129833117127419,
-0.0528170093894005, -0.258285313844681, -0.0974408611655235, 0.0851677507162094, 0.0801113173365593, 0.100890345871449, 0.0811036750674248, 0.0159646850079298, 0.037923276424408,
-0.0450312197208405, 0.0112208621576428, 0.0229327268898487, 0.0875516533851624, 0.16434434056282, 0.201781451702118, 0.117022223770618, 0.151992991566658, 0.0370526649057865,
0.108642145991325, 0.167168229818344, 0.105376161634922, 0.172204717993736, 0.127973228693008, 0.119299747049809, 0.0773714482784271, -0.905792236328125, -0.930461645126343,
-0.674347996711731, -0.473567456007004, -0.270225882530212, -0.152070268988609, -0.132892400026321, -0.0109267299994826, 0.0505567565560341, -0.0410252995789051, 0.0086930813267827,
-0.0844873636960983, -0.142074763774872, -0.142985880374908, -0.0578292943537235, 0.0231696721166372, -0.0256025921553373, -0.107694491744041, -0.122784689068794, -0.115711040794849,
-0.132944956421852, -0.111637137830257, -0.157906427979469, -0.0966303497552872, 0.155029058456421, 0.161862730979919, 0.153417527675629, 0.179068684577942, 0.129101023077965,
0.211182862520218, 0.181435734033585, 1.04064989089966, 0.503609478473663, -0.598700106143951, -0.542976200580597, -0.441420704126358, -0.125267520546913, 0.0241271089762449,
0.180382341146469, 0.188704520463943, 0.308152168989182, 0.56146901845932, 1.27477860450745, 0.219198286533356, 0.148444443941116, 0.202549606561661, 0.178925752639771,
}, {-0.490166306495667, -0.293845593929291, -0.0414171442389488, 0.0366926491260529, -0.00722700729966164, 0.0988434478640556, 0.0920867472887039, 0.107771426439285, 0.000446174759417772,
0.0164487268775702, -0.0335861779749393, 0.0383782349526882, 0.0795890018343925, 0.167691990733147, 0.144357398152351, 0.0705265775322914, 0.0661769509315491, 0.139383882284164,
0.183940976858139, 0.221123740077019, 0.141684100031853, 0.17899078130722, 0.139779523015022, 0.0860399156808853, -0.943618059158325, -0.872140467166901, -0.64541882276535,
-0.434293746948242, -0.29641729593277, -0.212735012173653, -0.206221103668213, -0.0601760819554329, -0.043839804828167, -0.0899982675909996, -0.109037302434444, -0.022787157446146,
-0.0716988444328308, -0.181250542402267, -0.0740609765052795, -0.0134377116337419, -0.0231838282197714, -0.124701924622059, -0.171801969408989, -0.0599911548197269, -0.0722876414656639,
-0.0637404546141624, -0.105377018451691, -0.0337565913796425, -0.440389573574066, -0.251631021499634, -0.0255494862794876, 0.0180596746504307, 0.0238082837313414, 0.14018902182579,
0.130264028906822, 0.101654499769211, 0.0461489222943783, -0.00743937026709318, 0.00391350733116269, 0.106657601892948, 0.17799910902977, 0.0975931584835052, 0.12296536564827,
0.0620636008679867, 0.0854669064283371, 0.0996175706386566, 0.17198358476162, 0.138490438461304, 0.133700057864189, 0.102313943207264, 0.10333850979805, 0.135921955108643,
-0.986824691295624, -0.882036089897156, -0.695842504501343, -0.504196524620056, -0.333619922399521, -0.23420162498951, -0.206555992364883, -0.11713083833456, -0.0796489045023918,
-0.0780798122286797, -0.0384498797357082, 0.00334920734167099, -0.0532769933342934, -0.171489909291267, -0.121812656521797, -0.0106481071561575, -0.0840961039066315, -0.110017366707325,
-0.198510468006134, -0.0742327645421028, -0.0465233363211155, -0.131241574883461, -0.148771539330482, -0.0368951410055161, 0.18964210152626, 0.138417333364487, 0.181180536746979,
0.209558814764023, 0.152776002883911, 0.237734526395798, 0.156652629375458, 1.23202502727509, 0.500691831111908, -0.617424488067627, -0.71639096736908, -0.646284580230713,
-0.248127400875092, -0.0554204545915127, 0.184559434652328, 0.230938196182251, 0.440859407186508, 0.985791683197021, 1.44037544727325, 0.26814678311348, 0.201511472463608,
0.295072108507156, 0.241169407963753 }, {0.306844830513, 0.22000627219677, 0.0422661043703556, -0.0229554828256369, -0.0420799255371094, -0.0531917214393616, 0.00356858619488776,
-0.027280043810606, -0.0300245359539986, 0.109574683010578, 0.110417075455189, 0.0937518104910851, 0.00563619378954172, 0.0200632102787495, 0.0388117171823978, 0.00364984339103103,
-0.0295821391046047, -0.00419746385887265, 0.0434692688286304, -0.04787378013134, 0.0281619857996702, -0.0296070203185081, -0.0621307268738747, 0.0328554399311543, 0.323414236307144,
0.33453556895256, 0.317563474178314, 0.235355034470558, 0.274322241544724, 0.138393580913544, 0.0943648144602776, 0.110489778220654, 0.0303976777940989, 0.0678557455539703,
-0.0219557732343674, -0.0307938791811466, -0.0278680324554443, 0.0444345846772194, 0.149597972631454, 0.140550523996353, 0.113265484571457, 0.0761725157499313, 0.112581722438335,
0.138646528124809, 0.0219971146434546, 0.0859785377979279, 0.162890464067459, 0.0276152491569519, 0.239401504397392, 0.17975652217865, 0.124319829046726, 0.0403645224869251,
-0.0749502927064896, -0.0821836590766907, -0.0325553938746452, -0.0309570506215096, 0.0410074517130852, 0.0725043714046478, 0.0687336847186089, 0.0361333303153515, 0.00672613875940442,
-0.0426407121121883, -0.0424555540084839, -0.0226625204086304, -0.00884313602000475, 0.0181270353496075, -0.0438848398625851, 0.00725052319467068, 0.0223664473742247, -0.0291914455592632,
-0.0181742571294308, -0.0286533087491989, 0.364257127046585, 0.270431071519852, 0.305917322635651, 0.293498009443283, 0.208898827433586, 0.154202580451965, 0.0725031793117523,
0.07829949259758, 0.0553619526326656, 0.0557950735092163, 0.0139456167817116, -0.0285458751022816, -0.00191392248962075, 0.0688428357243538, 0.165737420320511, 0.0896169021725655,
0.125865757465363, 0.08803591132164, 0.098372682929039, 0.0625653713941574, 0.0432769171893597, 0.0930647328495979, 0.143184989690781, 0.0330808907747269, -0.0959298461675644,
-0.0280615072697401, -0.0542275346815586, -0.0641196519136429, -0.000398191652493551, 0.00172662828117609, -0.0378612391650677, -0.1405990421772, 0.131112411618233, -0.214191943407059,
0.0296192411333323, -0.0120487026870251, 0.244805783033371, 0.256854504346848, 0.256740510463715, 0.072892390191555, -0.111748866736889, -0.549883127212524, -0.380799055099487,
-0.0801285058259964, -0.084257036447525, -0.0792744904756546, -0.0594615191221237 }, {-0.350138485431671, -0.141939043998718, 0.00182125077117234, -0.0313051268458366, 0.0454577021300793,
0.0845565125346184, 0.0242870934307575, 0.0913751274347305, -0.0138250263407826, -0.0586203821003437, -0.04289785400033, -0.00646720128133893, 0.0427953563630581, 0.0608098097145557,
0.0889333114027977, 0.110347226262093, 0.087071530520916, 0.0959300994873047, 0.0418843813240528, 0.117852635681629, 0.0617081709206104, 0.0510819666087627, 0.103729709982872,
0.106933087110519, -0.631687700748444, -0.651754438877106, -0.501250982284546, -0.404633283615112, -0.247784018516541, -0.168879002332687, -0.159914448857307, -0.111978478729725,
-0.0922830775380135, -0.0650241747498512, -0.0377283059060574, -0.0323148295283318, -0.107810400426388, -0.192407533526421, -0.138242915272713, -0.10906945168972, -0.0861135944724083,
-0.0605951845645905, -0.0897691249847412, -0.144404485821724, -0.107806786894798, -0.0412416644394398, -0.104437932372093, -0.004794348962605, -0.344214916229248, -0.174665793776512,
-0.0459648631513119, 0.0516338758170605, 0.0734586119651794, 0.073908843100071, 0.103108793497086, 0.0257164742797613, 0.041336003690958, -0.0495845377445221, 0.0161024257540703,
0.0546402856707573, 0.0928753167390823, 0.147025346755981, 0.0880928933620453, 0.0473000407218933, 0.0349811315536499, 0.0880056247115135, 0.112652182579041, 0.125603407621384,
0.10757552832365, 0.0927450209856033, 0.139352679252625, 0.0880938544869423, -0.664112687110901, -0.645015120506287, -0.552438855171204, -0.366038113832474, -0.253778517246246,
-0.169402152299881, -0.19090224802494, -0.113706387579441, -0.103585973381996, -0.0548944547772408, -0.11735688149929, -0.0188347343355417, -0.148154944181442, -0.152096211910248,
-0.111199446022511, -0.0243098456412554, -0.0534409731626511, -0.119207374751568, -0.136316984891891, -0.119717106223106, -0.112905502319336, -0.0437461845576763, -0.157991364598274,
-0.087398074567318, 0.0769405514001846, 0.127240210771561, 0.134868055582047, 0.0939376801252365, 0.0800203830003738, 0.195833802223206, 0.151584088802338, 0.963291227817535,
0.423000246286392, -0.514269948005676, -0.580245077610016, -0.432270556688309, -0.163150697946548, -0.0552957430481911, 0.0316493287682533, 0.127808481454849, 0.321943491697311,
0.709845006465912, 1.11427748203278, 0.203770309686661, 0.146443098783493, 0.208970099687576, 0.133060961961746 }, {0.389493525028229, 0.209125027060509, 0.0306225623935461,
-0.000367862900020555, -0.0672064796090126, -0.125527143478394, -0.0763158872723579, -0.115204356610775, -0.0364656001329422, 0.0536713562905788, 0.0530217587947845, -0.00452426820993423,
-0.0548218041658401, -0.0248218383640051, -0.0454292818903923, -0.0592573769390583, -0.0617034323513508, -0.0804649740457535, -0.120136983692646, -0.0929041057825089, -0.0339135155081749,
-0.0783761069178581, -0.0882189869880676, -0.0516035631299019, 0.719492733478546, 0.596892297267914, 0.520637035369873, 0.423647314310074, 0.287758201360703, 0.197115257382393,
0.109870292246342, 0.0399970337748528, -0.0251481123268604, -0.0433513261377811, -0.0059205824509263, -0.0287140998989344, 0.0236562415957451, 0.125140607357025, 0.157833993434906,
0.0697289481759071, 0.0573569424450397, 0.157149031758308, 0.198343396186829, 0.16095694899559, 0.0763880610466003, 0.0758059918880463, 0.0914423689246178, 0.0291343629360199,
0.370652377605438, 0.226284861564636, -0.00328053534030914, -0.0170995779335499, -0.110210537910461, -0.110794402658939, -0.114886350929737, -0.0239930041134357, -0.0248472522944212,
0.0831742659211159, 0.0986224859952927, 0.0444516465067863, -0.10528252273798, -0.0491314046084881, -0.0373238399624825, -0.113585352897644, -0.0907435417175293, -0.0555493459105492,
-0.073965772986412, -0.097986988723278, -0.0299975723028183, -0.0445685610175133, -0.10075519233942, 0.00599454203620553, 0.723951041698456, 0.637592375278473, 0.516102731227875,
0.420428931713104, 0.275401204824448, 0.207476332783699, 0.14310610294342, 0.0176534131169319, 0.0395197011530399, -0.0114185893908143, -0.0078985970467329, -0.0374244451522827,
0.0277922991663218, 0.0884287431836128, 0.0944723561406136, 0.0599062442779541, 0.0148456729948521, 0.192202776670456, 0.19502355158329, 0.147575214505196, 0.124503739178181,
0.0510550029575825, 0.138830915093422, 0.0757670328021049, -0.120551154017448, -0.150413006544113, -0.123948641121387, -0.112168982625008, -0.136108696460724, -0.110033765435219,
-0.120757639408112, -0.576056361198425, 0.0477090664207935, -0.153770804405212, 0.176961988210678, 0.0844961106777191, 0.251666456460953, 0.347570985555649, 0.214316844940186,
0.0022736438550055, -0.191504597663879, -0.78062379360199, -0.831307888031006, -0.144149959087372, -0.177124589681625, -0.163555830717087, -0.137443661689758 }, {-0.0276614278554916,
0.0753541886806488, 0.165889516472816, 0.15391905605793, 0.0614109337329865, -0.00495441118255258, -0.00163979188073426, -0.0187299605458975, -0.0519910231232643, -0.00319841667078435,
0.0937751978635788, 0.0947184339165688, 0.143938362598419, 0.214423775672913, 0.162203386425972, 0.117870055139065, 0.0177986603230238, 0.109048061072826, 0.15030737221241,
0.0960782244801521, 0.073752649128437, 0.0460755713284016, 0.144189849495888, 0.0590881407260895, -0.453330993652344, -0.5230832695961, -0.450084835290909, -0.256200075149536,
-0.147917002439499, 0.00944394338876009, -0.0134657584130764, 0.0430542342364788, 0.0160864014178514, 0.00558784604072571, -0.0746294409036636, -0.0743618533015251, -0.17732298374176,
-0.180548682808876, -0.0681619420647621, 0.04150515422225, 0.0382573045790195, -0.0949265956878662, -0.153253212571144, -0.0391738601028919, -0.0670138001441956, 0.0431807897984982,
-0.0149824591353536, -0.0586201325058937, 0.0319062434136868, 0.0824936553835869, 0.0974574014544487, 0.0813407525420189, 0.0700964257121086, 0.0541429556906223, 0.0350349023938179,
-0.0406526438891888, -0.0279238242655993, 0.0337647423148155, 0.0552382692694664, 0.176589146256447, 0.172985538840294, 0.168241158127785, 0.180422142148018, 0.121398411691189,
0.0206561982631683, 0.11004725843668, 0.0632222443819046, 0.0508215539157391, 0.0732697173953056, 0.0435988046228886, 0.0531058572232723, 0.0799077302217484, -0.530215382575989,
-0.53009569644928, -0.456199437379837, -0.280339419841766, -0.107021741569042, -0.0585543997585773, -0.056040346622467, -0.0334544964134693, 0.054224256426096, -0.0465467944741249,
-0.0471260882914066, -0.0679657906293869, -0.172804847359657, -0.106854967772961, -0.0985940992832184, 0.0961814224720001, 0.110930807888508, -0.108828358352184, -0.0994532033801079,
-0.0433420538902283, -0.0982973873615265, -0.0208629369735718, -0.00722143100574613, -0.050923015922308, 0.111605048179626, 0.0950562953948975, 0.121347859501839, 0.0737083405256271,
0.0767883658409119, 0.119672447443008, 0.0785040110349655, 0.774737179279327, 0.455268144607544, -0.406950950622559, -0.289416790008545, -0.24686025083065, 0.0521294213831425,
0.136056408286095, 0.172030076384544, 0.163235291838646, 0.132482841610909, -0.0388612858951092, 0.780695140361786, 0.138425409793854, 0.094825878739357, 0.113474264740944,
0.178359404206276 }, {0.301791250705719, 0.180996105074883, 0.0756119266152382, -0.0110380155965686, -0.0426105819642544, -0.0441180765628815, -0.0885480046272278, -0.059093426913023,
-0.0197185277938843, 0.0649981051683426, 0.11106038838625, 0.0199188143014908, 0.00655451184138656, -0.00276915705762804, 0.00680606020614505, -0.0140368770807981, -0.0152725530788302,
-0.00513772200793028, -0.0268859658390284, -0.116698160767555, 0.0105496607720852, -0.078257218003273, -0.0381677225232124, -0.0452954024076462, 0.468833327293396, 0.386651575565338,
0.378286331892014, 0.321626752614975, 0.197088822722435, 0.115766368806362, 0.128647342324257, 0.0222378876060247, 0.0437013506889343, -0.0277749206870794, -0.00477242190390825,
-0.0471124947071075, 0.0109654814004898, 0.0624554380774498, 0.134666353464127, 0.133250713348389, 0.102673143148422, 0.128622874617577, 0.167081579566002, 0.09871906042099,
0.0777105689048767, 0.0944510847330093, 0.154556065797806, 0.0216809026896954, 0.25567302107811, 0.19299528002739, 0.037325244396925, -0.00754071632400155, -0.0788975954055786,
-0.0639440715312958, -0.00703537091612816, -0.0270611327141523, 0.0322814621031284, 0.010491837747395, 0.117697790265083, 0.0763100981712341, 0.0233616754412651, -0.0775868818163872,
-0.0354530960321426, -0.0657531917095184, -0.0658346712589264, -0.035418976098299, -0.0661225393414497, -0.0422529652714729, -0.0640449449419975, -0.0148497689515352, -0.0532490536570549,
0.0318496748805046, 0.517736315727234, 0.475027412176132, 0.399443119764328, 0.314256012439728, 0.255392253398895, 0.15095242857933, 0.0643240511417389, 0.0686850845813751,
0.0681006237864494, 0.00610406743362546, -0.00879111047834158, 0.00940673239529133, 0.013175331056118, 0.110710799694061, 0.0685704797506332, 0.0453376471996307, 0.0598036646842957,
0.098532423377037, 0.150831803679466, 0.105227090418339, 0.0831616148352623, 0.0978408008813858, 0.109378777444363, 0.0809932351112366, -0.0750116109848022, -0.0808067619800568,
-0.0233539175242186, -0.0509127601981163, -0.0787729173898697, -0.0414105355739594, -0.0772832781076431, -0.271423548460007, 0.0962979048490524, -0.163295492529869, 0.0674450099468231,
-0.0901095569133759, 0.228677824139595, 0.197506263852119, 0.144639953970909, 0.079093337059021, -0.118675731122494, -0.541622042655945, -0.534632802009583, -0.0462669208645821,
-0.0582089498639107, -0.130109801888466, -0.137236252427101 }, {-0.39334973692894, -0.283640116453171, -0.060376800596714, 0.0260815862566233, 0.017060924321413, 0.0715169683098793,
0.145649090409279, 0.0685118138790131, 0.0942987576127052, -0.022597735747695, 0.0217954255640507, -0.0089303394779563, 0.0128509597852826, 0.0746517404913902, 0.0268071927130222,
0.0877728313207626, 0.0550855360925198, 0.0644365251064301, 0.0671732053160667, 0.153928562998772, 0.053218025714159, 0.108696021139622, 0.122078739106655, 0.0271262209862471,
-0.558015584945679, -0.470766544342041, -0.429234385490417, -0.423686146736145, -0.312415957450867, -0.326030045747757, -0.218145623803139, -0.210887432098389, -0.192654713988304,
-0.098745234310627, -0.0734343081712723, -0.0813417360186577, -0.037680733948946, -0.138948917388916, -0.157688662409782, -0.207884043455124, -0.183964759111404, -0.0835526436567307,
-0.154895782470703, -0.0713560357689857, -0.050563421100378, -0.107953026890755, -0.091275192797184, -0.0728526785969734, -0.432526677846909, -0.218558892607689, -0.0759312808513641,
0.030500840395689, 0.0991419926285744, 0.102313742041588, 0.116414859890938, 0.0770687013864517, 0.0310240481048822, 0.0231732707470655, 0.0143173467367887, 0.00621706480160356,
-0.00739312218502164, 0.0640042051672935, 0.0172077417373657, 0.0738165304064751, 0.0488185286521912, 0.0825882256031036, 0.1029017791152, 0.0992960259318352, 0.105874501168728,
0.0975466594099998, 0.106364905834198, 0.1133082062006, -0.569852590560913, -0.489044994115829, -0.474634736776352, -0.35317987203598, -0.318498194217682, -0.287772208452225,
-0.295780271291733, -0.195568233728409, -0.186941742897034, -0.110695660114288, -0.0887974798679352, 0.00232543959282339, -0.0255760252475739, -0.119338698685169, -0.113279588520527,
-0.166337966918945, -0.185943379998207, -0.129508063197136, -0.13377571105957, -0.0665642023086548, -0.0648810192942619, -0.134244292974472, -0.107064865529537, -0.106525413691998,
0.165699571371078, 0.10821545869112, 0.141572684049606, 0.0975766554474831, 0.145761609077454, 0.216830238699913, 0.139036655426025, 0.943396627902985, 0.47524881362915,
-0.357040137052536, -0.610656559467316, -0.49270024895668, -0.254103094339371, -0.0965551808476448, -0.0311173629015684, 0.154420554637909, 0.424232512712479, 1.01142537593842,
1.06401145458221, 0.221920177340508, 0.201245456933975, 0.208895891904831, 0.10471472889185 }, {-0.170528903603554, -0.150459781289101, -0.0889895334839821, -0.0636351108551025,
0.0233752075582743, 0.0500738583505154, 0.0388365127146244, 0.0022494166623801, 0.0323143154382706, 0.0227517802268267, -0.00737707922235131, -0.0149728683754802, -0.0557638853788376,
0.0136167202144861, -0.0491734556853771, 0.025031877681613, 0.0177331883460283, -0.0236302725970745, -0.00932949129492044, 0.0546554364264011, 0.0296571832150221, 0.0238555390387774,
0.0170231610536575, -0.0125721478834748, -0.178576469421387, -0.114006228744984, -0.120724551379681, -0.229582667350769, -0.24407522380352, -0.174349725246429, -0.163638979196548,
-0.148893296718597, -0.181310445070267, -0.121069133281708, -0.160440400242805, -0.108103945851326, -0.101886130869389, -0.10625135153532, -0.16601474583149, -0.184162437915802,
-0.124013721942902, -0.104845024645329, -0.0896871313452721, -0.0480175279080868, -0.103749744594097, -0.0377473086118698, -0.0996192395687103, -0.0362013131380081, -0.192865863442421,
-0.157784387469292, -0.102147497236729, -0.0356835350394249, -0.0141483144834638, 0.00800031144171953, 0.0453529506921768, 0.0378389433026314, -0.0114553458988667, -0.0351066924631596,
-0.0628014802932739, 0.00770549988374114, -0.0736023932695389, -0.0420852489769459, 0.00564557453617454, 0.0394836887717247, 0.0581836737692356, 0.0168586280196905, 0.0477259755134583,
0.0370315872132778, 0.0355801023542881, 0.0485521517693996, 0.0452331528067589, 0.0252692718058825, -0.0849703922867775, -0.117349311709404, -0.176261857151985, -0.210555136203766,
-0.182302728295326, -0.246600523591042, -0.210800305008888, -0.133744984865189, -0.183712020516396, -0.16116663813591, -0.106310583651066, -0.0813527032732964, -0.122880056500435,
-0.108020842075348, -0.14641809463501, -0.128652587532997, -0.120204165577888, -0.0513393059372902, -0.0618039630353451, -0.0885416120290756, -0.0696857869625092, -0.0335387475788593,
-0.0983822867274284, -0.0143286921083927, 0.0125580448657274, 0.0717606991529465, 0.0547373630106449, 0.0977153331041336, 0.0622328855097294, 0.0966518670320511, 0.0121169593185186,
0.495394498109818, 0.319101214408875, -0.277038633823395, -0.399541139602661, -0.343125939369202, -0.0886559337377548, -0.0332272611558437, -0.0115354228764772, 0.0170169062912464,
0.186650082468987, 0.424718797206879, 0.536795794963837, 0.0509691424667835, 0.0543174408376217, 0.109662927687168, 0.0372051857411861 }, {1.05663430690765, 0.64844536781311,
0.248932734131813, 0.2078617811203, 0.0355221182107925, -0.0787239074707031, -0.169089138507843, -0.136897802352905, -0.0943404138088226, -0.0516365580260754, -0.117707125842571,
-0.0958403497934341, -0.1037507802248, -0.115306958556175, -0.0449193790555, -0.0513990893959999, -0.281826108694077, -0.164907515048981, -0.200582087039948, -0.297554433345795,
-0.159125983715057, -0.235913068056107, -0.301570981740952, -0.194859325885773, 1.22796642780304, 1.09168064594269, 0.75274670124054, 0.581073880195618, 0.348292768001556,
0.35828909277916, 0.302738040685654, 0.14093978703022, 0.144405201077461, 0.145701751112938, 0.0877599939703941, -0.0677966549992561, -0.046274408698082, 0.0217244476079941,
0.0659546628594398, -0.00392021285369992, 0.17350272834301, 0.063814252614975, 0.0514013320207596, -0.00128150172531605, -0.0304223243147135, 0.00243664789013565, 0.142317488789558,
-0.0334604941308498, 1.00296890735626, 0.518099188804626, 0.167835012078285, 0.141754329204559, -0.0493915788829327, -0.142797514796257, -0.198613911867142, -0.176977381110191,
-0.106396436691284, -0.160767644643784, -0.0592925995588303, -0.0822177976369858, -0.087556391954422, -0.0774662792682648, -0.0376043505966663, -0.0803949534893036, -0.301796168088913,
-0.196183174848557, -0.317915409803391, -0.278350353240967, -0.277293562889099, -0.264672547578812, -0.197876691818237, -0.157069027423859, 1.27463400363922, 1.15998685359955,
0.737038314342499, 0.543614745140076, 0.450606375932693, 0.423166841268539, 0.36118021607399, 0.222028642892838, 0.131037324666977, 0.177689746022224, 0.128379628062248,
-0.018205551430583, -0.0561118274927139, 0.0287737548351288, 0.0496622994542122, 0.0598104670643806, 0.125909924507141, 0.126198947429657, 0.0743602514266968, 0.0319100245833397,
0.070844441652298, 0.0534272603690624, 0.139242574572563, 0.008886250667274, -0.604267060756683, -0.285589724779129, -0.354289263486862, -0.238064557313919, -0.269085377454758,
0.0342266522347927, -0.301692217588425, -1.71544814109802, -0.256777316331863, 0.884342730045319, 1.38984727859497, 0.894773066043854, 0.343472689390182, 0.0295674614608288,
-0.181536972522736, -0.464481502771378, -0.748073279857635, -2.0205283164978, -2.29616332054138, -0.41567125916481, -0.306731373071671, -0.302901178598404, -0.375434726476669,
}, {0.300498783588409, 0.200466588139534, 0.0827171429991722, 0.0323255732655525, -0.0169681217521429, 0.0500844977796078, -0.000358632474672049, 0.0221674405038357, 0.0647620111703873,
0.0541607216000557, 0.0996250212192535, 0.0836004018783569, 0.0247167777270079, 0.0927081406116486, 0.0248002726584673, 0.0136628281325102, 0.0222990605980158, 0.044110894203186,
0.0784776508808136, 0.0365871228277683, -0.00643916148692369, 0.0442499443888664, -0.0139317009598017, 0.0572751685976982, 0.238962054252625, 0.172280818223953, 0.18400813639164,
0.15392492711544, 0.141467183828354, 0.0830511227250099, 0.0395862609148026, 0.0544438436627388, -0.0251086782664061, -0.0376135893166065, -0.0255273450165987, -0.0321530289947987,
-0.00927069783210754, -0.0125401560217142, 0.0927776694297791, 0.122042745351791, 0.104568667709827, 0.0506583154201508, 0.0630738884210587, 0.0751055628061295, 0.0647484958171844,
0.0920747518539429, 0.126729547977448, 0.120441041886806, 0.311553657054901, 0.233913823962212, 0.0691022276878357, 0.0835135877132416, -0.0141229946166277, 0.00927309039980173,
-0.0235034171491861, -0.00370224937796593, -0.00426786672323942, 0.0877524837851524, 0.163687169551849, 0.116111293435097, 0.0764798447489738, 0.0283366087824106, 0.0125470981001854,
0.0240184050053358, 0.00778168393298984, 0.075854130089283, -0.0225227307528257, -0.0370172820985317, 0.00159364542923868, -0.0118610095232725, 0.0636859238147736, 0.0781102031469345,
0.242287039756775, 0.239777594804764, 0.122918531298637, 0.112294055521488, 0.160468205809593, 0.09455306828022, 0.0185213126242161, 0.0280468631535769, -0.0420465618371964,
0.0283981245011091, -0.0639481022953987, -0.0452993586659431, -0.0351031422615051, -0.0204473529011011, 0.108295530080795, 0.0238060876727104, 0.0723055824637413, 0.114302203059196,
0.046683307737112, 0.0728335157036781, 0.0740991458296776, 0.0969891175627708, 0.104809120297432, 0.131299361586571, -0.072229228913784, -0.0345470830798149, -0.00863137003034353,
0.00973128899931908, -0.0319376327097416, 0.0611610114574432, -0.00410260818898678, -0.10779169946909, 0.246179640293121, -0.277691304683685, 0.0495501831173897, -0.0962680652737617,
0.189573913812637, 0.27087265253067, 0.227858781814575, 0.170576363801956, -0.0111667951568961, -0.337794661521912, -0.273505032062531, -0.0276263449341059, -0.0284002367407084,
-0.0709077045321465, -0.0524931102991104 }, {-0.536677479743958, -0.267283946275711, -0.0203943625092506, -0.0226334314793348, 0.0224623922258615, 0.014252164401114, 0.0695416033267975,
-0.029491113498807, -0.034073855727911, -0.038951501250267, 0.0609524585306644, 0.148300856351852, 0.196771219372749, 0.144316777586937, 0.147250115871429, 0.0926244407892227,
0.081354558467865, 0.137939468026161, 0.166500300168991, 0.253894627094269, 0.144744127988815, 0.213611707091331, 0.136098340153694, 0.137076124548912, -1.21671772003174,
-1.08809638023376, -0.823746085166931, -0.497870177030563, -0.285823196172714, -0.187665030360222, -0.170690715312958, -0.0243395045399666, -0.0319499038159847, 0.0188407693058252,
-0.0318455584347248, -0.0530933737754822, -0.107876934111118, -0.112299539148808, -0.0639968663454056, 0.0126155437901616, -0.0437604933977127, -0.0515051260590553, -0.151968985795975,
-0.028474148362875, -0.0743994265794754, -0.0204626657068729, -0.077984943985939, 0.0413369685411453, -0.591350853443146, -0.268626511096954, 0.0303815733641386, 0.0354691855609417,
0.0923095196485519, 0.0679461434483528, 0.0946167707443237, 0.0254690777510405, -0.00628851540386677, -0.00733469193801284, 0.0560355298221111, 0.0694850385189056, 0.170450091362,
0.188348934054375, 0.119843691587448, 0.0770239681005478, 0.155035227537155, 0.210112735629082, 0.254865229129791, 0.19018679857254, 0.227441653609276, 0.174605965614319,
0.197472959756851, 0.101050615310669, -1.21341395378113, -1.12316048145294, -0.878775298595428, -0.551858127117157, -0.301749050617218, -0.220154255628586, -0.11813909560442,
-0.0621503219008446, -0.0443021804094315, -0.0459468513727188, -0.0380172841250896, -0.0645378828048706, -0.0864582285284996, -0.124418869614601, -0.0270744562149048, 0.0891201868653297,
-0.0689750388264656, -0.0970429852604866, -0.188389331102371, -0.0651904046535492, -0.116305969655514, -0.0239002965390682, -0.112008400261402, -0.0889651626348495, 0.26781153678894,
0.234357997775078, 0.288075506687164, 0.180389955639839, 0.167338088154793, 0.260512471199036, 0.20552359521389, 1.38457310199738, 0.527200162410736, -0.944301903247833,
-0.913169682025909, -0.740186512470245, -0.207732573151588, -0.0131644727662206, 0.267823278903961, 0.334939956665039, 0.452314496040344, 1.00237250328064, 1.72652995586395,
0.250800013542175, 0.252586901187897, 0.253031730651855, 0.254573166370392 }, {0.779747724533081, 0.423738211393356, 0.0450026504695415, -0.0631705299019814, -0.0936738252639771,
-0.0884201899170876, -0.0379803851246834, -0.0726062208414078, 0.0381456911563873, 0.129808723926544, 0.134659737348557, -0.0914998948574066, -0.171456500887871, -0.235216230154037,
-0.131109461188316, -0.116393767297268, -0.108112849295139, -0.148533582687378, -0.198660105466843, -0.291490465402603, -0.150758102536201, -0.129604503512383, -0.15585432946682,
-0.0716171115636826, 1.65858936309814, 1.46669387817383, 1.0594664812088, 0.681204378604889, 0.243198588490486, 0.0478870086371899, 0.0020291821565479, -0.106495812535286,
-0.141693696379662, -0.104336112737656, -0.141504228115082, -0.129289180040359, 0.0483107641339302, 0.0649194419384003, 0.0756117179989815, -0.10480173677206, 0.0321477502584457,
0.0686247572302818, 0.26705414056778, 0.0904622226953506, 0.00451230444014072, -0.00185409816913307, 0.112262651324272, 0.0441328510642052, 0.747041940689087, 0.437415659427643,
0.0354884527623653, -0.0618217773735523, -0.0965613052248955, -0.110112883150578, -0.106802716851234, -0.0641835257411003, 0.0526420176029205, 0.133131071925163, 0.123821929097176,
-0.0352620296180248, -0.187757611274719, -0.236570850014687, -0.143374845385551, -0.0549979694187641, -0.110838659107685, -0.14460477232933, -0.287676095962524, -0.260141134262085,
-0.151102289557457, -0.176984176039696, -0.12720562517643, -0.125719115138054, 1.62675249576569, 1.45085000991821, 1.03543043136597, 0.631521880626678, 0.20550948381424,
0.056849766522646, -0.0627701655030251, -0.117602445185184, -0.115869462490082, -0.111701458692551, -0.084091916680336, -0.0901683866977692, 0.0217912867665291, 0.0908783674240112,
-0.0289438050240278, -0.1724544018507, 0.0371489375829697, 0.181709349155426, 0.261996179819107, 0.088852271437645, 0.126521944999695, 0.116422727704048, 0.22303019464016,
0.0940298512578011, -0.381771951913834, -0.262099593877792, -0.205338031053543, -0.166772961616516, -0.182741492986679, -0.107769675552845, -0.160031825304031, -1.1091423034668,
-0.212290525436401, 0.104596473276615, 0.748148858547211, 0.469769090414047, 0.520819365978241, 0.214477777481079, -0.123214170336723, -0.234502196311951, -0.566860496997833,
-1.34205389022827, -1.53105688095093, -0.329887717962265, -0.249987035989761, -0.410043746232986, -0.274109214544296 }, {-0.575661957263947, -0.295475512742996, -0.048363484442234,
0.00602798908948898, 0.0518449693918228, 0.0115059595555067, 0.0840247198939323, 0.0455918833613396, -0.0811359360814095, -0.0904381424188614, -0.0291276108473539, 0.129355758428574,
0.136597737669945, 0.206563904881477, 0.124833591282368, 0.126927003264427, 0.143963575363159, 0.160616368055344, 0.193275064229965, 0.221425160765648, 0.118530988693237,
0.158195674419403, 0.148137867450714, 0.139169663190842, -1.17444634437561, -1.14847588539124, -0.817519903182983, -0.5077024102211, -0.25872340798378, -0.168759286403656,
-0.111665517091751, 0.00909804552793503, -0.00508070643991232, 0.00731058418750763, 0.00165533530525863, 0.0159596316516399, -0.0977338254451752, -0.13213811814785, -0.110285319387913,
-0.00493934983387589, 0.00582982506603003, -0.0848767533898354, -0.165091067552567, -0.0604051500558853, -0.0556917227804661, -0.029772836714983, -0.101144790649414, -0.0448991060256958,
-0.527707695960999, -0.277197271585464, 0.0486491098999977, 0.063880555331707, 0.0471185892820358, 0.047481756657362, 0.116215668618679, 0.0235683042556047, -0.0667302086949348,
-0.0399549715220928, 0.0124802589416504, 0.141214996576309, 0.218504071235657, 0.235966220498085, 0.153895616531372, 0.0695003569126129, 0.0711565613746643, 0.189853355288506,
0.164041772484779, 0.236003249883652, 0.205045610666275, 0.20362800359726, 0.21410283446312, 0.1065958365798, -1.23384761810303, -1.16821575164795, -0.805081307888031,
-0.576060235500336, -0.212013363838196, -0.171141400933266, -0.141009703278542, -0.0260414183139801, 0.0325978025794029, -0.0593517534434795, -0.0374459289014339, -0.018549794331193,
-0.107785381376743, -0.163549959659576, -0.0422309637069702, 0.0579402521252632, -0.0349102504551411, -0.14767774939537, -0.140205100178719, -0.0795175209641457, -0.0929680466651917,
-0.0244771875441074, -0.168269634246826, -0.054344367235899, 0.20990301668644, 0.21283121407032, 0.242607846856117, 0.196074023842812, 0.170790508389473, 0.226931884884834,
0.178577318787575, 1.3866708278656, 0.522292256355286, -0.885825037956238, -0.904192924499512, -0.687244415283203, -0.268074840307236, 0.0127785112708807, 0.264318376779556,
0.374183565378189, 0.499211817979813, 0.981086850166321, 1.67500042915344, 0.266879290342331, 0.193256124854088, 0.252921730279922, 0.225994780659676 }, {-0.722023546695709,
-0.360533952713013, -0.0746210888028145, -0.0347489751875401, -0.0430883876979351, 0.0954414457082748, 0.125567242503166, 0.0667349845170975, 0.0375577956438065, 0.0415440164506435,
0.0445721633732319, 0.0645401030778885, 0.103502541780472, 0.117549389600754, 0.0873517617583275, 0.0914247259497643, 0.165011897683144, 0.139431208372116, 0.224901437759399,
0.199196010828018, 0.128931432962418, 0.159640043973923, 0.18769383430481, 0.141507133841515, -1.147341132164, -1.03239190578461, -0.800471425056458, -0.465020745992661,
-0.255437284708023, -0.233053401112556, -0.182715654373169, -0.091444231569767, -0.0916509926319122, -0.0750506520271301, -0.083334892988205, -0.00965559016913176, -0.0147424750030041,
-0.0875158756971359, -0.0985898822546005, -0.0142368134111166, -0.104705408215523, -0.0727318152785301, -0.15595355629921, -0.0386760123074055, 0.0255741085857153, -0.00859051384031773,
-0.0654674172401428, 0.0415435060858727, -0.654719293117523, -0.328608304262161, -0.0888663083314896, -0.0139356097206473, 0.0591788254678249, 0.123208083212376, 0.173507750034332,
0.0683180317282677, 0.00702565303072333, 0.0536819733679295, -0.0137774217873812, 0.0663264840841293, 0.122470386326313, 0.108582518994808, 0.112391151487827, 0.0876329988241196,
0.110471919178963, 0.172818407416344, 0.216819658875465, 0.190709099173546, 0.235024079680443, 0.161575332283974, 0.230730414390564, 0.148659318685532, -1.19560837745667,
-1.09660136699677, -0.737878799438477, -0.557664632797241, -0.307414323091507, -0.260887652635574, -0.235340341925621, -0.133780583739281, -0.0440721698105335, -0.101874433457851,
-0.0258577018976212, 0.00891268812119961, -0.0768256410956383, -0.0495429337024689, -0.124963521957397, -0.0109716868028045, -0.0590627864003181, -0.109847359359264, -0.159627452492714,
-0.00025270864716731, -0.0821096375584602, -0.117506675422192, -0.145047798752785, -0.0102420803159475, 0.285783886909485, 0.26295804977417, 0.286576688289642, 0.220067098736763,
0.250831246376038, 0.232445105910301, 0.226582616567612, 1.4421478509903, 0.507330417633057, -0.916544437408447, -1.06386768817902, -0.873444795608521, -0.312232673168182,
-0.0502520427107811, 0.225614488124847, 0.367112219333649, 0.641818881034851, 1.3972841501236, 1.86746919155121, 0.286307036876678, 0.263977468013763, 0.275717854499817,
0.216518625617027 }, {-0.356850266456604, -0.216178998351097, 0.0121724512428045, 0.0589809864759445, 0.046965803951025, 0.0222411509603262, 0.0304414611309767, 0.0169208440929651,
0.0479047223925591, -0.0141361802816391, -0.0511112064123154, 0.0340072996914387, 0.0418360270559788, 0.0976398214697838, 0.0413151942193508, 0.039717148989439, 0.0960071012377739,
0.0471498034894466, 0.042092178016901, 0.161724120378494, 0.0800082087516785, 0.122120879590511, 0.0531484894454479, 0.0809232294559479, -0.558264791965485, -0.599035561084747,
-0.445989817380905, -0.388265252113342, -0.299754589796066, -0.219922930002213, -0.178495541214943, -0.167002603411674, -0.099888913333416, -0.0759382396936417, -0.068966381251812,
-0.0739101618528366, -0.110924355685711, -0.166336789727211, -0.148347064852715, -0.109001241624355, -0.0497077628970146, -0.0707578286528587, -0.077966719865799, -0.143677666783333,
-0.0807163119316101, -0.109946921467781, -0.122138239443302, -0.0305097736418247, -0.305529683828354, -0.159037619829178, 0.0348247475922108, 0.052618108689785, 0.0121000241488218,
0.120034456253052, 0.03529242426157, 0.0146421073004603, -0.0226450674235821, 0.00443566730245948, -0.0526602640748024, 0.0780028700828552, 0.111879117786884, 0.0695105567574501,
0.0379886738955975, 0.0874150320887566, 0.0461767390370369, 0.0420272834599018, 0.0799872502684593, 0.10221928358078, 0.0644662380218506, 0.0409561581909657, 0.116604968905449,
0.0950119197368622, -0.598685026168823, -0.551768839359283, -0.440727740526199, -0.41573828458786, -0.240829765796661, -0.246456369757652, -0.141836404800415, -0.1660325974226,
-0.057323295623064, -0.108456075191498, -0.0525358580052853, -0.0527906380593777, -0.0822819620370865, -0.108282841742039, -0.129356473684311, -0.0864500850439072, -0.0517004616558552,
-0.120107300579548, -0.130731895565987, -0.0654892176389694, -0.133803188800812, -0.0991252958774567, -0.154116958379745, -0.0391883924603462, 0.113071106374264, 0.105463176965714,
0.12882436811924, 0.112243123352528, 0.123138949275017, 0.216240867972374, 0.141461029648781, 0.892298936843872, 0.477859526872635, -0.409594804048538, -0.563193440437317,
-0.398357182741165, -0.191404804587364, -0.0518709979951382, 0.0167521238327026, 0.0873746275901794, 0.247385993599892, 0.642769336700439, 1.06376004219055, 0.240181237459183,
0.150548502802849, 0.242585629224777, 0.117499798536301 }, {-0.457891970872879, -0.251502215862274, -0.0234281811863184, -0.00853180512785912, 0.049158550798893, 0.0603251606225967,
0.103592254221439, 0.0961618348956108, 0.0720820724964142, -0.0274638514965773, -0.010347475297749, 0.035015944391489, 0.120324984192848, 0.0586966350674629, 0.0359072051942348,
0.0370756462216377, 0.135881647467613, 0.107389435172081, 0.161108568310738, 0.116130530834198, 0.0792754516005516, 0.143488317728043, 0.106615178287029, 0.0844486281275749,
-0.772745251655579, -0.681510925292969, -0.593472421169281, -0.450490772724152, -0.254671633243561, -0.269041061401367, -0.209055498242378, -0.107142478227615, -0.13045708835125,
-0.112671583890915, -0.0876900404691696, -0.0640296638011932, -0.100535586476326, -0.110595777630806, -0.158244222402573, -0.108014114201069, -0.0547833442687988, -0.108864307403564,
-0.0975890159606934, -0.060239240527153, -0.0172580108046532, -0.0928999185562134, -0.126861646771431, -0.0459936335682869, -0.452361285686493, -0.231673210859299, -0.0668448582291603,
0.050888255238533, 0.0708776637911797, 0.101175479590893, 0.143171802163124, 0.03594920784235, 0.0718581452965736, -0.0332516022026539, -0.0036854175850749, 0.0131877604871988,
0.0533669926226139, 0.133865743875504, 0.0927377194166183, 0.115626268088818, 0.124065957963467, 0.11905575543642, 0.164330646395683, 0.141878873109818, 0.099597804248333,
0.0936279147863388, 0.12243827432394, 0.076769657433033, -0.71741646528244, -0.748524487018585, -0.540121912956238, -0.397882163524628, -0.344061702489853, -0.282412946224213,
-0.22982631623745, -0.158366978168488, -0.104576654732227, -0.0421477966010571, -0.0714753493666649, 0.0053316755220294, -0.102735266089439, -0.127788305282593, -0.123562723398209,
-0.0989281833171844, -0.135571375489235, -0.171077817678452, -0.120118044316769, -0.0819277539849281, -0.123371824622154, -0.112447999417782, -0.152773544192314, -0.0179230608046055,
0.146669015288353, 0.120481230318546, 0.172329381108284, 0.166310235857964, 0.150569707155228, 0.236293464899063, 0.125891104340553, 1.11064052581787, 0.521523892879486,
-0.500364542007446, -0.704180538654327, -0.53794652223587, -0.286260426044464, -0.0540292635560036, 0.0281413290649652, 0.183735355734825, 0.399771630764008, 1.02252399921417,
1.32352066040039, 0.258186340332031, 0.147522762417793, 0.282920122146606, 0.182046577334404 }, {-0.612872362136841, -0.368887066841125, -0.116752937436104, -0.0772546827793121,
0.0315628461539745, 0.054261963814497, 0.163123100996017, 0.0560314320027828, 0.023574685677886, -0.0217548161745071, 0.0237065013498068, 0.0545532740652561, 0.103517554700375,
0.0720109343528748, 0.0649311617016792, 0.042778454720974, 0.14621265232563, 0.11207190901041, 0.165131732821465, 0.188202247023582, 0.107303112745285, 0.15322981774807,
0.112416967749596, 0.0933172255754471, -0.90137392282486, -0.864528715610504, -0.58845579624176, -0.437729686498642, -0.325329631567001, -0.278597056865692, -0.266445726156235,
-0.160671964287758, -0.062699168920517, -0.124801054596901, -0.0408219322562218, -0.00437149405479431, -0.0972002893686295, -0.126153469085693, -0.15377376973629, -0.0590696930885315,
-0.133387461304665, -0.047207910567522, -0.0891970470547676, -0.0605597570538521, -0.028912078589201, -0.0116738770157099, -0.113100796937943, 0.0174291674047709, -0.586455106735229,
-0.357929170131683, -0.0187288615852594, 0.00607301620766521, 0.0345810428261757, 0.103757858276367, 0.103319831192493, 0.14033055305481, 0.0953660979866982, -0.0132306395098567,
0.0157113932073116, -0.00126000982709229, 0.108522519469261, 0.0625515803694725, 0.105150334537029, 0.101477950811386, 0.163695052266121, 0.135199636220932, 0.178986236453056,
0.188020706176758, 0.194662570953369, 0.195180088281631, 0.189060539007187, 0.138947248458862, -0.880430579185486, -0.804103136062622, -0.64935702085495, -0.505258738994598,
-0.372000157833099, -0.280139684677124, -0.189070850610733, -0.122912548482418, -0.113460928201675, -0.0503629595041275, -0.0502968542277813, -0.0155695779249072, -0.0172528401017189,
-0.0869075730443001, -0.138941794633865, -0.116057932376862, -0.103927806019783, -0.0911062881350517, -0.123125799000263, -0.029359258711338, -0.128066658973694, -0.0929559022188187,
-0.144729644060135, -0.0550814419984818, 0.202055379748344, 0.172707751393318, 0.226921945810318, 0.169311478734016, 0.196262076497078, 0.278150826692581, 0.186288371682167,
1.27428328990936, 0.524153172969818, -0.704805076122284, -0.842130959033966, -0.695237457752228, -0.335798650979996, -0.0963942930102348, 0.0890835747122765, 0.23923259973526,
0.499499350786209, 1.21935498714447, 1.54808723926544, 0.297969847917557, 0.252948254346848, 0.261556535959244, 0.261656194925308 }, {0.00620202720165253, -0.0606244504451752,
-0.0581987649202347, -0.0690936595201492, -0.114724323153496, -0.0584185868501663, -0.125540539622307, -0.0999182239174843, -0.101167000830173, -0.0764315575361252, -0.0152639904990792,
-0.0670054703950882, -0.0334161072969437, -0.090626060962677, -0.0793211460113525, -0.0512089878320694, -0.0381135046482086, -0.0405835174024105, -0.060332890599966, -0.0744516476988792,
-0.0929280817508698, -0.0412591248750687, -0.034674409776926, -0.0468539223074913, 0.0225890949368477, -0.00349076231941581, -0.024589829146862, -0.0560774654150009, -0.052220668643713,
-0.0436350218951702, -0.114146761596203, -0.0890111476182938, -0.0923211425542831, -0.148549392819405, -0.113756492733955, -0.121990941464901, -0.12240231782198, -0.0542988963425159,
-0.0194565746933222, -0.108420796692371, -0.129517659544945, -0.0655715018510818, -0.0139123210683465, -0.0918282866477966, -0.108175799250603, -0.05797179043293, -0.0819319039583206,
-0.0111755970865488, 0.020089952275157, -0.0726498365402222, -0.093350850045681, -0.113726995885372, -0.0730996876955032, -0.0832591652870178, -0.0352811403572559, -0.0994199737906456,
-0.0453747995197773, -0.0280253235250711, -0.000127327861264348, -0.0195711739361286, -0.0342836230993271, -0.133629485964775, -0.0759668052196503, -0.135593190789223, -0.0630115121603012,
-0.107104144990444, -0.110166691243649, -0.116846434772015, -0.11570230871439, -0.102600134909153, -0.054576113820076, -0.0371570028364658, 0.0673064738512039, 0.00290100648999214,
0.00737919611856341, -0.0200718082487583, 0.00379689736291766, -0.0120880110189319, -0.058038491755724, -0.0606645718216896, -0.130385190248489, -0.0957661867141724, -0.147484004497528,
-0.097306065261364, -0.0873332917690277, -0.0954636335372925, -0.0992132276296616, -0.0522016175091267, -0.0631190910935402, -0.0974649488925934, -0.0208230465650558, -0.0254313703626394,
-0.0401922315359116, -0.0927490666508675, -0.0155899273231626, -0.0331307351589203, -0.109946720302105, -0.0245189052075148, -0.0795406475663185, -0.0546808801591396, -0.0293142460286617,
0.00963148195296526, -0.0297358836978674, 0.0114717083051801, 0.116886384785175, -0.272036910057068, -0.1722422093153, -0.215366527438164, -0.0310930535197258, 0.0397850163280964,
-0.0326582007110119, -0.0061546852812171, -0.0294842980802059, -0.125472173094749, -0.064350500702858, -0.0976019129157066, -0.103353507816792, -0.0964913442730904, -0.114642821252346,
}, {-0.173515036702156, -0.0797779187560081, -0.00330273038707674, -0.0283405277878046, 0.0320213288068771, 0.0379316247999668, 0.0781360790133476, -0.00832794141024351, -0.0427645444869995,
0.0143364882096648, 0.00592115335166454, 0.0291617922484875, 0.0711004137992859, 0.0743763521313667, 0.0343069769442081, 0.0762587115168571, 0.00274372473359108, 0.0742044076323509,
0.0863325372338295, 0.0768714472651482, -0.00372238433919847, 0.0220340564846992, 0.0574642457067966, 0.0499980859458447, -0.30367773771286, -0.355558186769485, -0.363736033439636,
-0.32724317908287, -0.24578195810318, -0.205915555357933, -0.142448112368584, -0.114467158913612, -0.166427478194237, -0.139888867735863, -0.103790931403637, -0.0678921937942505,
-0.1258724629879, -0.163220927119255, -0.0970209464430809, -0.0618315823376179, -0.0914525017142296, -0.103749968111515, -0.0946105122566223, -0.131848841905594, -0.0404954813420773,
-0.102380938827991, -0.092075027525425, -0.0496103875339031, -0.141877636313438, -0.0435644686222076, 0.0188978854566813, -0.00969222281128168, 0.0404532104730606, 0.0788242667913437,
0.0232008676975965, 0.0555997155606747, 0.00122438464313745, -0.0343221984803677, -0.0114683639258146, 0.0258053727447987, 0.0638900548219681, 0.0384846217930317, 0.00192935310769826,
0.0106574790552258, 0.0468190424144268, 0.0325689017772675, 0.00837545841932297, 0.0431980714201927, 0.0595075935125351, 0.0178603008389473, 0.00456647528335452, 0.0257661789655685,
-0.332920551300049, -0.366728812456131, -0.288703590631485, -0.275751054286957, -0.241200909018517, -0.200447425246239, -0.147759139537811, -0.112953051924706, -0.111435607075691,
-0.149839952588081, -0.0806109607219696, -0.0827652737498283, -0.170202851295471, -0.177354216575623, -0.141545698046684, -0.122236810624599, -0.088205099105835, -0.135125085711479,
-0.122784696519375, -0.0852753221988678, -0.125332102179527, -0.0815674215555191, -0.103100672364235, -0.01744126342237, 0.0819470584392548, 0.0416196510195732, 0.0452368780970573,
0.0867573469877243, 0.114703565835953, 0.126151561737061, 0.0868907272815704, 0.626604795455933, 0.331437170505524, -0.316371858119965, -0.392683625221252, -0.287699997425079,
-0.138921290636063, -0.0440738685429096, 0.0611439719796181, 0.0217402260750532, 0.146618857979774, 0.411342620849609, 0.669165253639221, 0.138979777693748, 0.0412365049123764,
0.0996086299419403, 0.0229806732386351 }, {-0.136065661907196, -0.0290656760334969, 0.0478369109332561, 0.0657012611627579, 0.0381741710007191, -0.00054166279733181, 0.0557270348072052,
-0.0137686571106315, -0.0445775538682938, 0.0244758948683739, 0.0492836870253086, 0.0213567670434713, 0.0855031907558441, 0.0677169412374496, 0.0659402161836624, 0.0234268307685852,
0.0195024888962507, 0.0223525688052177, 0.0535756088793278, 0.0362800769507885, 0.068032294511795, 0.0254546403884888, 0.0256393626332283, 0.10323216766119, -0.442066758871078,
-0.455394268035889, -0.451676398515701, -0.3482985496521, -0.211320549249649, -0.12050673365593, -0.176258072257042, -0.140534535050392, -0.100254863500595, -0.125295415520668,
-0.0445593371987343, -0.048974696546793, -0.162455126643181, -0.123152308166027, -0.107902124524117, -0.07220059633255, -0.0844080001115799, -0.0656288787722588, -0.0910903587937355,
-0.100769802927971, -0.0366676561534405, -0.0349761769175529, -0.0472665876150131, -0.0657783076167107, -0.144715532660484, -0.0812980160117149, 0.0154067752882838, 0.0694318264722824,
0.0698393508791924, 0.0453618913888931, -0.00305015593767166, -0.00486659212037921, -0.051399651914835, -0.0439505688846111, 0.000357765355147421, 0.00819516833871603, 0.0909173861145973,
0.0987571999430656, 0.0638376846909523, 0.114126771688461, 0.0119355171918869, 0.0486678704619408, 0.0855542197823524, 0.030046509578824, 0.0609382949769497, 0.0485260486602783,
0.0400774888694286, 0.0268995650112629, -0.411385595798492, -0.444784253835678, -0.453385263681412, -0.356464833021164, -0.167113751173019, -0.125852674245834, -0.0868341848254204,
-0.0777914896607399, -0.0712395086884499, -0.0393139123916626, -0.0394431985914707, -0.108296804130077, -0.111846461892128, -0.163128405809402, -0.1120765209198, -0.100791931152344,
-0.0271478183567524, -0.0620172768831253, -0.139179021120071, -0.0956404581665993, -0.0781202018260956, -0.109257377684116, -0.123333483934402, -0.101357527077198, 0.022810148075223,
0.0680970624089241, 0.0760696604847908, 0.0601710043847561, 0.0920680090785027, 0.162706047296524, 0.0990427955985069, 0.728969991207123, 0.389581739902496, -0.444129943847656,
-0.401524007320404, -0.347667515277863, -0.12934248149395, 0.000692774541676044, 0.067030094563961, 0.132242918014526, 0.163004130125046, 0.354678094387054, 0.807292401790619,
0.18877238035202, 0.130057543516159, 0.173193693161011, 0.143988043069839 }, {0.124908588826656, -0.0103822089731693, -0.133269488811493, -0.140888974070549, -0.136892527341843,
-0.0580022260546684, -0.0529475212097168, 0.0547422431409359, 0.0201030913740396, 0.0317348055541515, -0.0335455313324928, -0.0868705213069916, -0.157201021909714, -0.193649128079414,
-0.167141929268837, -0.15053091943264, -0.0649076998233795, -0.102544970810413, -0.122637212276459, -0.123318962752819, -0.0687395334243774, -0.075884185731411, -0.0756750628352165,
-0.0737357810139656, 0.784105360507965, 0.754826068878174, 0.644665837287903, 0.413881570100784, 0.109147801995277, 0.00496989628300071, -0.057182252407074, -0.170724421739578,
-0.105103045701981, -0.0913922339677811, -0.11791405081749, 0.0245122145861387, 0.0779326632618904, 0.046170312911272, 0.078639842569828, -0.053277276456356, -0.159423261880875,
0.0589510872960091, 0.173999130725861, 0.0310053806751966, 0.0898958072066307, -0.0506825409829617, 0.124929137527943, 0.0373294092714787, 0.150017917156219, -0.0468662157654762,
-0.133646309375763, -0.186630308628082, -0.135512918233871, -0.0930343791842461, -0.0764304026961327, -0.0239924844354391, 0.0520708523690701, 0.0122248018160462, 0.0614241026341915,
-0.152144491672516, -0.172181084752083, -0.257272362709045, -0.159997522830963, -0.108135379850864, -0.0347132980823517, -0.132574781775475, -0.118403561413288, -0.0954284518957138,
-0.125699609518051, -0.0391294844448566, -0.124788030982018, -0.108360663056374, 0.8060702085495, 0.782189011573792, 0.58808571100235, 0.406457811594009, 0.165154978632927,
-0.0333453342318535, -0.0922408550977707, -0.0960313677787781, -0.119893044233322, -0.143373250961304, -0.046018298715353, 0.0158897619694471, 0.0587751865386963, 0.110001981258392,
0.0290359687060118, -0.121106512844563, -0.0694259405136108, 0.138265877962112, 0.180674538016319, 0.0122352205216885, 0.087941087782383, -0.0190560910850763, 0.139274179935455,
0.0215025115758181, -0.150830909609795, -0.134882181882858, -0.160952791571617, -0.0484499335289001, -0.129923179745674, -0.0433550179004669, -0.116260588169098, -0.598250448703766,
-0.0546539574861526, -0.105039462447166, -0.0522401109337807, -0.169528260827065, 0.0997200459241867, 0.114104531705379, 0.00606890814378858, -0.00725650787353516, -0.0157218314707279,
-0.0179884135723114, -0.809024274349213, -0.139373779296875, -0.137555629014969, -0.125508651137352, -0.135680183768272 }, {0.265721499919891, 0.137085273861885, -0.0490519218146801,
-0.0680672824382782, -0.108991071581841, -0.106880217790604, -0.0839349329471588, -0.0559326969087124, -0.0110403448343277, 0.0318156369030476, 0.0544415488839149, -0.000699387164786458,
-0.180728450417519, -0.163395956158638, -0.154017060995102, -0.122094266116619, -0.013609554618597, -0.132339715957642, -0.125520899891853, -0.166593179106712, -0.125054135918617,
-0.0882619470357895, -0.110127672553062, -0.0498801544308662, 0.917654931545258, 0.880854666233063, 0.67575991153717, 0.469066619873047, 0.273741185665131, 0.127371847629547,
0.0667505487799644, 0.0104529419913888, -0.0684564858675003, -0.0949853882193565, -0.054875910282135, -0.0133489752188325, 0.101965524256229, 0.164702981710434, 0.121549338102341,
-0.0358626656234264, -0.0199972279369831, 0.149259552359581, 0.149683624505997, 0.0881205722689629, 0.0669552311301231, 0.0265232026576996, 0.140088886022568, 0.0481102354824543,
0.24584724009037, 0.117903679609299, -0.0613050051033497, -0.0988665074110031, -0.153263568878174, -0.0937793031334877, -0.0623235628008842, -0.021549167111516, 0.0483620502054691,
0.10475604981184, 0.0485656522214413, 0.00399437360465527, -0.168465495109558, -0.159018784761429, -0.107256203889847, -0.0929278880357742, -0.0634926855564117, -0.153387144207954,
-0.107164919376373, -0.0904980674386024, -0.140607222914696, -0.0486699156463146, -0.131187498569489, -0.0430383682250977, 0.894975006580353, 0.808480560779572, 0.678397953510284,
0.477136611938477, 0.262844651937485, 0.152272403240204, 0.0548197478055954, -0.0385457277297974, -0.109648503363132, -0.0740770101547241, -0.0704936534166336, -0.00738674215972424,
0.078339971601963, 0.117042273283005, 0.126855581998825, -0.0256065987050533, -0.0269374307245016, 0.125856265425682, 0.139501258730888, 0.120749555528164, 0.138267531991005,
0.0837151706218719, 0.187869533896446, 0.130828142166138, -0.168417975306511, -0.0800895318388939, -0.0894042178988457, -0.0791041180491447, -0.0973501428961754, -0.0718520656228065,
-0.157334998250008, -0.560834884643555, 0.00069475220516324, -0.113428696990013, -0.033356349915266, -0.107152089476585, 0.229856505990028, 0.245355919003487, 0.0889397040009499,
0.0298409257084131, -0.163658425211906, -0.509387612342834, -0.905473589897156, -0.164129868149757, -0.175616219639778, -0.189479067921638, -0.219264999032021 }, {-0.130691558122635,
0.0385228730738163, 0.159581944346428, 0.113045826554298, 0.0443961061537266, 0.0647553503513336, 0.0237603951245546, -0.0104417335242033, -0.0655076950788498, -0.034905768930912,
0.0152833741158247, 0.220745474100113, 0.255489617586136, 0.263908863067627, 0.23851777613163, 0.150670230388641, 0.0406333208084106, 0.183749735355377, 0.137275651097298,
0.194050326943398, 0.152826577425003, 0.112415134906769, 0.114261269569397, 0.136827006936073, -0.98137229681015, -0.979426681995392, -0.801368951797485, -0.451498657464981,
-0.0836681351065636, -0.0301283299922943, -0.0200643446296453, 0.0417401343584061, 0.0523987412452698, 0.0587346740067005, -0.0016525702085346, -0.0710878148674965, -0.195588305592537,
-0.22302058339119, -0.087680272758007, 0.121938660740852, 0.145144909620285, -0.111368022859097, -0.188800528645515, -0.0465250834822655, -0.0830039530992508, -0.00125734077300876,
-0.0437671840190887, 0.0012974051060155, -0.0868735164403915, -0.00942866690456867, 0.173790082335472, 0.179251208901405, 0.10086215287447, 0.0162373967468739, -0.0423181317746639,
-0.056004237383604, -0.11738795042038, -0.0221710558980703, 0.0812297835946083, 0.154597043991089, 0.291569650173187, 0.291852474212646, 0.237567067146301, 0.112634733319283,
-0.0075774434953928, 0.187723129987717, 0.133586972951889, 0.157769337296486, 0.113670997321606, 0.0794219076633453, 0.172094076871872, 0.156191721558571, -0.902471840381622,
-1.03023338317871, -0.7531698346138, -0.435943216085434, -0.151797607541084, -0.0043234252370894, -0.000600601022597402, 0.0135857472196221, 0.101723521947861, 0.0136981830000877,
-0.0157811678946018, -0.111233249306679, -0.175772666931152, -0.20576636493206, -0.0993393212556839, 0.163699835538864, 0.116706170141697, -0.0953781679272652, -0.184647381305695,
-0.0272235106676817, -0.135159119963646, -0.0296119190752506, -0.0504442676901817, -0.0550715290009975, 0.141615942120552, 0.153377130627632, 0.147188127040863, 0.116207852959633,
0.169769749045372, 0.145305827260017, 0.125553160905838, 1.04165041446686, 0.510981917381287, -0.621965944766998, -0.368073314428329, -0.314852148294449, -0.0359174571931362,
0.107538595795631, 0.185027435421944, 0.191882833838463, 0.150046586990356, 0.0386340208351612, 1.211470246315, 0.172373130917549, 0.18174435198307, 0.172295406460762,
0.14124658703804 }, {-0.549007058143616, -0.328503161668777, -0.040692925453186, 0.0173101667314768, 0.0407065786421299, 0.012702782638371, 0.0172375049442053, -0.00422811601310968,
-0.0116214537993073, -0.0471009165048599, 0.0585116483271122, 0.142831489443779, 0.119329571723938, 0.165099322795868, 0.0900420621037483, 0.114351704716682, 0.0828467458486557,
0.150741025805473, 0.186286494135857, 0.198239088058472, 0.162228390574455, 0.14057731628418, 0.186974465847015, 0.13239212334156, -1.26124584674835, -1.17614495754242,
-0.824185252189636, -0.551855683326721, -0.199351713061333, -0.152055442333221, -0.116337604820728, 0.00945426616817713, 0.00181982759386301, 0.0123017616569996, -0.0252629909664392,
0.0176525060087442, -0.0942595154047012, -0.132689401507378, -0.0949092209339142, 0.060296755284071, 0.0177032109349966, -0.106614731252193, -0.158773571252823, -0.0535942241549492,
-0.0754818096756935, 0.0476154796779156, -0.089195691049099, -0.0159556567668915, -0.534805595874786, -0.308265209197998, 0.0451094508171082, -0.0053590671159327, 0.0321897231042385,
0.0437536463141441, 0.0391114577651024, -0.00426851632073522, -0.00771520845592022, -0.0735609382390976, 0.0232770126312971, 0.0795285478234291, 0.150196209549904, 0.225597843527794,
0.179095342755318, 0.114252015948296, 0.153057262301445, 0.176912873983383, 0.22125805914402, 0.223426803946495, 0.234538599848747, 0.170243307948112, 0.220692902803421,
0.11167749017477, -1.24073719978333, -1.16510236263275, -0.907219290733337, -0.579568445682526, -0.228648096323013, -0.230762138962746, -0.144474402070045, -0.0540204644203186,
0.00677255634218454, -0.0440817289054394, -0.00496862595900893, -0.00468473322689533, -0.0806188061833382, -0.101982548832893, -0.0403125509619713, 0.0871618464589119, -0.00776622118428349,
-0.162673398852348, -0.148829683661461, -0.0484259426593781, -0.121591836214066, -0.0960250869393349, -0.104994915425777, -0.0464096702635288, 0.250924497842789, 0.210724428296089,
0.242972731590271, 0.186249271035194, 0.228004112839699, 0.205866351723671, 0.243169337511063, 1.46253287792206, 0.557509064674377, -0.979303121566772, -0.944561958312988,
-0.794142603874207, -0.218715444207191, 0.0287944488227367, 0.296950250864029, 0.381180256605148, 0.514770030975342, 1.05038964748383, 1.83615839481354, 0.311416476964951,
0.217757448554039, 0.319301158189774, 0.209025427699089 }, {-0.271009057760239, -0.12678474187851, 0.0494315586984158, 0.0971734449267387, 0.0500242710113525, 0.0490788482129574,
0.0133884157985449, -0.0217847768217325, -0.00620611431077123, 0.0102988490834832, 0.0561688765883446, 0.0745304152369499, 0.0990944430232048, 0.130621090531349, 0.109813757240772,
0.129341885447502, 0.000944040599279106, 0.0994101092219353, 0.116516530513763, 0.160495683550835, 0.118375897407532, 0.117905087769032, 0.0908785611391068, 0.1371069252491,
-0.729632258415222, -0.748172521591187, -0.543659269809723, -0.429844319820404, -0.219712749123573, -0.101130932569504, -0.0903532281517982, -0.0544095784425735, -0.0160665139555931,
-0.0515163727104664, -0.0800436213612556, -0.12066487967968, -0.143996506929398, -0.111711829900742, -0.103676237165928, -0.0279616210609674, 0.00945856049656868, -0.114446103572845,
-0.0995139330625534, -0.129288852214813, -0.0576231516897678, -0.0676920190453529, -0.0914459154009819, -0.0213697925209999, -0.215009406208992, -0.0954340025782585, 0.0338022001087666,
0.0669471397995949, 0.107171095907688, 0.108922205865383, 0.0527519658207893, 0.0468100495636463, -0.0473741367459297, 0.00848657730966806, 0.0133580518886447, 0.0738999024033546,
0.194988250732422, 0.140999510884285, 0.116382420063019, 0.109645463526249, 0.0160852763801813, 0.0891696512699127, 0.169862553477287, 0.104606419801712, 0.163932248950005,
0.0684930235147476, 0.154685467481613, 0.070693276822567, -0.660923600196838, -0.71262264251709, -0.589743793010712, -0.375695616006851, -0.216560080647469, -0.0980656445026398,
-0.0526183471083641, -0.023157550022006, -0.0196242351084948, -0.0765485465526581, -0.0864219889044762, -0.118013642728329, -0.136895999312401, -0.141138717532158, -0.127115562558174,
-0.0261854771524668, 0.0133715979754925, -0.102336697280407, -0.123270072042942, -0.0833378583192825, -0.126544535160065, -0.0244324617087841, -0.11684712022543, -0.0410012677311897,
0.116423018276691, 0.119203545153141, 0.178102314472198, 0.123202703893185, 0.102168016135693, 0.164393901824951, 0.170913994312286, 1.01777970790863, 0.49267989397049,
-0.519034206867218, -0.467554181814194, -0.384744077920914, -0.10298765450716, 0.0229691471904516, 0.11010280251503, 0.127634853124619, 0.246515765786171, 0.325860053300858,
1.1180921792984, 0.143656998872757, 0.107140637934208, 0.135286211967468, 0.104694150388241 }, {-0.0140256695449352, 0.095863401889801, 0.109585411846638, 0.119175285100937,
0.052816454321146, -0.00330270384438336, 0.0231549460440874, 0.0159309506416321, -0.0575935877859592, -0.0170253477990627, 0.0846690833568573, 0.151837840676308, 0.173088014125824,
0.0841110050678253, 0.13115020096302, 0.111554011702538, -0.000887284113559872, 0.0526656620204449, 0.0567358247935772, 0.0524651035666466, 0.0612300522625446, 0.0405982844531536,
0.13151578605175, 0.0386597141623497, -0.355780988931656, -0.385771602392197, -0.288967609405518, -0.204835340380669, -0.0799252092838287, -0.0275180488824844, -0.0439444147050381,
-0.0521011240780354, 0.00902812089771032, -0.0677189603447914, -0.0868618115782738, -0.109740026295185, -0.14160081744194, -0.124169729650021, -0.0578207075595856, -0.0140320528298616,
0.0602617003023624, -0.0436008684337139, -0.109369978308678, -0.00387663044966757, -0.00253143184818327, -0.0288295727223158, -0.0221949052065611, -0.0288306120783091, -0.0226268209517002,
0.0755476132035255, 0.0767562091350555, 0.0525768436491489, 0.0169679280370474, 0.0579547137022018, 0.0147684924304485, 0.00389623455703259, -0.0157547276467085, 0.000996785121969879,
0.0719296932220459, 0.113017782568932, 0.136547327041626, 0.0887830853462219, 0.137313276529312, 0.0827528536319733, 0.0440382994711399, 0.0717598125338554, 0.0553377009928226,
0.11062765866518, 0.101517103612423, 0.0619842000305653, 0.0428440943360329, 0.0872094854712486, -0.300603419542313, -0.34906268119812, -0.342525780200958, -0.240996509790421,
-0.0649493932723999, 0.000314036849886179, -0.000949494948145002, 0.0211354400962591, -0.0245741624385118, -0.0215455889701843, -0.0922761037945747, -0.123837873339653, -0.0712179690599442,
-0.137318983674049, -0.0690087974071503, 0.0194848906248808, 0.012322430498898, -0.0195561926811934, -0.0919617563486099, -0.0593782253563404, -0.0528681501746178, -0.00649756100028753,
0.00130845000967383, 0.00342632061801851, 0.0812334641814232, 0.0908309444785118, 0.118184320628643, 0.0855484083294868, 0.0509741492569447, 0.191774129867554, 0.119210921227932,
0.676761150360107, 0.396478205919266, -0.428488165140152, -0.225310027599335, -0.247253924608231, 0.0700556859374046, 0.116378270089626, 0.124956585466862, 0.133429616689682,
0.0605103336274624, 0.00943214073777199, 0.659258842468262, 0.119796000421047, 0.131815627217293, 0.135737538337708, 0.14395672082901 }, {-0.83044695854187, -0.490123331546783,
-0.132043406367302, -0.15654131770134, -0.0145380906760693, 0.109768874943256, 0.101194575428963, 0.0696498826146126, 0.0116009349003434, 0.0124773811548948, 0.0801822766661644,
0.0833639204502106, 0.110200218856335, 0.152469471096992, 0.0882013365626335, 0.0828908085823059, 0.155825793743134, 0.231370002031326, 0.261609703302383, 0.2380490899086,
0.226407796144485, 0.198438420891762, 0.222124576568604, 0.217041015625, -1.30453395843506, -1.18259871006012, -0.783311426639557, -0.514874696731567, -0.31997087597847,
-0.310751706361771, -0.277268201112747, -0.0793396756052971, -0.0879122614860535, -0.119672045111656, -0.0532607957720757, -0.0107458708807826, -0.0126851461827755, -0.0309311840683222,
-0.00983629003167152, -0.000692291418090463, -0.0768829882144928, -0.026322066783905, -0.152793988585472, -0.0791744813323021, 0.0399923473596573, 0.0367963500320911, -0.104518048465252,
0.0732237100601196, -0.832534909248352, -0.397218108177185, -0.0690118372440338, -0.0441577322781086, 0.0520477257668972, 0.102187812328339, 0.135845988988876, 0.14019750058651,
0.0412341505289078, 0.0452693849802017, 0.0874989703297615, 0.0575355663895607, 0.148725926876068, 0.128811091184616, 0.132539287209511, 0.115815550088882, 0.189859852194786,
0.203200444579124, 0.227547332644463, 0.277622222900391, 0.170185178518295, 0.234868556261063, 0.240758180618286, 0.162180811166763, -1.2463446855545, -1.15993201732635,
-0.81089198589325, -0.605184555053711, -0.383617997169495, -0.366258531808853, -0.287041932344437, -0.171619042754173, -0.0821971520781517, -0.107417650520802, -0.126730516552925,
0.0342467427253723, 0.00659004971385002, -0.0867902413010597, -0.114276602864265, -0.0255155432969332, -0.0827435106039047, -0.0980524197220802, -0.0946969091892242, -0.0408946722745895,
-0.0810929164290428, -0.0308381989598274, -0.132759779691696, -0.0723299458622932, 0.307785302400589, 0.21529521048069, 0.315057545900345, 0.233070209622383, 0.247359678149223,
0.261911243200302, 0.291205793619156, 1.60193860530853, 0.527361512184143, -1.21954834461212, -1.15521347522736, -1.0154629945755, -0.375835448503494, -0.0156528484076262,
0.244595721364021, 0.521947145462036, 0.766000509262085, 1.66285002231598, 2.09922432899475, 0.317487150430679, 0.25219002366066, 0.302002876996994, 0.339567631483078,
}, {0.179078832268715, 0.137289628386497, 0.0389194563031197, -0.044148962944746, -0.0353921465575695, -0.0626537948846817, 0.00887636747211218, 0.0152794225141406, 0.011174850165844,
0.0597790032625198, 0.0688690915703773, -0.00076406542211771, -0.0143254324793816, -0.0117080137133598, -0.0142647568136454, -0.0409716628491879, 0.0197309926152229, 0.017139008268714,
-0.0261047538369894, -0.0500185526907444, 0.0306996796280146, -0.0408372431993484, -0.0621727481484413, 0.0253701861947775, 0.387864023447037, 0.397066503763199, 0.303166121244431,
0.258645325899124, 0.0918136611580849, 0.0123412646353245, -0.0394875667989254, 0.0154051333665848, -0.00264554261229932, -0.0364591218531132, -0.0482839345932007, -0.0337339080870152,
0.00728797912597656, 0.00766692310571671, 0.0926363989710808, -0.0123442159965634, -0.0353680141270161, 0.0922598168253899, 0.113083012402058, 0.120508186519146, 0.07215266674757,
0.0343246795237064, 0.137746199965477, 0.0213643722236156, 0.239207878708839, 0.120744861662388, 0.0306297950446606, -0.03732780367136, -0.0913641154766083, -0.0736914202570915,
0.00493577914312482, -0.028388075530529, 0.0836361944675446, 0.107974797487259, 0.0627991110086441, -0.0117092691361904, -0.0458600223064423, -0.0620375014841557, -0.0152544220909476,
-0.033366996794939, -0.00957134552299976, 0.0147626223042607, -0.0653789564967155, -0.000299098901450634, 0.00310209975577891, 0.0302130561321974, 0.0264891609549522, -0.0233711712062359,
0.426381409168243, 0.3455870449543, 0.312902450561523, 0.261635929346085, 0.181136056780815, 0.0314539447426796, 0.0151112135499716, -0.0160581041127443, -0.0471031293272972,
-0.0789063051342964, -0.0173767395317554, -0.0116952639073133, -0.00330951274372637, 0.069731704890728, 0.067033164203167, 0.0430948361754417, -0.0349616594612598, 0.141965433955193,
0.121045783162117, 0.077042818069458, 0.0553234256803989, 0.0736667588353157, 0.118376359343529, 0.0978905260562897, -0.0436475612223148, -0.00545261893421412, 0.00296254944987595,
0.00803596060723066, -0.0187964048236609, 0.0417088195681572, -0.0516066253185272, -0.283062607049942, 0.136573046445847, -0.254370331764221, -0.0260358639061451, -0.137399613857269,
0.132300525903702, 0.15919241309166, 0.17983540892601, 0.125680282711983, 0.0544704608619213, -0.218233942985535, -0.421543270349503, -0.0357211343944073, -0.0597308613359928,
-0.111798323690891, -0.020205857232213 }, {-0.481121003627777, -0.264624685049057, -0.0327795036137104, 0.0424420908093452, 0.0192902125418186, 0.039265476167202, 0.0643857568502426,
0.046484649181366, 0.0517176948487759, 0.0363432727754116, 0.0295546259731054, 0.0307462923228741, 0.0723525732755661, 0.128155454993248, 0.130179911851883, 0.115164957940578,
0.0654529184103012, 0.111250013113022, 0.0907102972269058, 0.145371302962303, 0.084119126200676, 0.0993950143456459, 0.127635568380356, 0.0739503502845764, -0.746894299983978,
-0.736805558204651, -0.595418095588684, -0.468741953372955, -0.2928786277771, -0.25161874294281, -0.230294391512871, -0.157871395349503, -0.0534404329955578, -0.128396272659302,
-0.0896937772631645, -0.0846411511301994, -0.0909985303878784, -0.126777350902557, -0.152391999959946, -0.0669468939304352, -0.0891505181789398, -0.0773466303944588, -0.175978198647499,
-0.0429233498871326, -0.0412670224905014, -0.0380321890115738, -0.0693091750144958, -0.0598642788827419, -0.44408455491066, -0.245879024267197, 0.0279908794909716, -0.0156196337193251,
0.0466693826019764, 0.0979673862457275, 0.143858075141907, 0.0323805101215839, 0.0430386923253536, 0.0489119030535221, 0.000114972775918432, 0.00496405921876431, 0.0811606720089912,
0.14306053519249, 0.0827727019786835, 0.127476066350937, 0.0757613629102707, 0.102939784526825, 0.11091947555542, 0.107647381722927, 0.116161942481995, 0.116680473089218,
0.106606878340244, 0.0669835433363914, -0.730768442153931, -0.748114049434662, -0.571272552013397, -0.411491960287094, -0.352894067764282, -0.287928909063339, -0.201327219605446,
-0.16927532851696, -0.0437925457954407, -0.0859867334365845, -0.0244306139647961, -0.0127482116222382, -0.0454269610345364, -0.161346271634102, -0.121175661683083, -0.0453655086457729,
-0.101816594600677, -0.168600127100945, -0.17602750658989, -0.100472301244736, -0.0639921203255653, -0.0770436152815819, -0.108578816056252, -0.0418350622057915, 0.204952627420425,
0.199841290712357, 0.214635401964188, 0.13036060333252, 0.1806680560112, 0.173963099718094, 0.166239947080612, 1.06231188774109, 0.452949196100235, -0.562433898448944,
-0.725890696048737, -0.518471777439117, -0.254154443740845, -0.0473542809486389, 0.0842195376753807, 0.156536549329758, 0.420559078454971, 0.903277337551117, 1.2623496055603,
0.278639882802963, 0.225710660219193, 0.257757633924484, 0.219795674085617 }, {-0.349109828472137, -0.155319646000862, 0.0636123418807983, 0.0605350658297539, 0.0465116389095783,
0.0727733224630356, -0.0491561628878117, -0.0226772781461477, -0.139496758580208, -0.0981193259358406, -0.0322481952607632, 0.196387186646461, 0.226489081978798, 0.304243892431259,
0.168000414967537, 0.143675819039345, 0.0363545790314674, 0.13180373609066, 0.201168924570084, 0.22973458468914, 0.16627599298954, 0.184740707278252, 0.159960985183716,
0.164634183049202, -1.37046158313751, -1.33636093139648, -1.00464296340942, -0.493260145187378, -0.1282047778368, -0.0318036824464798, 0.0440498627722263, 0.0583338886499405,
0.0650385022163391, 0.0449902378022671, -0.0409069433808327, -0.0417758226394653, -0.114750012755394, -0.138748526573181, -0.0265780948102474, 0.128996998071671, 0.124129138886929,
-0.0824715122580528, -0.235137388110161, -0.103460252285004, -0.0537160597741604, 0.0680595189332962, -0.0467994771897793, -0.0659766271710396, -0.397056132555008, -0.15514087677002,
0.119030222296715, 0.0983717888593674, 0.0612280890345573, 0.0472106598317623, -0.023505512624979, -0.04330138489604, -0.0660932213068008, -0.0836401209235191, 0.0438298992812634,
0.123442701995373, 0.329152137041092, 0.327611565589905, 0.232523262500763, 0.133308663964272, 0.0461534224450588, 0.192044913768768, 0.176015019416809, 0.136865526437759,
0.153986811637878, 0.182599946856499, 0.184348434209824, 0.167154774069786, -1.34299778938293, -1.32869875431061, -1.02835214138031, -0.526325345039368, -0.193626463413239,
-0.017329964786768, 0.0275414884090424, 0.132287815213203, 0.114614330232143, 0.025826508179307, 0.0112692508846521, -0.0916808992624283, -0.148311629891396, -0.167267560958862,
-0.0739723592996597, 0.209283009171486, 0.116286359727383, -0.102939292788506, -0.223048448562622, -0.0928080603480339, -0.14363132417202, -0.0754358842968941, -0.128864824771881,
-0.117436483502388, 0.22617144882679, 0.159450560808182, 0.229273810982704, 0.148994654417038, 0.157364517450333, 0.213941812515259, 0.185750335454941, 1.36559653282166,
0.578927934169769, -0.84585040807724, -0.62164169549942, -0.510324120521545, -0.0793071240186691, 0.0774226486682892, 0.300561964511871, 0.303640365600586, 0.30557119846344,
0.444449365139008, 1.61321353912354, 0.278029263019562, 0.225578218698502, 0.180107623338699, 0.238518670201302 }, {0.758689224720001, 0.367804110050201, 0.00814497843384743,
-0.0694569498300552, -0.123472094535828, -0.120619796216488, -0.0809608027338982, 0.00855179410427809, 0.0867504924535751, 0.213720798492432, 0.11930251121521, -0.135807976126671,
-0.234192058444023, -0.257719546556473, -0.194468930363655, -0.171825885772705, -0.0573608838021755, -0.1245326846838, -0.240812465548515, -0.255444139242172, -0.211095541715622,
-0.119875028729439, -0.230399608612061, -0.0507629737257957, 1.87294793128967, 1.67288208007813, 1.16694045066833, 0.733677506446838, 0.223122477531433, -0.0362568683922291,
-0.0843705013394356, -0.144244939088821, -0.128734648227692, -0.188142836093903, -0.0904679149389267, -0.0857653170824051, 0.0953959450125694, 0.150310382246971, 0.0929738432168961,
-0.197131142020226, -0.130517959594727, 0.163438186049461, 0.275829315185547, 0.125983968377113, 0.037227425724268, -0.0350255221128464, 0.182538971304893, 0.0485235340893269,
0.713324427604675, 0.312958121299744, -0.0378891639411449, -0.129584550857544, -0.154263287782669, -0.0934455767273903, -0.0912431254982948, 0.0145563799887896, 0.122956663370132,
0.135930269956589, 0.0678092390298843, -0.111387208104134, -0.228592127561569, -0.310456424951553, -0.253754436969757, -0.169816598296165, -0.0710655078291893, -0.159187749028206,
-0.290182262659073, -0.257794827222824, -0.228855669498444, -0.112153455615044, -0.209739685058594, -0.0820389166474342, 1.848424077034, 1.69275164604187, 1.19688236713409,
0.727592885494232, 0.223657324910164, -0.0207035001367331, -0.120516002178192, -0.212365701794624, -0.203164786100388, -0.140425592660904, -0.152993112802505, -0.115582406520844,
0.000444096134742722, 0.109324768185616, 0.0332055985927582, -0.16637496650219, -0.052351251244545, 0.179553806781769, 0.303363710641861, 0.0630867183208466, 0.135246589779854,
0.0451291315257549, 0.199909821152687, 0.0957124754786491, -0.265588939189911, -0.238985121250153, -0.195608526468277, -0.17966690659523, -0.168747544288635, -0.261641681194305,
-0.154560893774033, -1.07218623161316, -0.111411057412624, 0.270977854728699, 0.54804003238678, 0.347197830677032, 0.398845434188843, 0.188243329524994, -0.058627475053072,
-0.224484756588936, -0.541915535926819, -1.23682618141174, -1.48486852645874, -0.328558206558228, -0.173585772514343, -0.361605167388916, -0.28654682636261 }, {-0.369681715965271,
-0.292113751173019, -0.150611221790314, -0.0735835954546928, 0.0153602045029402, 0.098923534154892, 0.140792950987816, 0.165897965431213, 0.130856826901436, 0.00761009100824594,
-0.0573852881789207, -0.0165087338536978, -0.037190280854702, -0.0519492216408253, -0.0250909589231014, 0.0229004845023155, 0.118452452123165, 0.0686268582940102, 0.103928223252296,
0.157169491052628, 0.0590631254017353, 0.052817240357399, 0.0697193294763565, 0.00432916497811675, -0.347031772136688, -0.299549758434296, -0.263692647218704, -0.37213259935379,
-0.349732488393784, -0.36735874414444, -0.296069115400314, -0.233237072825432, -0.157823547720909, -0.174572497606277, -0.105619601905346, 0.0159725341945887, -0.0548645295202732,
-0.0993097946047783, -0.201431214809418, -0.251735121011734, -0.215088710188866, -0.0706737786531448, -0.111048333346844, -0.157792493700981, -0.0301652811467648, -0.141323447227478,
-0.100204825401306, 0.00249990471638739, -0.40595155954361, -0.259396195411682, -0.125631392002106, -0.0191344730556011, 0.0297111626714468, 0.0872906148433685, 0.124020427465439,
0.101061463356018, 0.131051778793335, 0.0457732491195202, -0.0448137000203133, -0.0116874082013965, -0.0356088541448116, -0.00201696949079633, 0.0204246453940868, 0.0609766431152821,
0.0722775533795357, 0.112231083214283, 0.121848948299885, 0.067722275853157, 0.0222491919994354, 0.089970588684082, 0.121870458126068, 0.0303797144442797, -0.327362418174744,
-0.278188019990921, -0.325948625802994, -0.291551291942596, -0.305016338825226, -0.327504545450211, -0.238305956125259, -0.234217196702957, -0.130544677376747, -0.153194457292557,
-0.039450753480196, -0.0105151617899537, -0.0209770984947681, -0.0798104181885719, -0.22096836566925, -0.186148092150688, -0.220853418111801, -0.0941048488020897, -0.101860880851746,
-0.137945711612701, -0.0658393651247025, -0.108204498887062, -0.0612117275595665, -0.0554159767925739, 0.128000661730766, 0.101790204644203, 0.115564525127411, 0.157050773501396,
0.0637663155794144, 0.210942223668098, 0.126474991440773, 0.820543944835663, 0.380491346120834, -0.309756010770798, -0.668101966381073, -0.465661913156509, -0.220904037356377,
-0.171189919114113, -0.0460165105760098, 0.104272708296776, 0.354875057935715, 0.999857246875763, 0.937849104404449, 0.200635954737663, 0.11419140547514, 0.213810756802559,
0.0661672353744507 }, {0.527150392532349, 0.282763242721558, -0.0407284386456013, -0.0992622524499893, -0.193321734666824, -0.0831873863935471, -0.0682351812720299, -0.0233857464045286,
0.0397722832858562, 0.181477934122086, 0.117891885340214, -0.0899485051631927, -0.233443826436996, -0.239399373531342, -0.238466754555702, -0.108017817139626, -0.0474721267819405,
-0.191660091280937, -0.209326505661011, -0.288227409124374, -0.187901005148888, -0.12429591268301, -0.205959111452103, -0.0706353709101677, 1.58157014846802, 1.45476520061493,
1.06260228157043, 0.673754930496216, 0.275424063205719, 0.0916236639022827, 0.0063898665830493, -0.110091134905815, -0.155103802680969, -0.0802744030952454, -0.12446453422308,
-0.0221414137631655, 0.060316875576973, 0.202018186450005, 0.136367186903954, -0.109208025038242, -0.118010252714157, 0.14483068883419, 0.307736784219742, 0.137012422084808,
0.0793583393096924, 0.0430973395705223, 0.166640937328339, 0.0737457945942879, 0.614177405834198, 0.28442457318306, -0.101917393505573, -0.180635839700699, -0.175520703196526,
-0.181476816534996, -0.043088112026453, 0.00898605678230524, 0.103818379342556, 0.0949402302503586, 0.064751997590065, -0.101958893239498, -0.229476898908615, -0.235589697957039,
-0.250145584344864, -0.100632764399052, -0.105992667376995, -0.210070550441742, -0.201523795723915, -0.191338166594505, -0.177122086286545, -0.185003817081451, -0.143605709075928,
-0.0647502765059471, 1.61034619808197, 1.45327889919281, 1.02995777130127, 0.702311396598816, 0.312580317258835, 0.0936320275068283, -0.059081919491291, -0.13506518304348,
-0.128045037388802, -0.0802273079752922, -0.110522173345089, -0.044915683567524, 0.00937050394713879, 0.160354122519493, 0.0501556359231472, -0.11644221842289, -0.0412492342293262,
0.138445630669594, 0.216846600174904, 0.0904052928090096, 0.0840692296624184, 0.0944070741534233, 0.162638798356056, 0.0806808620691299, -0.278032064437866, -0.162553504109383,
-0.181148692965508, -0.136994555592537, -0.161143034696579, -0.225401043891907, -0.136904045939445, -0.951639235019684, -0.147581174969673, 0.0920177474617958, 0.437907934188843,
0.159681931138039, 0.354765057563782, 0.248209193348885, 0.0122734075412154, -0.215358838438988, -0.47055658698082, -0.976267874240875, -1.31740009784698, -0.254332184791565,
